solver_type L2R_L2LOSS_SVC
nr_class 62
label 45 14 31 7 27 8 5 48 40 9 44 58 13 41 35 4 34 1 62 20 30 42 26 24 18 17 19 2 38 53 59 46 39 3 47 21 51 28 56 32 15 6 37 12 55 11 16 57 49 23 25 54 60 29 22 36 33 61 43 52 50 10
nr_feature 999
bias -1
w
-0.7062678065814745 -0.1870070475740307 -0.5717713365292671 -0.3772490581455448 0.04991199362610104 -0.07415470050800789 -0.2530920845475553 0.4795458370064445 -0.8495974592844036 -0.252181104852836 0.7207523319263855 1.634527994330697 -0.1609294675405959 0.195651601259467 -0.5727549387446704 0.2809325960267896 -0.06089027828847727 -0.5709942188862036 0.7186596740961635 0.07450509450309706 -0.5805252625536861 0.5795313218981122 -0.1856578808357953 -0.2791589824909129 -0.6309270299964443 0.4843593302265192 0.03509351697135218 0.2741090351579528 -0.312750166962405 0.0648017306507405 0.05444363897372259 -0.2184322125785503 -0.04684123440812273 0.581285810878891 0.05074501390377961 -0.606958258758247 -0.9499683510838881 -0.329255598296785 0.4967599996683926 -0.0897031877382454 -0.3573889653286371 -0.457335974943996 -0.6306897854470946 0.9629800943033484 0.4792218968741523 -0.8277762473579287 0.09190986817395985 0.1615567438946191 -0.5741111089769592 1.241510399040455 -0.685770825548064 0.6193880004213588 1.030367233788076 -0.8879469003910621 0.9369172223643991 0.3679458275402776 -2.932371306106328 0.1587422829541213 -0.009389603150864114 -0.1704752013590765 0.5439110744434591 -0.1980113393933084 
0.1574734521698973 0.5697557562095548 0.3402233107818164 -0.1642243487520042 0.1410287410848482 0.5421489009115087 -0.5942982310140557 -1.272981637780257 1.417632111139933 -0.2086944611179851 -0.8290147881205545 -0.6252767603318584 -1.439358302687729 -0.9132781282356282 -0.3746042099403617 -0.7821032675143177 1.119279138436676 0.08486739505308173 -0.1797156339929849 -0.1256669313072563 -1.235117380721343 0.05869157855758172 0.1721736306485915 -0.2647998282035385 0.418225148181127 -0.2509049046189211 -0.2361508990150479 -0.9732995005754012 0.9558573497526068 0.6367221466340641 0.8798598531769528 0.4268248355284509 0.4034029501183262 -0.1503280197735815 0.4159779944315951 -1.684137244683477 0.1870538741422925 -1.538540525933848 0.8006193036599673 -0.8512274219671122 -0.03932892153522241 1.814513735573466 0.3479349831118014 0.6054307372340891 0.2043821318992838 0.4486233526727086 -0.2072370078612475 0.115615060852252 -0.2246070929302116 -1.179342906548135 -0.02723523114011399 1.439335986791227 0.04447681990546676 0.6063884048184586 0.4441229996273876 -0.06986329700249612 -0.5834061622256828 -0.2125158225074358 0.3770608730785647 0.001737923844254137 -0.7704614901457927 0.05587171426694694 
0.2047467407561664 -0.01835077716088602 0.5146938126404706 -0.2788674011801646 -0.10160229061173 -0.3563680378715102 -1.078684703785936 0.4181567576796992 -0.7098640212921843 0.592003894355381 0.6440796616862147 -0.9460750681511406 0.7439919724223141 1.438574058632614 -0.3968347398944802 -0.4212463510711819 -0.8434991528789989 1.368720951081095 -0.331217721399487 0.2859933106937258 -0.3314341359930457 -0.2189805785385034 0.09200880593490568 -0.01125170988345134 -0.2842686437115504 0.04352282799059203 -0.1517619935228436 -0.4504028654707151 0.1695534828924527 0.4992083220372293 -0.3734087799617047 -0.9608708819096425 1.295464482485283 -1.214342705917939 -0.5437803968183597 0.4861337481458595 0.5709389271333826 -1.54421273998567 0.9663921172197316 0.1099322162173062 -0.5177968248098525 -1.164649668333708 0.1155949838203887 -0.0265012933970725 -0.2478237557634417 -1.391287886732561 -0.8757480527132169 0.1915335549843986 -0.9187243305029251 0.6987946954315502 -0.03138675471763955 0.0388000813771754 -0.02698184380524541 -0.5568874964130889 -0.7437484997812664 0.02231668360150415 -0.1962329988573387 0.01450390882987358 0.4035710899187429 0.1114421764036973 -0.2527580911140068 0.05438343938209766 
-0.4708801314038697 -0.3959531817310467 -0.1766621961187334 -0.1971555597957294 1.047997381204632 -0.05578574754861466 -0.88062369952307 1.902459687796232 0.07338169713202881 0.5469125749273701 0.7187800665181349 0.5841905343291245 1.29752474818748 -0.499926579685965 -0.28456401279685 -0.5718437849204633 1.167942640006147 0.1375808318339532 -1.128369213497455 -0.5782224638743619 -0.4226123302951983 -0.6031506514997004 -0.2416048772803039 0.02948313473863824 -0.9105273768973297 -0.05952749959151285 -0.7019485592209145 -0.358595473457864 -0.3461241846159799 0.8682163399124235 -0.3797596021015364 0.7400587928477002 -1.167531474716562 0.7059163270912651 1.170237370528583 -0.3104475849521281 -0.004561066817009657 -0.4699856399832765 0.0755717114449604 -0.3218698949942685 0.8621966296309104 0.6460107138905941 -0.3156403021170729 0.2822134549607073 -0.2391703743350959 -1.126762744482196 -0.5154199120961841 -0.6860240818520883 -0.1294567702965712 0.2162976127497377 -1.063670930567088 -0.3184120328189193 -0.2729873305985533 0.4916864182024631 -2.411406075103859 0.2100298425944128 -1.096953151368852 -2.259804882522922 0.05526033597556114 0.02264434073219777 -0.04905208473210219 -0.1490830373216662 
0.01390184167697407 -0.03312949433313424 -0.5721330615570169 -1.238205348719667 -0.2390705130439481 0.09351077048282605 -0.3624156415730906 0.4937039200971279 -0.1685990036473818 -1.257750044376075 -0.3557707573415901 -0.4416739484713743 -0.1060320992642088 -0.03868452802572924 0.1765685669142805 0.01290593544935447 0.06190818282357166 -0.2768593942567834 0.7477282881899397 -0.278961595877146 -0.4474569604763424 -1.233801401409186 0.2003761460005208 0.3556617094860673 -0.2274550526358377 -0.6078571395768931 -0.102050762569621 -0.2830783654595631 -0.7968055657045495 -0.8431373220385784 0.5575148836305827 -0.06227378516445856 0.3279602192360712 -1.935244864241968 -0.4326667070227663 1.290977277826423 -1.106161687861918 1.93070573294273 -0.03500675102532937 0.6777575410631581 0.0530813973004497 -0.154996449724229 -0.2820136883424108 0.177347243851419 -0.7759177562809971 0.8664186357750809 0.1734353819788489 -0.4648153060550912 -0.2324120039735695 -0.1905805817676399 -0.2467874426095313 0.1785414055617037 0.6153490191903712 0.8547075103450293 -0.5430315995784954 0.3244971116064128 1.434129057629899 0.6415929069271586 -0.1118999147875785 0.1263083870234893 -0.2247564862641297 -0.3105257016219226 
0.8754283407086695 -0.4799521042328815 0.1673848440220871 0.4287789925031545 -0.8198893126316951 -0.7201225137916383 -0.6138817629250596 0.6022182271811851 0.9522068411699162 0.9593838838690967 0.1860020275779863 0.6205673907316119 0.2104854565683687 -0.1670515059771609 1.605638884471528 0.3124854709268659 0.1695266485254938 0.58174203743366 -0.7508780030299548 -0.33471564266049 0.5324473031508836 -0.1638366311996315 -0.02456613769234135 0.2827522208488326 0.4311424153787492 0.2201428946439755 -0.362590312155242 0.3631624567956909 0.04106520216155297 0.3171213748144882 0.1506434869241118 0.2971115444965151 1.484406120603317 -1.185933992108926 1.238567403965373 0.3257326389925695 0.5620030982517477 1.261154452808378 0.8461998475917365 0.01796666865175322 0.2342645900453735 0.1238054851269287 -0.2812740709733867 0.6246285321437571 0.1752206974606852 -1.136215403198453 0.849770272859086 0.5024919461820935 1.528324933838072 -0.7976698775445306 0.07250834853257995 0.3552771294078796 1.013659141387618 -0.002409976343017533 0.9412162765953253 0.5146437647407611 -0.600958602514822 -0.5942061977263875 0.3046306401430001 -0.2432388674722887 -0.251589094598116 0.7685743172445881 
0.9293790000530754 0.03702725612668362 0.1639877297908583 0.3300011198850624 -0.03886434691745462 -0.2646339848828209 -0.1933303303559825 0.9564649795886201 -0.2884773380545418 1.053389036260725 -1.052893640983773 0.651160117227529 0.4783772118993083 0.368213827250598 0.483497996049656 -1.130336389256632 -0.1400779259233623 -0.5899209234009842 0.116975873303125 -0.2856204069905167 0.2756099793970939 -0.7984011926429265 -0.1602510888035767 -0.5648293555719804 0.5150945771839684 0.5223272250623342 0.3240001714752012 1.309528366607263 0.1530069505289949 -0.1146326234014859 -0.8462758850036626 0.3818627520151591 -1.660322781025705 -0.2062072189146441 -0.422059322320341 0.1712816986963961 -0.5662655893662265 -0.3839037556974128 -0.9572954939623827 -0.5044599390256407 0.5298805556322888 0.01479960012901918 0.5832012395342312 -0.2177847258632804 -0.7593052903615621 -1.26280647493892 -0.05601748383472536 0.641690486299345 -0.07588098857396838 -0.7696652652420813 0.3162112376485051 -0.2632252370193789 0.697185866553962 0.09748787767967367 0.9769299120907589 -0.2221445151127271 -0.04267354550188539 -1.278291437128117 -0.1934100134037965 0.1454869362742426 0.6059088046981467 -1.447256919413225 
0.5242339909901389 -0.1324458428270336 -0.7004814350937185 -0.5729051922098554 0.3705083506545819 -0.3020297921590105 -0.1579768423865955 -0.3566236312198815 -0.08917439685099433 -1.166835564768232 -0.3223503136905746 0.4197928048834224 0.6114674212289563 0.3745851667140171 -0.8424969909105053 0.5955346228537733 -0.08861334063261682 -0.3217373180939045 -0.4498975092969753 -0.5574577238962809 -0.8059744824868587 -0.0587714938880402 0.09219254307303507 -0.02038994910235559 -0.2291585221317343 -0.6212496060222066 -0.9718897447044387 -0.3584803340270381 0.5634259222988293 0.8203096965164959 0.2521599024519467 0.6579876119362154 -0.9556346171877709 -0.9304144300300957 -0.002275265958831675 0.05933489086406377 0.6842927882531463 0.8290464345233097 -0.1765734558202262 -0.08242942613960792 -0.1071913270605739 -0.3544475647601162 1.002885911728968 0.4296996642988439 -0.3036763661482776 0.1608547437406577 0.396480080462673 0.2823798496268007 -0.04178668482850034 -0.6602754709068382 -0.9361949608716104 0.6804378865519863 -0.1383690276055913 0.3353962799217449 0.5001213364277246 -0.2828960859383123 0.1536079724932198 -0.3806159061470608 0.1766674384040598 0.1166233439828421 -0.3027312930286106 0.1512289438616543 
-0.1490936919333628 0.0844896916699196 0.1266034961917981 -0.2903672703004801 -0.8815629618371662 0.2979209109261733 0.04429266084980862 -0.3887092847750656 0.4820793059484348 -0.1640207172595264 0.1174021103593547 -0.5571292555792152 0.7810708947926619 0.6066450647610282 1.39447179929628 -0.7785261203294623 0.4044024280845004 -0.5091999993731472 0.845975496689772 0.6540061657585317 0.6221126812427151 1.101125141979666 0.2601274840509777 -0.1991708233711885 0.06443965232238308 0.07169979865535242 -0.3147868525189743 1.385065865301497 -0.5212094017262321 0.9091468870942334 1.54023098205713 0.3249965918125119 0.08182919188595709 0.80453173732618 0.5160808152378249 -0.521185906278782 1.50330893923404 -0.1222729682848332 -0.8278061180822531 -0.1693205868465853 0.3826622724572697 -0.7429447226783822 0.5658104071349227 -0.3413751711602356 0.2274096598145038 -1.61185997734172 0.9707150674851591 -0.1800062254676255 1.623504088369779 0.0632168237291852 -0.6116664071202518 1.304548360265598 0.3800816885371867 0.5345711903801533 -1.604569098211692 -0.1423676534778428 -0.7941535835382857 0.6772650618941306 0.2786151469518677 -0.1872292368625539 0.06907647474339321 0.4515745847795916 
0.6503689675353053 0.4516306287638883 1.164107115799077 0.9051183677665563 -0.635775525143696 0.3943821487423113 -0.04670566538883884 -0.6323389294205235 -0.8913858526468385 0.11277969115145 -0.4725588834597689 0.4297137411908643 1.682887696196151 -0.7530924948634625 -0.9597968698136965 0.03114412782154518 0.742842161246687 0.8164404865469163 0.8092690374733638 0.4764052898140164 -0.04561266218869515 -1.047787405360605 -0.1504785400145802 0.1672656919701727 -0.3025798545385999 -0.2450512129105225 -0.4617138065626071 -0.1413661047236448 -1.646827106585763 0.8657786980589002 -0.4263263162946317 0.8847659332793744 -0.1799435562002658 -0.7039137633533581 -0.211615120281626 -1.114530019043839 -0.4222938225338502 -0.1284659530373969 -0.8772829062436781 -0.5809148176231509 0.5217150255744812 1.129831253913261 -0.5470971847195769 0.3503961466629553 0.4405233512503645 0.2321169595472198 -0.1564685938854342 0.1010103239240757 0.1882731481068995 -0.4146885573467907 0.6433368647283477 -0.06766802901640134 -0.555083129432033 1.19788384131425 -0.6004060094361241 -0.2967579559062695 0.9652746126026632 1.447353474419195 -0.08644906805268553 0.05304743763502452 0.4963095980178017 0.6896161765050351 
0.4219936301522559 -0.3387790583032995 0.3384361246717427 1.166774486900489 -0.4457418489219461 -0.1857855760356553 0.2316776137796063 -0.1069047197489959 -0.1756504506431473 0.1225159826930478 -0.1090104408458043 -0.2132979893919356 1.624591755347144 -0.2031973434176726 0.4302957138661409 -0.8331631747242281 -0.3453133126208632 -0.007063755796551106 -0.9343604284679916 0.1511595194125858 0.3906805564449991 0.3780569009799205 -0.1511553543191655 -0.3105590550749754 0.1084569977705007 -0.375288348206604 -0.4395184191017791 -0.7070274469427993 -0.2638400400936715 0.1628434122397038 -0.5074454027592898 0.2014618063943018 1.064057989306854 0.3480000026849144 0.3242429104972535 -0.2719834788444792 1.52958274549829 -0.1521666130351775 0.3383691023560239 0.3756760401316762 0.5816130237204088 -0.07645350724165773 -0.1715032831945764 0.7753879511255934 0.1188625671390199 0.6458278524279327 0.8657249805082077 0.05486324609407394 -0.5373678200157478 -0.5173073217243066 0.02201638570012155 -0.4654378271226938 -0.1194981591272353 -0.2950974146928315 0.8120706287219073 0.2133667880573141 -0.6216305603730159 0.9404557920001491 -0.002193740616436355 0.07729013299087084 -0.6586252356411618 -0.5903067654676217 
0.4880408654779125 0.208177040199864 0.7684887301998992 1.05687949602865 0.385391838595373 -0.2712293749524016 -0.3797518446156916 0.5696861524810222 -0.08410626169123622 -0.384525355051648 0.7077073902335204 0.180233058402072 0.7037730897402533 -0.286207471047857 0.2587940699018811 0.6409263175523811 0.02954194640613219 -0.007540297773872658 0.2243145298808381 1.483056970193281 -0.2598542137781165 0.2601475275224669 0.1584044075500207 -0.1877981271632772 -0.1083662800738896 -0.3233565918979338 -0.3130321926317429 -0.6683887697448563 0.4328174887360561 -0.2901808197565435 0.2957308828412522 0.2820392275565465 -0.8684043497547697 -1.18604295397892 0.8697541507725061 -0.03804842508140999 -0.4365224222861842 0.02905008064863013 0.7002980421146755 1.271976202026671 0.2205242422607009 1.9560927887087 -0.6669345209219727 -0.4182767036420796 0.6921089007687791 0.2365379558395765 0.3815805538513184 -0.7521611980668428 0.1694713709825232 0.8424349601298172 0.2234306016144359 -0.3885055177970911 0.5954385005625159 0.2849466809908939 -0.3141528955597197 0.2179024969194022 0.9751300884398987 1.475627211197726 -0.3241979719271355 -0.005289311623055694 0.2642752858310276 0.3687476188070936 
0.2755957556024785 1.003315940776516 -0.4081047600449537 0.3427185174333697 -0.3395178056579741 0.2119476371307834 1.465700981932097 0.904956725869322 0.03475173780342163 -0.2369537966809733 -0.2673785788706062 -1.435795145249972 0.3121436676279405 -0.4386100801515966 0.1483198238017209 -0.4581748374765972 0.2941231078298976 -0.807530542058821 -1.076252879501572 -0.09671658788754693 1.678484004966443 -0.1286956204512298 -0.1079186355348466 -0.06677555224585631 0.3996360023174038 0.2469185061876054 -0.5742667226297121 -0.01466928925694716 -0.5822371217708069 -0.4008121123533483 -0.5018270407137174 1.022109818116446 0.2720198899641603 -0.3228009620469828 -0.778316925697459 0.5411489899326908 -0.3005152469976005 0.2515586604316368 0.4526665932447377 -0.522952431611493 0.2143777265835142 2.667663009001432 -0.4793969489355189 0.6235439344234646 -1.464318514784846 -0.4584469426065054 1.338211572764385 -0.6703822062647954 0.5875392431565944 0.6255409093208206 0.2015087934742713 -1.072499599106593 -0.303915945528831 0.8224849776536231 -0.5297497617569107 -0.01660932522023141 1.249496771435555 -0.4765059006652422 0.2026490895097038 0.02724010716934142 -0.1376917039563995 -0.3919910363616361 
0.4362306724631865 0.5672635149184957 -0.4719614077657809 -1.167369443748736 -0.5683055792546738 -0.02929468685277367 0.03007143658232043 -1.64899211013725 -1.006699217348899 -0.8758984030546998 -0.5083672299581068 -0.9513839588482769 1.330690722457273 0.4954242417945705 -0.0475536063034234 -0.5632668608198722 -0.3595038041683131 0.02145785307748908 0.2234259689957002 0.2430252246560528 -0.07531781780922527 -0.2956638876613584 -0.07793549479878426 -0.02666528066604869 -0.4095781796750831 0.2942965392143529 1.223779856477623 0.02748419665696046 -0.2108064352832884 -0.9891299091006573 0.9445661505835851 -1.524507543818317 1.085498658276334 0.4029416913138183 0.2132032689359596 0.03085722654051107 -1.375514169573393 -0.7855685788150302 0.1214706410824896 -0.09744491435313671 -0.7002601939134173 1.521031383236937 -0.2180115608305287 -0.1151094575204031 -1.241431277483526 -0.06197477027057601 -0.9857064948468608 -0.3339927692831497 0.4680578982046918 -1.16985216990947 0.4282559460372753 0.5149893569709109 -0.05315670651418845 -0.3067371624595541 0.2359568803576498 0.1249489110821138 -0.773571717266713 -0.4121961339165439 0.2598189071971604 -0.1711782682621712 0.01336886670483621 0.749428231550504 
0.9831117981622698 -0.2088918975751537 -0.294552755151692 -1.224675159840286 -0.2854447827373746 0.1470143731781629 0.2121776770499828 0.6327229511332697 1.173878482013285 -0.7401393563964296 -0.122923276931764 0.2216913368893051 0.1637553557444443 0.7795515475990225 -1.004560933215597 -0.06597374935368322 -1.466677276728961 -0.221114507256323 -0.1520168324197446 0.2422866527116909 0.172261060943754 -0.4934070333620885 0.1176612864318382 0.2310314935593309 0.569325782846536 0.0583771329975287 -1.560830149874179 0.1289804508545794 -1.058011490861423 -0.01750502303947996 -0.4810611901940999 -0.046530589563029 -0.1855948937014896 -0.9375713893638495 0.323284458557293 -0.6437448599028224 -1.060191917691675 -0.6644115617062657 0.8471220556823581 -0.2739063006522814 -0.4981508983889706 -1.464665480012872 0.4030829416696594 -0.619730217698922 -0.2593904302073191 -0.1715721316696733 -1.160343903555558 0.3390506072169641 -0.7698033643496343 -0.02194140020977935 -0.3679446708803955 0.2614856513119469 1.158395234784965 0.8806901615453698 -0.2052935003495861 0.007687663885842413 -0.7786920833228831 -0.4449071249833211 0.1904764445908938 0.04416590874411328 -0.03339537917220304 -0.3426593487843644 
-0.04492356701606426 0.01996698234094318 0.2006709639309605 0.1298919061333482 0.152125370640256 -0.1767280097598378 -0.3985618029917992 0.7105212066725295 -0.2466499846200253 0.4353174404731377 -0.04934551970621458 0.5021757949331713 -1.032043680588408 -0.1936147240992014 -0.8174774992743097 0.6819210624814435 1.28019183662499 -0.09204274140889138 0.08848441223059322 0.06446842194859524 0.2289803284464917 -0.8164894988585832 -0.005445391775711234 0.1930431999701873 0.1200540229421472 -0.1310916866308328 0.2868540924515561 0.3075589123278912 -0.2486399298948584 0.4499479908018801 -1.306008516870733 -0.04126347822147303 0.6029865202529143 -0.6448248956347482 0.943495550119848 0.1084007874457299 -0.7715870372878484 0.9177522077364578 0.6068703153400467 0.6833916516712267 -0.01144725960577956 -0.5374406321271343 -0.09437111194888158 1.029058731318533 0.6370630125153395 0.1542866863276096 -0.1552562481363806 -0.8465113209502938 -1.042866376381264 0.4916316147793102 0.08991705640473506 -0.7437707037561569 1.69376070894601 -0.370598252433043 0.4834028608262272 -0.1370353415588673 -1.369321892251426 0.7007377037004 0.1478296680840745 0.6066561721393445 0.3069487517287804 0.1201034711335833 
0.1436555156379902 -0.05841540332749794 0.0135765305412316 0.9362716279638267 0.6950471334649397 0.1999931787609756 0.8640037901841354 0.4004769124966331 -0.5249100197383059 0.6459701938323443 -0.9450544719489196 0.6006941276486217 -0.1189210962031111 0.02464079792315419 -0.1690667027343264 -0.2096252841280667 1.58866407268029 0.01023779023751095 0.6396644955991002 0.7329611491872815 1.504157978708518 -0.1333912523625761 -0.1560272944228388 0.3029883878950431 -0.8775305945392271 0.4752593160642599 0.4901640639758792 0.9017689581196056 -0.1196484572375401 -0.3609148070191746 0.5202181668400211 -0.557336256794291 1.057861816796079 0.982475999187536 -0.1900325121481024 1.037009260260843 -0.6794039674510495 0.770746760324881 -0.5703531724890172 -0.8350541178899128 0.5303748788456796 0.419145605370572 0.2075654128332601 0.06073694591006235 0.240682949517618 0.1400305069431911 -0.8009320001518901 0.5428641896697223 1.121993022899183 -0.600733416052561 0.3059606648992503 2.026793087400097 -0.7911531019534424 -0.3066276102186231 -0.1959085486184535 0.1452527290482224 -0.3726352955185165 0.9596881166389329 -0.2373593677105644 0.08245950579768885 0.2297897919124543 -0.07008369398983721 
-0.4809203526682781 0.09601969460309698 0.414414189429022 0.9733165231679259 -0.03398480936937359 0.6934020371551456 -0.7315804869689327 0.2776499457917784 0.09868686594932866 -0.2031532680892224 0.1218715284333289 -1.720138917560465 0.834550523775738 0.05561301756122061 -0.3314264097515318 -1.258534565938876 -0.2738666077654746 -0.2167286793193861 0.6609211066745366 0.5170676323414687 -0.6693917065173727 -0.6394836769071021 0.2539791886938362 0.4090008246072686 -0.4160006156575765 -0.2080501296054795 0.4953863407014262 0.4719429592131358 -0.648960328641433 -0.4581771673922717 -0.5166709487804324 -0.7092846417893598 -0.1488664948783202 0.5971298500613256 0.1515704363862181 -0.3307627944101562 0.8223413381772371 0.6506898275767721 -0.3161787626456567 -0.08820245720803691 0.8199888906789176 0.2707485859852635 -0.1687923316466341 -0.3704569534632887 -1.13793202851228 0.7366550347817231 -1.011575039604445 -1.099582450426578 0.8667312141715778 0.1093420757842137 0.4519395598170535 0.002207999049346716 -0.6389702163026917 -0.4424078869083248 -0.5502368169404926 -0.2889102419113747 -0.1430179433753942 0.4645101145760346 -0.2753029308502255 0.1584361265817173 -0.3246741865073041 0.5516570910988661 
-0.02606800149309128 -0.2381259041585263 0.4734707141229155 0.5770981570998003 0.1275188057337319 -0.1870207647581624 -0.3971073709245495 -0.08619882715363368 0.2841599451740799 -0.5291144114860006 -0.7024998057026178 1.10076722180141 -0.4833431301198772 -0.6419308267976875 0.316903995232682 0.4080932611372263 -0.06211791673633662 -0.5528126757337307 0.1744558850752499 -0.04866163574468499 -0.7409154540109378 0.09338660631291722 0.3458088551753293 0.05245489592685643 -0.4985861478473821 -0.1676284385541679 -0.7737182021567248 -1.24306495324348 1.228767286356111 0.4360483866802219 0.06569587594086208 0.4858439177587113 -1.045808852425724 -0.7813133952246347 0.4632519105780524 -0.1759082107469869 -0.7947107356200315 0.6576951337585301 0.9176669929369548 -0.02386317071170092 -0.2203691293625946 0.1379428486272368 -0.2320406625990558 0.2160810874615282 -0.2560926483702393 1.571321122430518 -1.425024238982077 -0.2661347278455666 -0.7793773635007719 1.254712051443651 -0.5424251491232478 -1.161602682757314 -0.04715741704068574 -0.6271990411893457 1.177230713391279 -0.078025272338145 -1.844660184341704 -0.121702422126528 -0.3954212812505499 0.1503482693142182 0.004599501858964603 -0.07000501625169553 
0.3909799038919473 -0.175577974768438 -0.01767780357925957 0.9264397003004682 -0.8009160526536487 -0.1939551239613267 -0.6501774297811065 -0.0004454432064286863 -0.2694284502905434 -0.483806829835958 0.1882250421688757 0.1742340195987405 -0.08759876562015691 0.1384460586325904 0.7014072075289248 0.3665221706321108 -0.1446067554196921 -0.02098894757635902 0.03404444563521 -0.2042588482859856 0.3252648551612901 0.1855922473087599 -0.1632248161175802 -0.1415659094764088 -0.4540007139517037 -0.7862321931073135 -0.3030472614499131 -0.6341741483658786 -0.4816947205465039 -0.5435354398191216 0.3906437946848351 0.3647552472457183 0.4902200816978397 -0.3820357209170017 0.515396442076918 0.4514168104187228 0.09084615287233155 -0.49965015974383 -1.150986616170163 0.1096784961006034 -0.575179042735425 0.4225467739032229 -0.1966895676745895 0.602596489173183 -1.014029387796419 -0.2168578853764992 1.156820133633625 0.7001039190007949 -0.03883831803174478 0.441026323223575 0.4254920676007834 -0.6755773710306917 -0.3563983246452446 0.1146215366862803 0.2224682274850377 0.317562973384805 0.2809382382951374 -0.001731686333219872 0.4994847072780678 -0.337553444553395 0.03643974442566065 0.07598022178872586 
-0.5920745983959302 0.8255915532154725 0.1313269522417944 0.4994638257670218 0.01632292056649673 -0.08984232991230058 -0.3409107813860865 0.302846703054395 -0.4196543572420456 0.7240028112519269 0.04320317805554882 -0.7175259292607841 -0.1279437258738124 -1.445635475651328 0.2954215537796126 0.6341177610137286 -0.03835024118408453 -0.489241390284983 0.3440651920084831 -0.1895824267017535 0.2489339018531526 0.2735804844921635 0.1450178378277615 -0.1427271971520528 -0.7322732771886109 0.2204019748014594 0.8394726312239139 -0.320098291332853 0.2629383857150101 0.2400468332219605 1.432632119303381 -0.2010639875094491 0.1809792315715166 0.8210887514732861 -1.419668916373067 1.26126218319966 0.8082690066786504 0.1163569740625418 0.2981160186091886 0.3897499742761178 0.2292306580000888 -0.6694733720947236 -0.8135871344608323 0.6529193664749811 -0.1279425113807808 -0.6106336693627393 1.560117971526959 0.6518761494052249 0.5578281977110947 2.005232667639979 0.5580489823447611 -0.5068333215548642 0.1603954499814074 0.4881968727984593 0.5474253864000965 0.02923243789984508 -0.6681522722009351 0.4435164187589374 -0.003131793611166511 -0.1125581651130301 0.3634159705882866 0.1910175536156004 
-0.5327689854846659 0.8685069508429281 -0.1669619875923791 0.4073271891735121 0.2889189313587148 0.758726981099399 0.2580718957600053 -0.6688720645826542 -0.003847021263476635 -0.6589142202555922 0.9208347432163034 0.04115167097293049 -0.2217876793576288 0.4763161396493368 -0.8462024361986415 -1.212148691268663 0.7371024805476534 -0.3006556954352921 -0.01993778888559266 0.2183234093308876 -0.4517397695777084 -0.7899154334923211 0.126584495569688 -0.03656954153404832 -0.697472574356153 -0.2495475525638554 -0.1142878598666189 -0.1277452094857836 -0.2461086287913812 1.085193111085578 -0.1637508928930634 0.6460895722522058 1.206433549829967 0.4212055394787853 -1.298394778384387 0.07602104969371742 0.1094122299023159 0.288019502857275 0.2767037936915069 0.2259593140224878 -0.3669248467524891 -1.516931968403949 0.3244270893499165 -0.5082167603647356 0.2269351983404777 -0.2362546190493471 -0.1336341821370857 -0.3573923254233508 0.1175411688570152 -0.9662443944812147 -0.3705126232911343 0.1045903144564754 -0.1617016648235324 -0.4115469080521795 0.3266725272619205 -0.201253944471623 -1.087554393933145 0.2041161815463939 -0.2852382473658288 0.1100997434142814 -0.1535239654564185 0.04543943931314278 
-0.2371801277408604 0.2822754991356769 0.4926085819452308 -0.9180184366018289 -0.8384304895452687 -0.1025891393681937 1.140485847225377 -1.449213911648252 -0.2421322059262919 0.322377056306672 0.3237592066281907 0.0273104267480575 -0.6745936111168233 -0.3531368565028443 -0.6992767622005447 -0.9040434483272776 -0.1194802818185143 0.4026966221635054 0.8314124179622303 0.0684122335285295 -0.3053011852823944 -0.324885453020226 -0.3056830936385749 -0.05633765515374834 0.08648071959740791 0.06549115013879044 0.03049359071976784 -0.5908814781241576 -0.90937137472666 -0.3148311270211425 -0.5059216777560375 0.1763367892358067 -0.3393782038998879 -0.01847387570167288 0.00818347535634985 -0.9042417369728066 -0.1928748218840962 0.776824374794955 0.7047155042549962 -0.6781089345556978 0.0805823549440685 0.2134164588839825 0.2282798151797553 -2.067167110597767 -0.02743871070981877 0.6697465456342871 0.2543146446916052 0.2962484889057029 -0.4401334083171589 -0.0002640540070260589 0.7152365851707104 -0.4997400609643446 -0.6395458399499561 -1.020272262899547 0.2298705206387905 -0.6464434292335643 0.04276671511210419 0.5991970145770297 -0.0228005719826551 -0.007080528787057057 -0.09432594150457478 -0.946961019355735 
0.8709508443528599 0.1866513153705893 -1.226560811824451 0.5662845558155937 0.3545006417284909 0.2182122051973618 0.1446109637182927 -0.1807796546871509 0.8982012882247431 0.06595713033747942 -0.6001292304931556 -0.8258742238223863 0.119191881172196 0.2393409139601166 -0.3381557789835545 0.6839246161812134 0.1317389175361194 0.496966501343227 0.6467598692743597 -0.4453820190808633 -1.064116496512838 0.06915843345216575 -0.07845940762331684 0.140567827456229 0.1484646263864777 0.5333441940447695 -1.038689278751276 -0.6926228376400059 0.1554604218306251 -1.050851401967998 0.6723272570583217 0.156255595584662 -0.5723457309959648 0.2116662134839977 -1.194907388084057 0.7921201520142066 -0.793327641162293 -0.1651222076122595 -0.01853880865414783 -0.1478747302266523 0.4181821968500508 0.7206812883952008 0.658799109191024 -0.05319394255789956 0.3953444815109233 -0.4234225349748997 -0.1136076508963321 -0.05426709412733446 0.8104455617897565 -0.881362645301434 0.3461990076335644 -0.4264963200555077 -1.297409036798851 0.3062998159881079 -0.6310884056078269 -0.2335624569785701 -0.0776726777515919 1.166897914333932 0.8401814878720339 0.4358221803760279 -0.02158290700083627 0.7489731432838299 
0.4221710651582455 -0.1113043461872103 0.116825261566197 -0.5801970315759002 -0.1861066579341744 0.2134724960813734 0.6720450767939621 -0.8965551216857435 0.3240877734464402 0.6695768457332566 0.7018241361424277 0.1243556359627821 0.4803298111815346 -0.1560721853752892 0.1579961889268907 0.07992978479396831 -0.1577534208168276 0.1387107661472948 0.2638243678904773 0.4931362591631719 1.786344887018174 0.4092880047988339 0.1249486304969198 -0.5692951621073247 1.069922632749709 0.5624729872399187 0.5277818158329096 -0.5533466313939812 -0.2198794834695509 -0.2332687921145187 -1.323375216365601 0.476196528034444 0.300526611533003 -0.1329471123963268 -1.287231496822509 0.7949128202647558 0.1872176244937019 0.3985235803903332 -0.833111929274015 -0.7500347179224219 0.1145143281055823 0.5235006186122142 -0.4960738827556923 -0.5539329484886474 -0.2808421546706346 0.3108766569719791 0.1260218698290482 -0.5462549339715799 0.5781911006219 0.08944978367441357 1.069629362738569 -0.3803195959538762 -0.2203771912146891 0.4424011312164518 0.3197486176591864 -0.58470759364767 1.903729679211415 -0.2922993636539222 -0.7509802145289165 -0.1822110175062607 -0.2053370421363618 -0.2635714776493864 
0.7944646939799019 -0.409796218124836 -0.3865538746259484 0.08915289974279253 0.6180765858974365 -0.1050903935475788 1.152388089657874 0.5685104676216028 -1.994667243604842 1.433452416709408 0.08495154037949537 1.060049979595265 0.8596113931789053 -0.1566919099632914 1.300911775434117 0.1557141383198893 -0.6992909243718681 0.3359346187159533 -0.6690222867178613 -0.4094487203733106 0.4365400121206184 -1.21365283459512 -0.009687887476218612 0.03755735159332289 0.2842842538740918 -0.4826459978158096 -0.2559451692450033 0.002143468159969517 -1.180425970413716 0.6728803820259154 0.3294020659327657 -0.7776837014940458 0.5846483494152932 -0.4592576684972958 -1.200759050739571 0.289738343773105 -0.212802504957462 0.5486826389276677 0.5935171081155316 -0.1794966053359092 0.2378669425697595 -0.1091008911076283 -0.3504245249013955 1.107617858832286 -0.4051175810903639 0.505328670238554 0.3229170342116123 1.402178137706463 -0.1249239491067256 0.9085548693006159 0.36970320736558 0.2673138778944197 -0.3219513680303048 -1.010474569871579 0.8539750094918279 -0.564668016918736 -0.3674496472633472 -0.1246270845097608 -0.1144083749417763 0.08695832167444133 -0.1233194090143887 0.2857257928478277 
-0.2274211072841029 -0.1097386428301426 0.2466107401860475 0.3646186443646538 0.1153328884149616 -0.3473147056575319 -0.3949216813780482 0.5689452553247761 -0.06728306841101403 -0.4616177249155341 -0.5883556360729271 -0.4876476291985016 0.3118427869902533 -0.04982442468759015 -0.4753082026500944 -0.3764889896283035 -0.09281136360491775 0.3000239091560356 -0.2182329152411522 -0.3276889724437645 -0.006947643727685078 -0.1681418248640753 -0.2222540125407245 -0.925690971004937 0.02107250485654117 0.8428365926158125 0.06129752848838733 -0.3331816907956057 0.2678965866162443 0.1452319427984132 0.266757302670854 0.357201050408738 0.514112580473418 0.3879903869421125 0.104724896702745 -0.09272132397595743 -0.9949622645585858 -0.332581090866272 -0.3452702164974946 0.2311558885295621 0.2690411967323153 -0.8609628461861256 0.6293300537155431 -0.4810487021868616 0.3314965217539084 -0.6331282222388022 -0.280242387329633 -0.7663286121531775 -0.733619045062339 -0.3387970775821609 -0.5895395397983143 -0.3775431848867409 -0.1643881774223623 0.1756342382295611 -0.5991604200467202 -0.3598084197287735 1.328920685959271 -0.6979155317727388 0.0951932588883822 -0.07931030756547296 -0.6240499441109585 -0.4022625932554456 
0.01031374006614606 0.1380038236196574 0.3138107059245084 0.2693848386033543 -0.1698091017765012 -0.07216810979851339 -0.3209242690660272 -1.050780168093475 0.4999478094901436 -0.2580408541690314 0.102708043924904 -1.061233437803869 0.3964531019834349 0.01947709378959802 0.6106917145852112 -0.4349095750181414 -0.08731287122622003 0.08334409172576193 0.5990919437605701 -0.7912921257423843 -0.3154637541567801 1.526216411182613 -0.2084434267883707 -0.06188906783301509 0.7714106078181375 -0.3559950147099734 0.7972312226776624 0.3571830393136291 0.03247902663241684 0.398901510874499 0.1975150064160621 0.2192864168080841 0.3240268502482526 0.607972578851332 0.7644918082614715 0.4441294044168559 0.5589594525938888 -0.4226608289088672 0.9939678458662234 0.1657423135873473 0.444317365595081 -0.03338925716164031 -0.3349970301338286 0.09359602754997579 0.6507729164625197 -0.4246215410136867 1.906146903448871 0.8518353688887706 -0.7608590004555332 1.80949924887982 -1.489979488714774 0.4633288753464216 0.1421702265935508 -0.0003636059162915853 -0.1154587708546894 -0.3036496313014759 0.0259040315103896 0.8981420940633424 0.2762072939390234 0.128501197955742 -0.0448706721310248 -0.04267429408566823 
0.5443694826615083 0.07653731483431037 0.2332894844856055 -0.0283756629133916 -0.1521540857114247 -0.2357171520837828 0.3995830585304848 -1.129795132594076 -0.213849743784758 1.025839862888039 0.2761723152220077 -0.5040203668616176 -0.2413629875756807 -0.4231726493149003 -0.9837722757078777 -0.02883617837701167 0.2186996636163271 0.5707579742787957 1.919932171422159 0.4368564457340904 0.2638650707001863 1.211575521884491 0.1387295278155382 0.7713593686937761 0.2244745323796146 -0.2788859382440867 1.842667862102289 0.4845608902779874 0.344492549731976 0.8943132443459607 -0.07407024013324957 0.3728518929154819 -0.08750063524103087 0.9888058742737045 -0.3721055857604039 -1.181555491067783 0.06503886470923587 -1.424438440000457 -0.1398572497185239 -0.02463956520220285 -0.4339388003743401 -1.695174266673483 -0.04451480345446426 0.8155497047395848 -0.02777805291921525 0.1807635191102186 0.4325377561615232 -0.7119478567896619 -0.6147527574661092 0.2637108312710914 0.9900999410003859 -0.09151818461897428 0.6325971611354271 -0.1653851504336999 1.172227952795068 -0.3786808287774864 -1.516560853944799 0.7109240394478898 0.6604534637758133 0.198991704731156 0.01102698424864072 0.3455508596712383 
0.1672061787541061 0.03771729182033599 -0.7132953988596787 0.7931284176938244 0.04289015046358177 -0.4392685672939349 0.04219453983396915 0.3041682115346737 -1.164006557726411 -0.4395232377633301 -2.125595917664765 2.179178124334567 -0.6346868624050308 0.2007588258451403 0.02517110018917178 0.7887912641606609 0.7066666498385062 0.3574903195133945 -0.6355202077932488 -0.6878703909365552 -0.7007898551578388 -0.2898334373369578 0.4388728415469462 -0.5093204089673086 0.5355703056096881 -0.1246252246864529 -0.03519409668092667 -0.663657375303655 0.3265325349493587 -0.3182215135537176 0.9611205821065403 0.1905015472640226 -0.6467096846176351 -0.706918166918971 1.393795645619588 -0.5596978104025492 0.478868191284735 1.727324106102603 0.1717133227028281 0.4698371499303445 0.5904002728910933 -0.06770205334044209 0.7533467345468541 0.1153553491963382 0.09370008098727729 -0.9635392332778807 -0.3829115320714113 0.3902446960059407 0.1302302585125196 -1.604944599633747 -0.5409604638441912 0.08989131972481759 0.3269216658895209 0.8367058726478936 0.3187695138320921 0.2680064837225266 0.1321217886759567 -0.1563055440667478 -0.288194224488477 -0.1367655721919646 -0.4390207973843031 -0.6460097125107667 
0.2706480461348877 -0.1003266591571385 0.1932523258808519 1.299225335458076 -0.1034115771912112 -0.3191722841080197 -0.8463484100309411 -0.348240834381201 0.6885745206928026 -0.3574549338623028 -0.01580035002322623 -0.2617004351263216 -1.340020212215313 0.1706099742877082 0.02970692567498149 -0.1403849315068083 -0.4125108256889399 0.5838733524974392 0.5113972658154512 1.09757790348134 1.00962524901851 -0.498457021301598 0.04487972400221445 -0.1039983569841573 -0.9318513828330187 -0.5428224261151285 0.1058695153541344 -1.202396900905682 0.9516869947093417 0.2677642488340504 0.8421595407510754 -0.06693743245845796 0.4026776995873803 -0.3288534733861666 0.259092147255405 0.1272922873268326 0.5250308996739579 -0.9151925662958872 1.189886978833785 0.7036380790895552 -0.3062181063638053 -0.1712167148319325 -1.314935479451295 0.038695300058858 0.2133890844405256 0.6225835725588377 -0.7749597010792929 0.9538027044364099 -0.2044955674921934 0.02846026419512196 -0.3511547901093583 0.08916598593303812 -1.247087208973804 -1.182341149083122 2.175619891292965 0.5062969278068334 0.3237822109869147 0.09449379126518008 0.5778266080806914 0.3150911109039864 0.3771788778345073 0.7659021181343536 
-0.4883427328244137 0.3513666876667466 -0.1134716312908898 0.2843362363492492 0.1222937631438469 -0.2817252439057387 -0.2179848483367426 0.2349615363059957 0.4334945873306762 0.1017188881803269 0.5649113739790899 -0.7565269886127752 -0.4463855734956039 0.2030549363000672 -0.3953463442419202 -0.07655891128169054 -0.2251227862697376 0.4192141598880169 0.8873472348367075 -0.2154429889420952 0.09814007374220096 -1.51055333403631 0.002969467945460943 -0.3272868291494198 -0.7783484690024727 -0.1014050827448381 0.1851112645241869 0.2287721371634152 0.4457906471837877 -0.4940275086029053 0.8083023743166797 -0.03713281382358781 -0.7091767744277965 0.8754467284711898 0.1900653855872447 -1.661296229918305 -1.238906990613857 -1.739000886657556 -0.9142054441444568 -0.7711426161322125 -1.001881308910161 0.0133225562639866 -0.3787945936743045 -0.4531244285532124 -0.05647082472505089 -0.6390402228748492 1.118797520862959 -0.1042063125244915 -0.996459633579302 0.6539159391743251 0.2149601777333108 0.6969287032743219 -0.9347560506600827 0.2751150813568218 -0.977467796501009 -0.3970635624572743 -0.6213439699553011 -0.7581691958361757 0.566684623049092 0.2679118750837745 0.5502827524604457 0.04334632623150759 
-0.08110391840773146 -0.4503778359626888 -0.441737452855675 -0.3798633437607155 0.5343471184938496 0.08925761433154059 0.4356440119109132 -0.08422136736742004 -0.3411560281646527 0.07905269716666201 -0.4627421971262486 0.1285841959030196 3.883333763930662e-05 0.3100892000973241 0.3715340666161227 -1.074324584897681 -0.2795075608210951 -0.4192139343693323 -0.526847280624574 -0.3553720943144559 -0.4822163667549184 -0.3288783021781908 -0.319632956775436 0.6712205223388314 0.5631008243292419 -0.1060793388656494 0.8490348314310553 0.1020776509894595 -0.03211722973400977 -0.1341070317088225 -0.7272872801286709 -0.1452594644624266 -0.02980011275690176 -0.1483487457142263 0.2334515229506139 -0.1368050394909485 0.005764407134806696 0.1266377293654616 0.1504364743737381 0.259632973632452 0.1540810469825633 -0.361726805703632 0.3668450840873801 0.003432321697072208 0.4507860274869061 0.4703381476917192 0.364737003095731 0.4237473318719134 0.9333079992699965 0.1414778318889058 0.4088636451979135 0.566972393819829 0.1866386817124603 -0.5489856748981699 -0.4347240885886958 0.5358691680377921 0.05639559878497879 -0.7277135180089589 -0.7146960107966704 -0.3926402049193968 -0.4474162923205526 0.6700735748803467 
-0.08049682616701131 -0.3948851070538937 0.2301959650729049 -0.5981907142449248 0.3395871704547662 0.3689658434451363 0.6844328088087872 -0.4263658339218604 -0.2009705091994722 -1.769824196772942 0.3533026831023576 0.2912154520621235 -1.175420952022955 0.463165918632103 0.9797209919859964 0.6607464113622676 0.307133794354437 -0.2779158214333144 0.7177199393323449 0.08331253014789647 -0.9758850206660691 0.01851982970666005 0.122696814928998 -0.2249970358904081 -0.4041971083306 -0.7649307257269975 -0.1895158595910011 -0.5188868844274288 -0.7953492561180604 -0.2686424842266127 0.1903013483087897 0.1980769312188714 -0.5698034483526712 -0.7155310550510154 0.2965008982706261 0.6692380516237076 0.3698806121546376 0.7445511612426038 0.6443843350469062 0.4351100505543823 -0.3886535237053744 1.072609211860923 0.7877337255853925 1.0734924777849 0.4820245358416916 0.1320492898494462 -0.4329941426764269 0.83118190311785 0.7298883601617721 0.3029180685818128 0.7315882228903839 -0.827009698737984 0.291051690912472 -0.9160617322175174 0.004449159909816262 1.066761832207652 -0.03966375930415566 -0.4627660921216245 -0.3201661896889621 0.02477001974316861 -0.3041865664341022 -0.3049739720990655 
-0.9657127712782532 0.645779953195717 0.3548745304798084 -0.8792319319728681 -0.5080803136744172 -0.6405945666628095 -0.5594134776739683 0.5252688889767229 0.6016859786298754 0.6475625467933774 0.3223906170105013 0.3043115485805166 -0.2860654931457745 -1.164782334778265 -0.8140691718621624 0.09900634463610977 0.1486801692196523 0.4633827347214797 1.439204435610185 0.3943777990897591 0.3573613825359004 -1.062654636563527 -0.2260456754983773 -0.03491477830622307 -0.1536301696391456 -0.3595239482124897 1.256409488715177 0.1014442122116818 1.130761782057535 -0.06676497512913361 0.1544048664118638 1.017784631387562 -1.454556298949736 0.6486823422641574 -0.5709467018313151 -0.2616600605223727 0.1469031826199385 0.1392024424152177 -1.122080441025503 -0.4097900208932466 0.1157331263890578 -0.1550469898669261 0.2878112831190245 -0.0284646254723154 -0.7873986591339671 -0.1672965323652895 0.02616091672198452 0.3217062030665244 -0.6420285432414743 -0.5804655437004523 0.4395890589977209 -0.2462659029321468 0.03545544232845314 0.4338598846086082 -1.057679501918802 0.3494056756508959 0.338981225746611 0.9333623446920164 0.4209535897766813 0.2114069402791978 0.6330313139899835 0.1491469970777854 
0.7651980585591371 0.06447871020804354 -1.033177351418608 0.1874078004971412 0.1962034976047577 0.1148033902305714 0.2345668966721963 -0.2806203028934707 -0.1823366685458411 -0.432173913927518 -0.2173602856985613 -0.07466058588075258 0.7083194516880762 0.1563986551322486 0.3959451543299629 -0.9423903165527739 0.8493715634307368 -0.2773629921952306 -0.8115731589077282 0.08102353825573574 -0.6133314122236083 0.138422720876077 -0.4642454129320536 -0.2558396373572459 -0.05430456979643668 0.2394525407814372 -0.3883087231873619 -0.6030685602333754 0.5251996977377106 -0.5093467617572196 0.5496650774110514 -0.3080960851261031 -0.3050974000967752 -0.784951334786111 -0.358223025379254 -0.3886952158622004 -0.420778108252381 -0.2436239128039867 -0.2576432777365911 -0.5242050173765204 0.2661043918270274 -0.4415529046292104 0.6993621564598493 0.4115993421818269 -0.1438031637613159 0.7530536897055579 -0.5941712936322379 -1.133199294668332 0.6801146281570742 0.07686153311728328 0.2776719424098733 0.2257223829178797 0.4773209757310207 -0.3175916976036633 -0.4847138103728761 -0.2538224340742943 -0.09041248671512281 1.061297366459661 -0.4698082125046726 -0.01608733102951771 -0.8131475713042196 0.8193569589113887 
0.3149167618815817 0.5794002978676978 -0.2807473769294065 -0.1645789384484928 0.9774720933138179 0.07236033805198805 -0.3332924002495598 0.821729049386589 0.2354002622732381 0.5678850573100088 0.2692970385833871 -1.36956726712816 -0.6165744611255879 0.09024506552616772 -0.9611894494013 -0.3806794776499084 0.6636633183849273 -0.5683516968430028 -0.8311503222147729 -0.347494266140944 0.6927501808945215 -0.3667489164810958 0.09155387099548529 0.1067624284427705 0.1141351468171171 -0.546706886918346 0.7946514123473962 0.1753859178874055 0.4203408376827585 0.6311555323029432 -0.8241073181591023 0.2449213988306499 1.764529839723015 -1.140908924821222 -0.8704959597997987 1.455436415954341 -0.5831045044145806 -0.2235327826793954 -0.3564067784392589 0.1631302275220148 -0.6815836466614307 0.07805313291725616 0.743746817638323 -0.5476773688500792 0.09497839039869412 -0.4794657997616221 -0.3694850783983679 -0.3842243962877423 -1.659704959091789 1.306081546610244 0.5966850850383504 -1.097918730307913 0.3717987674051326 1.580161845404318 0.3817685408147636 -0.4552557754852409 -1.08183609099606 0.9221932553109601 -0.4186769092895836 0.3414142294124225 0.2034580233174771 -0.4042751461956247 
0.07196359239118169 -0.4913500862049863 0.8897916154436175 1.377741396523755 -0.06593978352256714 0.1740323806850244 -0.007551999456614451 -0.1621669077209881 -1.236258586527279 -0.1257348538392339 -0.6066390935291452 0.3228650115902584 0.939198367455323 -0.5682759446695068 -0.1855265665844749 -0.3030700627435385 -0.9648077030474971 0.06410958307101752 -0.2813047583945963 0.1915297419563831 1.022135343944229 -0.9115210690073611 -0.08304171151231528 0.1987161585405195 -0.3392995814602914 0.3758923267862588 0.5708647127636195 1.359119221315336 1.348950198404508 0.1378190028909379 -0.4502870894672055 0.6916250862709947 0.4054337167008596 -0.4044169279544724 1.151857613664211 0.2676558812206565 -0.7345728442150941 -0.4503930790516592 0.6004824152373908 1.326620415218349 0.2542885322542152 -0.2473545732996901 0.948366749094696 0.01360895584577544 -0.0890192861145213 -0.7653015533988414 0.5684310395599774 0.5087255423347458 -0.9620390274392315 0.3401704670164072 0.1579041554640455 -1.221590204825666 -0.7031026291634426 -1.624817045905439 0.5532775272179364 -0.1615985087600364 0.262429016247222 -0.5628169482052874 -0.02790262346067776 0.1823386834461985 -0.0585340739227661 -0.3643622220785857 
-0.1650999430632141 0.6147555302343232 -1.063236727318331 0.2371626726965355 -0.6079384841793178 0.8599899970129327 1.236870132597614 0.112018786448132 -0.478925821876989 0.902350542745735 -0.004378604637655447 -0.2568330773142429 0.223629863880188 0.4134240957783046 0.7297459432145986 0.2094130034841194 -0.3947800824968465 0.7274911459050493 -0.8154347041725172 0.3335618097837555 -0.2030207719317361 -0.5946859008610026 -0.1307121629246428 0.1617001062513989 0.05166402712752836 -0.103803542810791 -0.3906598111353241 -1.216112830344772 -0.2263258456182353 -1.834787751016244 0.4463038637058115 0.27135191280978 0.8625273838479427 -0.6567628793685307 -0.8003550103418382 0.03025116594146071 0.5530084760144655 -0.742817681709023 -0.5582446580789349 -1.389369448948462 0.5657627269855691 0.02570187525818789 -0.04704820334297833 -1.083765582853377 -0.04192588962994872 -0.1031618603082112 0.7399368691080288 0.129378285031888 -0.3447451819121056 0.03836957464780983 -0.03715069773104857 -1.017987407453124 0.2072405242162499 1.232368431215864 0.5978471805573449 0.1547755893647411 0.7008388993111319 -0.6496339962669678 -0.3808374240298426 0.2045770846039405 -0.07978984060529555 -0.1441125985047903 
-0.4469887021482021 0.6051880928167142 -0.9151793934710156 0.3762152868974282 0.07930859223662449 -0.2667823147130137 0.9991000978983575 0.04257349215302835 0.5518500733799997 -0.2074547186559122 -0.1687391709973746 -0.0009510045913933759 -0.5718397635359055 -0.1713499018780336 0.7473030110396586 -0.1505677087594227 -2.30170873028691 0.4194020494750986 -0.4543662065987605 0.09578551730524401 0.1597730684624264 0.8428047474470641 -0.2759145323117862 0.1136255770861259 0.09718060186846587 -0.1371879480042069 0.6050493296000462 0.2657150820044656 -0.7819925691465324 -0.8185311588589456 0.5218825576417057 -0.5868373089406277 -1.784671258460321 0.0978680860710075 0.4580135699996266 -0.544022287984372 0.8325540812245971 0.2703023248643621 -0.03085116134760826 0.8283982465884273 -0.4620982658784069 -0.8396189028754248 0.04037140336092548 0.4953925412010161 0.3452814647455563 -0.686950754680909 1.170796887214909 0.3825881639208087 1.042497010659123 0.2438640459724181 -0.9092708758413001 -0.9170746023032469 -0.4708324412111257 -0.3713486819016744 -0.1714868292326192 -0.1234038003303828 -0.1055145974331887 0.6393506566063195 -0.4443602519230631 0.0895559765640021 -0.2827244029998395 -0.1043727114958014 
0.5542426394415636 -0.6693160757772686 0.1739233476519044 1.189515191294833 -0.2708682368296164 0.6585407725819098 -0.400567602594233 0.4856515895516257 -0.9143226856286816 0.382283344307198 0.3920226421529825 -1.04415095710139 0.1300900608795221 0.5808072034535789 0.2075153040362605 -0.3357825250663747 -0.2302347462281539 0.343223959874953 -1.322284727499171 -0.6241492316516227 1.006636225698038 1.989844917897788 -0.01528375590148632 -0.08992689817600451 -0.8679308292763294 0.4552157300577143 0.1611896078594602 -0.3021753570855568 0.1281081185338175 -1.132889946919596 0.3408431628272088 0.4379519489011834 3.295006165027126 -0.1790742973973799 -0.5461008092190629 -0.1254119648235678 -0.1172693446131378 -0.5579494585765599 0.942286066525696 -0.044249805005479 -1.282242371120875 0.32833261479068 -0.8190357470987016 0.3481992513735002 0.5228697924714223 0.4263921701517778 -0.2888840562554574 0.248477626385695 -1.731470641994848 1.547904337487081 -0.4128674905667286 -0.4561059852620006 -0.01230816688303724 1.141012763937512 -0.1356982128372256 0.1150841808885156 -0.2637057471741894 -1.059643447665078 0.4275327146215477 0.7298505268194094 -0.2341781818240199 -1.311638148160424 
0.03650973586366226 -0.6291265929128259 0.005724606411353333 -1.429660611694532 0.03882704616992078 0.08787982375196736 0.2561269456432726 0.1318461520205457 0.1733679003224025 -0.04702551256578264 0.1847549452007124 -0.8865894203729522 -1.268533897003634 0.2406625522674508 -0.52127147895417 -0.1972686610916702 0.1895928103777789 0.336158696121838 0.3055243265915797 0.3953944623100074 0.2929979648886264 -0.05742362102636244 0.1782910088791379 0.201484650306919 -0.5652877312290053 -0.018975723798098 1.047766062107094 1.124866107483502 -0.2729921434613056 0.4181892519009864 0.3233237706802609 -0.9836967546836748 0.403411792798064 0.3032644633942768 -0.2826677048189126 0.222259289002188 -0.139068744027018 0.3135579305542974 0.1159632018140929 -1.084179122682774 0.1394500616701541 0.01698546123790685 0.9636342419697922 -0.2222735473741501 -0.6870086344651275 0.05258502081621459 -0.673571959886854 -0.2940238201540618 -0.6742086875693806 -0.02679309473733565 -0.1221467206523059 1.687242118350128 -0.1832843518459119 -0.08405602736896731 0.7005623729959984 0.7890289445077707 -0.9411497056075093 0.1958587504604297 -0.0226852651386058 -0.08154356470106405 0.2640477825466526 -0.4878585822830065 
0.3064065270413387 -0.2248144968627308 0.44274244408292 -0.3243424770378882 0.1395599828872038 0.1878821200946705 -0.1644357405098182 1.29389694193822 -0.3594869539023277 0.6458321367086591 -0.1128910380556414 -0.5156428182484643 -0.3833293848279812 0.6553698771485946 -0.1268160199389396 -0.8923986473142452 0.3580667148084049 -0.4016893029322423 -0.2612584749593755 0.5631471699273908 -1.43142337768349 0.9435392041167516 -0.07315877042689091 -0.3502098187176332 0.1691517210858569 0.3085697649176041 0.1118012569258616 -0.4713088746918913 -0.1157180894365895 -0.03949819301509968 -0.04787335878780835 0.670925824604091 -0.7347591756021964 1.008127827913284 -1.091911701547863 0.1760743455241657 0.3724571413572244 -0.2046962687470221 -0.6953883881318943 -1.666470783399829 -0.6918316730106129 0.9157195303688958 -0.01586316604068225 1.734086034539604 -0.4268055914659142 -0.2171269216093898 -0.1114138632378792 0.2629396786215639 -1.128798814002632 -0.3916830751710924 0.5086826158375933 0.5718354041926225 -0.5198787651603485 -0.1044899017977394 -0.1489437103449213 0.01553758224504851 -0.7230222508686405 0.0976185767650958 -0.3171257874199523 -0.235538700603677 -0.02241024707741661 -0.994853610455358 
0.133917141041781 -0.1446204678314652 0.9440798416676575 1.430129547549055 -0.3638312353843935 0.01549524667701026 -0.8878549510781724 0.6129068425024342 0.2606634845691668 -0.09042681552868627 0.2272297427162237 -0.324929581073806 0.9025450130700098 0.9539487430854864 -0.04578769926904238 -0.2424075483962941 0.2296378062614243 0.5636783658552916 0.227763274888543 -0.05240290283276822 0.3595901323174527 0.1085776054833349 0.202596441611998 0.06171884459343534 -0.2387206923880742 0.2091826346495243 -0.9350978833898915 0.9909074950956942 1.375179640014983 -0.2384508489294233 0.6405445921388968 -0.1897839162026736 -1.217088340210795 -1.582274273383301 1.065865765969374 -1.787803997671613 -2.268579272070187 0.5143979165885578 -0.2180246261504543 -0.002896768765458463 0.008638935580787772 -0.2727151435206946 0.1482078480110898 -0.3620850415230567 -0.06055391819840526 0.02445383815417829 0.5371310407701206 -0.3430924247753386 -0.2164402338039099 -0.4250818695287078 0.1762867775625057 -0.2495842471918731 -0.4733227221905886 0.6694983347573366 0.1695196238711347 -0.5751166461370869 0.4311880280639078 0.8535712118022161 0.0829086035001904 0.0473540652821071 0.2265296611395391 -0.1065549726410743 
-0.8151804251871287 -0.03493964766488224 -0.7382024454628664 -0.6416704010203009 0.2458038026522283 0.01359512852506953 -1.078598294876584 0.7715240364682023 -0.1989873373784502 -0.2690878007097599 -0.2358641167992248 1.131426749240906 0.2067595903651681 0.5680911083645893 1.01350182737681 0.7153943812885208 -0.7492901292235025 -0.7612947104454689 -0.5314734380767354 -0.4528101504138884 0.2512106210756636 0.2959761737954615 0.05343055172835113 0.2068055345063871 -0.3278699872287711 0.1208588675941092 0.3708600388395775 1.843830634764633 0.6017295978338701 -0.09867415869006045 -0.4896287464732065 -0.2710741102254023 0.5128411551187279 0.4682674067404942 -0.3657165807506229 1.82810397609369 -0.6568560402969866 -0.1395668733553209 -0.9919901425790082 -0.1588957046946252 -1.076220141051358 -0.1716688248504316 -0.2369797421097341 -0.2964700819093329 -0.399321418103093 0.6812008159719318 -1.074149192049417 1.032576798861209 -0.2475277403086682 1.504308777759926 -0.5307127716481348 1.03567227190086 -0.3776332072128978 -0.7967375312618481 0.1012023604292246 -0.180779342664994 0.1925899529207873 -0.6909811422231981 0.3509013078904706 0.04525982933246869 -0.02645048282475751 0.1390224730949373 
-1.213232768215893 -0.2233253837948697 -0.7360495055933163 -1.131036044503839 0.6401856489499684 0.4363132062430027 0.2391648701825549 -0.5648136524044125 0.414753657275445 -1.089126866923113 0.4395775672850905 0.5649499483272663 0.6670965392259509 -0.1766106113211752 0.1459396683910091 -0.3702396517801803 2.278875162163505 -0.6056177588655485 1.252225621310481 0.5145939953104891 -0.7710199378387755 0.6737101800996608 0.1056379049835734 0.2500023416497282 1.064420710517824 -0.4920701759698868 0.3740494042459317 -0.7998883414240037 1.894311237148413 -1.031488374441985 -0.1593118202758348 -0.9025905750161408 -2.14790416157458 -0.504495308657415 -0.08649258009474257 0.07288974349582762 -0.9957792358428404 1.798507317663389 0.3142683844677933 -1.108349230788359 0.7566885468570469 -1.491283824421025 -0.1080723214115539 0.8566855401491297 0.6258531758234054 -0.08114678632648353 -0.4076622378269351 -0.0244114340275205 -0.1019255703674601 -0.07128332555657359 -0.6954270389363574 -0.232130934789845 0.1504346248737347 1.088140159826325 0.9604354849206501 0.1012484503898915 1.291753017921849 -1.3586391010396 -0.1334026197419224 -0.1334036542808121 -0.0916423215229769 -0.4842538197693982 
0.275670129365358 0.652774438023512 -0.2865358589789616 -0.2401877702993487 -0.7564831456698221 -0.0219320461376608 -0.2918436902232381 0.147298793584929 1.48677673658586 0.05799725779415765 0.2462146046881404 -0.8163411815757751 0.7273390649160403 0.007873817388455797 -0.547331447543604 0.4834409651342298 1.649537545564887 -0.3398815076482407 -0.2139065296255408 0.6932209794456049 0.1486771621549979 0.9119158599101984 -0.1475222925301391 0.02991001287532659 -0.4127560428656564 0.09118551047045328 1.787964488815539 0.04433685895003451 0.9641806153544317 0.7664200070280344 -0.05994836710963996 -0.3573081011183973 -0.2303363089141671 -0.8182373659464279 0.5672282230772471 0.5838276191258714 1.115989344812091 1.028029295408977 -0.4237051468048915 0.01598192477151084 -0.2956210920796381 -0.4807921703598714 -0.2492174907751857 1.475271439857965 0.2840314531681035 0.3957427185072689 0.7657696453271825 -0.6003759640017813 2.430645286582435 0.4504741346216231 -1.15217795246411 -0.000535962778403996 -0.3203070614400264 -0.3102573432080726 -0.2715104931145678 0.1619672586253686 1.439773753208344 0.5181282796775492 0.06428463027003199 0.5017120293651776 -0.7336575224056711 -0.1164983253048006 
-0.3448848694443932 -0.1094527211493665 -0.3358968222204586 0.9088910204507513 -0.3207565220454905 -0.1586262406976585 -0.8628485284295601 1.14641383954878 0.8832687100127428 -0.5533088452021215 0.3362655530573637 0.428376004667435 -0.5427881280845499 0.0114141675203602 0.2869514381722686 -0.1415326895646859 -0.7520365869164597 0.3340474438060567 -0.2656017606235567 0.4299679689841314 1.327426553336994 0.1002614587841452 0.1533362009986742 0.2260903640628835 0.7142984825080558 0.5018777214221588 -0.2127134267377294 -0.2507959924044199 -0.287143982472503 1.292904194054785 1.0488297163015 -0.3017292022989108 0.07764756262296631 -1.382004649137165 0.1924075579209238 -0.9261743038727787 -1.530126075201734 -1.062737706457304 1.070093813145887 -0.7317402393119136 0.2871241611904514 -1.271927677021123 0.8144014556503021 -0.06405752871722011 0.2376768130087048 0.8273093829705773 -0.9058076425884926 -0.4799830502944366 0.4844132778741047 0.3555242817067989 -0.7121196381831818 0.7642272409564076 0.5094636226602424 1.773313825831312 0.02170450361777295 0.03197404328393411 -0.07763182296093801 1.020940831632533 0.07122780848357058 -0.2096350670484493 -0.1122619360612788 0.6796354669511439 
-0.05354965613063715 0.06695049431574221 0.111433814407871 0.7932078814899139 -0.07531246499101181 -0.3631226376475161 0.3665135771781641 -0.07575233338078569 -0.85463838153598 0.1570745584143158 0.1150044061539432 0.5653408528788703 0.7080772308283022 -0.3236465800676182 -0.3103602879052666 -1.184216485264359 0.07029665273663538 0.5734420743703412 0.559996536711457 0.04248001047468958 0.5850012195937901 -0.06519078279807333 -0.08618311346519622 -0.2192867272347576 0.3603940928840876 0.1906643071570651 -0.5719084548297242 -0.9113288881190026 -0.4834915760975045 -0.6516724379283537 0.1693989767725285 -0.3985143047603952 -0.2781673466067895 0.9572527844071002 -0.2030576608473725 -1.521140208209273 0.4252010734465266 -0.2043871086188866 -0.5764618473344713 -0.7462802932409945 0.6580008161586893 0.8392669381498354 -0.09670279809067985 -0.2208026158455438 -0.8902945313750072 0.9795413043785021 0.1727100307768157 0.9978542828293254 -0.3408447733817521 0.6604345681210105 -0.6976281405677137 -0.1478638702422221 -0.4912134429525133 0.09994316096687909 0.1646116233674318 -0.6181757835852082 0.7522673748227976 -0.175233927795563 0.7131505890073524 0.07039077953823265 0.1087050397735329 -0.717533333041563 
0.3352395856053566 -0.5380223192108383 -1.869577019690087 0.1582852475852354 0.1023342250620734 -0.5869871654640836 -0.7069360997563678 0.4273357660350024 -0.7765332121729069 0.681824052129671 -0.520921168586542 0.6753334881715645 0.3857884504059038 -0.6550405498279341 -0.5912466395500062 -0.2020288475222276 0.9144470846336138 0.5390550592509096 0.3979564263492374 -0.4201636465928276 -1.856953994185943 -1.246481934699799 0.06687357977637842 -0.01626482931343756 -0.2041717636045844 0.2122564909157506 0.1323334750904994 -0.274200164248956 0.5901231241332883 -0.09736533200408577 0.3858613020112101 -0.132203635423839 1.114025167080254 0.2199109456928126 -0.5070429107858301 0.7940639714295232 0.2485122241546695 -0.2085972811411951 -1.147948566764026 -0.9823429115905904 -0.377492016689854 0.3997374295183772 0.2281888911748041 0.5523884028558889 0.258261357002178 -0.5287113413992671 0.9253208121166367 0.9381597079023566 -0.3496756127016687 -0.9791804465214125 -1.062777227671472 -1.018361700270815 -0.9125413568002728 0.001552203549752331 1.003219713817647 0.1655060304825928 0.7044516190853132 0.7009461553660096 0.4358025539456707 -0.01543235939497379 0.28052160359805 0.3644515541618364 
-0.1872655649280802 -0.264657547361337 -0.196478027376906 -0.3076336819648751 0.5054929573503115 -0.1684380291863752 -1.387456179289359 0.4783836912688562 0.3549176589785016 -0.3899375465740184 0.2003943085027697 1.254674783777646 -0.9784563511116915 -0.9437273098595209 -0.9223347038058285 -0.8921600961588949 1.307834155772412 -0.9397319244374169 -0.324894423776578 -0.3672466941600136 0.8904978726105252 0.4532484490759647 -0.2961550873260644 -0.1131467323837347 -0.05672310794862724 -0.2751666947846096 0.1051453897733633 -0.8745394278753821 -0.7437212344637045 1.465418100136373 0.811393505954168 0.5609712366484814 0.4643204828053156 1.303509968834871 -0.4355392459349992 0.3120005662472055 0.6585988732620495 0.7737887758937156 -0.407027781786225 0.773279528581828 -0.005058893211005323 0.7015593514850132 0.201197193571441 0.3974135283932069 -0.3791503228077245 -0.1873110715408501 1.027706399236851 -0.8839658272252657 -0.4845496551933501 -2.048020377422727 -0.1040163922812975 0.828093005691259 -0.5322950447498677 -0.4595873278711176 0.2962198631346699 -0.07409929698875227 -1.820792696094794 0.849257924611277 -0.3469104321135031 0.4574615773473408 -0.01870996427518621 -0.2857327260047237 
0.8691025939114048 0.0884728770537459 -0.8098587037870615 -0.2199669876475111 0.1082591400647018 0.1997448189132232 -0.2360888915367641 1.560671598337414 0.9618407196509877 -0.6481551131852892 0.01676198490623056 -0.5191028471138457 -0.4708162235494436 0.4979991461350718 0.5822803167447665 1.418420077485028 -0.02431204570484402 -0.04769195343493173 0.201069628075721 -0.5969223145566417 -0.7922340299647165 0.03633328032368623 -0.6189354490277625 -0.3797322708739392 0.4557376282072765 0.6117604327710702 1.046173139961438 1.043612669146048 0.5164857759372083 -0.01333172460870435 0.8926528947848933 0.26553310234681 -0.1321108408588003 -0.9628607443245516 0.1835924327984587 0.632856972582302 -0.6488664964307173 -0.1641566710889032 0.1267385487106545 0.72659933336215 -0.02329483958939103 0.323970095644495 0.1314208587964495 0.8286062678293324 0.1988339340147319 -0.5696620585867591 0.3399969668030953 -0.3285931596913069 1.454116513182827 -0.2592929580443223 0.4171040949853375 0.2716466094150379 0.7936460495175484 0.5424310873756156 0.9096771728629726 -0.1480112326415859 -0.3754070861660665 0.01959454597301325 -0.1296313202836919 -0.1443658101756198 -0.3556531447907246 0.6779175364705329 
-0.3471398074076888 0.5471396844965379 -0.7628448922456635 -1.295439846352299 0.5303827619837237 0.5746847515469755 0.3533935611743342 0.5554381934830545 0.6055943971517952 0.3738018780807802 -0.6840970087636713 0.8600294768287851 0.1624134917120909 0.03743507049299937 -0.9290757612594034 1.07711886840878 0.920083423314213 -0.4207314435337495 -1.256752700301944 -0.9175689470799842 0.03513789250674154 1.141571191264385 0.01247161529011501 0.2974454856271837 0.6109874462942432 0.1526638203491614 -0.05055826803522555 1.021441579904369 0.1681577629559942 0.2518329426601509 0.5946526666980952 -0.08288743245719682 -0.7992083064453156 0.04318510111149923 -0.319918244491343 1.269959641227402 0.4880021197955177 0.09565472250752605 0.2887385209510751 0.1251301127344375 0.193692805412551 -0.3696378302029259 0.1046245990192488 -0.9604846321225839 0.1519853090495542 0.6660274636124067 1.847704754259489 -1.169684736303441 1.156550481629638 0.1331017400431595 0.5000251457533298 0.06798795211867517 0.4965444571290648 0.9408428323997976 -0.5430881526790823 -0.1933255523213255 -0.3425838332585874 0.3198270037054038 0.09330762854094705 0.1060530584102747 0.8668212221359277 0.6211242958449078 
-0.6725655352786256 -0.417964924222532 -1.086230667748485 -0.6389537619045674 0.2234755532195225 -0.3565240215564369 0.2023598659200614 -1.168327038264241 -1.163171480677641 1.265877930964863 -0.04690163679394636 -0.7433404800730876 0.02340586210539321 0.05725925330645916 -0.9917880393781351 -0.4216397310164874 -0.2446302321958351 0.1995410162483648 -1.205765058639293 -0.4155230224445617 0.5217288496616691 -1.396176040129616 0.07778973642533769 -0.05538686760166101 -0.4387588252819495 -0.6623589578659864 0.08520536568371506 -0.3690741007010651 -0.4439327382419659 0.3905084165861488 -1.154878242583657 0.555045795376327 -0.5371160701702098 0.7612603617789047 -1.99286102632641 0.1394800645774549 -2.483275571195354 -2.035528412426488 0.6384962920345175 -1.268069557502272 0.2124562677465592 0.40528297112116 -0.6879067871955205 -0.4995870640290089 -0.6446981936635457 -0.01700828613414134 0.5040822926267884 -0.4665680299908623 -1.525977087585376 0.6829680442204502 0.1218180480191885 0.3469850255436956 -0.1478935882542286 -0.9181684581860149 0.5145304704218416 -0.9251120461646485 -0.8234378287452266 -0.5656919085105694 -0.379987606724385 -0.3727669972454297 -0.2963815078256563 -0.3505564449671337 
-0.6559116076988658 -0.4473286215511131 1.211065705272713 -0.09250784157710139 -0.4837631314942274 0.3962131103403173 0.0985486390049175 -0.5111681840496987 0.06467074201260259 -0.2428691953698028 0.6379163981613908 -0.1683764388135792 0.02159356988822906 0.4788894075309112 0.3817653548893241 0.728237158747255 1.051357633083881 0.01854586909960173 -0.3472552589056607 -0.1287965567766599 -0.9035028927125158 -0.9742065983501033 0.1806251985079189 -0.04874956653399056 -0.05367803095427645 0.1194975094089093 0.5037134623617477 -0.1768891978333571 0.2052386419046081 -1.533323111205458 -1.173798726393789 -0.4764143836726842 0.4405102652540591 0.3997360203900663 -0.6531619394905845 -1.019457101429456 -0.7461054983551444 -1.132042829305115 0.02084560910850413 1.269848257486256 -0.6111772117521114 -0.05116879369419409 0.7875801163971589 -0.3122465591758365 0.4126072919451159 -0.38250998568275 1.32336106321929 0.1613699241799464 -0.1751356649981529 -1.644419111245006 -0.3452200740473418 -0.5931986675343489 0.2159466789263215 -1.047495973151414 -0.3468188259153931 0.2490914129150325 0.4554730644589692 -1.373400018519907 -0.2029455017369739 0.3115457584263318 0.4202616498577847 -0.6744705441273423 
0.6574548970799483 -0.4234926040677266 0.556906273777744 0.1766112463048639 0.2727364781148905 0.5583660890366675 0.05457772983537305 -0.5479708939468174 -0.3484642567764078 0.05208340560290673 0.4145980468502836 0.6711243456095911 0.3942058723996243 0.032792235632471 1.700692179833702 -1.117417635726672 0.01746821783688482 -0.1284595301840527 -0.2114548766184163 0.3956345811310383 1.224001864244903 0.09077119475545893 -0.1730846881152449 -0.008066986066636209 0.5112741533150315 -0.3794513693641595 -1.423081966883142 -0.1403301960118612 0.391057754239892 -1.729068101305888 -0.4945965035080379 -0.6628534193995134 0.3375083196018729 -0.2676012360733332 1.062930663181423 -0.2897281368280741 0.2280584180766305 0.5121665294865825 -0.8566789519828258 -1.333030054160324 0.3242470368236278 1.618529103914244 0.518946874956401 0.02672613338896219 -0.1317063300430847 -0.6751309429367754 -0.7981368183227904 0.1817417843114124 -1.208657132325859 -0.1360820524986313 0.656364889030097 -0.7518603809615475 -0.4819708573881843 -0.3614887751365977 -0.1515305134692381 -0.5548036691203257 0.2916861302882933 0.3681058384851548 0.1204194087336861 -0.1145397211841378 -0.6474484332826249 0.4827675377574559 
-0.7896109388196403 -0.4506925033102884 -0.2132101290652567 0.5996590716557142 0.5421291447046388 0.2245050733581412 -0.2709014717342211 -0.5721250188393777 -0.3542803838822429 -1.92808235172332 -0.1113093257882978 -0.9843971868398895 0.5393226311160318 -0.74204406918915 -2.100601328577858 0.06986352482374721 -1.269051631444343 -0.3148630773278834 -0.4227988276158807 1.048188324649075 1.16196563111817 -0.2771036379265979 -0.02214774160190151 0.1049743149249247 -0.6019111846655167 0.4733091740489507 0.3996573399704955 -0.1207030473961413 0.7551522749520083 -0.3017066165205611 0.3789976734590944 -0.2780678602904972 -1.687961200422867 1.065076102944172 1.113757912865442 -0.3778549762630692 -0.4632979805377303 -1.710441459503934 -0.1201187805442977 1.084325104193552 0.3424714690126131 -0.8765778156156796 -0.1804076877899455 -1.348589085195901 0.2453719496407171 -0.015015953460338 0.5310937976213174 -0.5872549903192981 0.8075316030979806 -0.3536077835196098 -0.4488957239477581 -1.176327680950016 0.8068933796469814 -0.2839959354598861 0.6248135400647471 0.1449829818838256 1.256706912047098 -1.150266468545035 -0.4133138815995802 -0.1781132256385839 0.1597980078487999 -0.1465427694857367 
0.06269964983162911 -0.288407861532008 0.4755530708913319 0.1336702353036509 0.6109069606726585 -0.5049502952285538 -0.58142971973056 0.2156369674786558 0.3844899930093534 1.422933075484456 -1.684391486940807 -0.3245762585273605 -0.2180446143772594 -0.2380241271114004 -0.7190555321248928 -0.3395879354969373 -0.5816070013002366 0.5754885468346005 -0.1497902876450866 -0.3567734897885789 -0.1148801898960752 0.009017963857604869 0.1998026475789448 -0.2791710613635041 0.2397338066638459 -0.0619835160604356 0.2451162285808219 0.2429605712551682 0.2583629863482582 0.5400172156815479 -0.4958277172815692 0.09892076550911687 -0.9386976848793246 -0.222422494004695 1.459363397318092 -1.39950212324962 0.8501929223191125 -1.067289688405529 0.7791421191312345 -0.09786363908116799 0.08197367109010641 0.1845891116328993 0.3291661544704248 -0.5253066276321711 -0.556108194827207 -0.3273886514523547 0.3108808841129854 0.2354529934233487 1.967442174407293 0.4413934901886414 -0.4802908403324911 0.2975051520338897 0.1925663306601988 1.14548258802149 -0.4518758162636209 0.4035266746685648 0.2802234620311164 -0.122711702068111 -0.3928674994682506 -0.01104255327731915 -0.3383244350332415 0.1047174445763293 
-0.5758524817248624 -0.2116549377141316 0.0312699858077715 0.3794836167215621 0.04318553379768012 0.1370085199506625 0.4391003636191522 -1.224274448410528 -0.9636843925849891 0.1349092255587258 0.03550327472957444 0.1351962070229948 0.02092130925224653 0.135587859253805 -0.02864011569696955 -0.4272640741865374 -0.4294511565377621 0.01684744455842165 -0.7067880815580906 0.1904875975877378 -0.1094308327875445 0.2575638894115438 -0.02112179740130785 0.6101213537072953 0.06682022965563697 0.08823273934663549 -0.1302682784493999 -0.6873381893256444 -0.03134377342327399 0.1073698123804646 -0.6703036107655291 -0.998159347620855 -0.4730041680591642 -0.1525471769993251 -0.07658132924310075 0.314373122735877 0.8597579482733732 0.7165429395605457 -0.04709708305009275 0.3008715691943034 -0.5499295828987354 0.7728675199687618 0.1967408164604829 -0.413173336419611 -0.1318985891870273 -0.6739321676120434 -0.5368120312372697 0.6189944001285178 -0.6232254792956418 0.9757574649606363 0.01691891345764556 0.1973529118986147 -0.03710791969441262 0.2270476624177399 0.4106056681048448 0.4401855582056255 0.8693906861566537 0.9603820861576206 0.07676890764678831 -0.1356867161294819 -0.1914424025677503 -0.3722469781780469 
1.325130208801136 -0.3588781116558449 0.1369671722397774 0.3740642397267321 0.4085051216704846 -0.06328225811585229 0.4954197247470146 -0.1832550022366063 -0.02888276939576611 -0.004040131359273245 1.597948432785298 -0.9397720740947521 -1.133272244801562 0.6671912981021463 0.5525094728455399 0.7856118855618421 1.071043275576111 -0.06634284590813601 0.8741285252858724 0.02197852434727809 0.3927969304387825 -0.3469755795992568 -0.1360116398668435 -0.08731710121691558 -0.4854314080675887 -0.8061502738065414 -0.9617477753078212 0.08478400287040795 0.7761857662058982 0.3088065553254137 0.008559037189245861 -0.5286993012332386 -1.006178901327376 0.9404733266799884 1.148903593924873 -0.05561617880474547 -1.051374363945157 -0.3195794992502531 1.044968857177144 0.9592441682633315 0.2020800386457142 -0.4185051035777896 -0.07369139764479986 0.5639386203706802 0.8501731169161825 0.3051055109922766 -0.09447804147904112 -0.1351459416619136 -0.3488878081474946 0.6352690037362906 0.03363794292926054 -0.22346459462805 -0.06927663012953063 0.3778191733392678 -1.024067666741495 -0.2757583889578883 -0.2779444059104637 0.6592387201519623 0.2939627368213195 -0.09285548180848392 0.1698624442718115 0.1626254874837882 
0.007259033206669135 0.1691156080170513 0.7059694253089126 -0.6874274911243404 -0.2291396048024829 -0.3899265388608687 -0.4279162755795964 0.6659312927394972 0.5367683891047854 -1.234183760771225 0.4934065753392561 -0.4399264291183915 -0.05000002018732251 0.4043406254744795 0.5238784606363894 0.9237835680200255 -1.595243913671712 -0.3607286657449706 -0.1474139843824695 -0.3950749294385776 -0.1273358480379024 0.6639228970445933 0.03512443936891192 -0.3129688314944553 1.852289554904285 0.2030915292998323 -1.334465359274785 0.3621663238702852 -1.753891300074176 -0.7672111433977677 -1.123286735261873 -0.2807072471520336 0.002605677008265397 0.3006511598464274 -0.6510900092092851 0.5064427471807117 0.05969133627373093 0.4143550184315145 -0.2789470549332647 -0.7957426573651644 -0.4098383664478082 -0.4692150621077823 -0.6188265451375593 -0.1100028866316221 0.1727420354783993 -0.2862122997529997 0.7747941388037108 -0.571671302702548 -1.473014876702078 -0.00922193090284165 -0.3924121830573445 0.2674572222625435 0.8814516896012147 0.744515879144601 -0.07326526787019871 -0.1861945533982516 0.2049258575076851 -0.1204851588612509 -0.1283316274595964 0.4464842065587 -0.1360616380655598 0.01611823801031111 
1.159120540740754 0.3387523412025745 0.001975123093069514 0.497608940490362 0.4432797444213694 -0.3968058892680558 -0.6661761665436332 0.7649638787892724 0.6625234364157438 0.7947132778872403 0.1550049391986011 0.2562122625308495 -0.8113353398671016 -0.1684922293657329 -0.3277200748761775 0.4813474094084828 -0.2579822437178568 0.2479986258464478 0.1757173687527101 -0.7711553153932673 0.8180234889220562 -0.4555087935287261 -0.0385665862936206 -0.4048943171953002 -0.3123072297483337 0.05417995460985378 -0.6698703215767041 0.5354170135259707 0.138252853801719 0.04661726194459541 -0.2032007915054826 1.065936391175712 -0.3826936295881121 0.21360192435326 -1.037129161489062 1.026310023157005 -1.813173271797312 -1.836448256252563 0.4574468468212513 0.5575696654851562 -0.241656558220585 -1.221573959791925 -0.8834877311338414 1.152753180059136 -0.1001779421169606 0.007223126156122526 0.4002590769164048 0.7179048602815258 -0.4847902540328848 0.03736181051321096 -0.02525548849851365 0.5821328866543458 0.1810909155370199 0.2169382236008945 -0.7860690724413494 0.207854613994665 0.1658498463178366 -0.5361426875652275 -1.136120889498126 -0.3651813169366229 0.06174488614697938 0.5306141417366429 
0.1854501757013365 0.09070244205616919 -0.6004928424755913 -0.843587257362414 0.2406193385370977 0.1552601942849323 -0.1584807579287461 0.6666518308212623 -0.2099914742114292 -0.3160814146801501 -0.3073684134222894 -0.2872895624400836 -0.05092832431642209 -0.05604921346859051 0.02252888823443276 0.02015504763045083 0.2118687277818019 -0.3768948091521374 -0.2418710974376823 0.2210844479541035 -0.1831687304510455 -0.01114494017883474 0.4190130281741783 0.146169171121053 0.2833581121149635 0.2552440679134123 -0.5034170467499949 0.3036834443199501 0.09320063029138285 -0.7406685123118859 0.2508016926332337 -0.2824637788736277 -0.9658556777741042 -1.160461981210099 -0.3626603047670088 -0.06485182623856359 -0.1452394484617885 0.03954539164635472 0.142885164651321 -0.08698797180957642 -0.5116294797831745 0.3635207269915207 0.5186377202648528 0.335357745217173 -0.05573214632090391 -0.615080309829143 -0.6597039329959471 0.3290815959144343 1.198166119948503 -0.01671028495666115 -0.2166810845749065 0.4801299119513618 0.07207520768731901 0.5450661958734414 0.9959945760633588 -0.320415238095452 -0.6255934601120638 -0.4597455929247902 0.3108253632292575 0.2092373244482587 0.426505296731332 0.3797175958210822 
-0.518037447622298 -0.2473678493552992 0.06053604869185279 -1.81187745443232 0.6217814594974664 0.3714915268969066 -0.7266891157986254 1.242171361429938 0.4338114880606524 -0.1296752086500278 0.2816303298909992 1.293147491325525 -0.9289407774785384 -0.02152805791992107 -0.3568662829591429 -0.4787992552550777 0.6236650148326073 -0.4019624786307383 0.9207157947698948 -0.1287351134150912 -1.364683929778158 0.5664311937012133 -0.1091323557330311 0.4023728118492813 -0.07413369567758743 -0.784875336357973 0.8151364070196085 -1.072734091446313 1.258096391071912 0.4444856081150406 0.1474726474456449 -1.111599982139304 -0.6579821408694215 0.4032085534432069 -0.1670982386289769 -0.1118534308983563 -1.186616337272481 -0.5126130915738919 0.170452040735207 -0.6425753786373887 -0.1331194118046471 -0.4205280740418786 -0.9777828465404126 -0.4496439907119736 0.2192450399002726 -0.9561336938129742 -1.224844751808062 0.4989677475625501 1.109989162025222 -0.465183960305074 -0.9181465427291061 -0.01934989835346119 1.192155299089259 -0.1871882457020723 1.255180277299101 0.432176257879095 -0.3901442614660846 -0.1566906959684129 -0.109746472005081 0.1803505288593266 -0.267428685860529 0.2782919621268108 
-0.3482675077563535 1.073324979204657 0.5401685392052207 -0.7072712493452256 -0.9552089706913889 0.2541607370047473 0.9318060179293722 0.409202652727265 -0.08160338268081582 0.7870045792046323 -0.7826387275085411 -0.2518634147512445 -0.136984385096324 0.009043473774909204 0.0152607106997623 -1.142017244056938 1.208567095679197 0.219180622199092 0.3334777103228652 -0.1665660786873236 0.7466429477441404 1.717190756632735 0.1446751392659336 -0.1145621741247762 -0.5427076419979041 1.298797442398361 0.6314410285957907 0.0824599288461234 -0.477265625993155 0.3155597052961145 0.7881138718076289 -1.035194909910257 0.7043069818456427 1.271010443844599 0.4136590309654485 -0.4914116906497953 -0.2758458509633723 -0.3161762625973339 0.1034835832895318 0.1931584463536395 0.1992648262500413 0.7470963073479031 0.2635525027938915 -1.28739228119361 -0.3926475418394359 -0.1161609800761097 0.2783584265786676 0.01359815831403764 -0.3092187069616694 0.2593910434428934 1.009549229384776 0.3423968688499194 0.290621418443353 -0.6909809637953751 -0.008263241269663277 0.1665292092251405 1.411360409525297 -0.4364500455447626 0.1989105616899396 0.04228959012509623 -0.5509034331477271 -0.5022801673912771 
0.4575804545883179 -0.1650496989087326 0.1842281359762984 0.3234100403482427 0.3667383941642626 -0.7153261501462846 0.5889781210084255 -1.113555289795562 -0.1021186203317774 0.1305865945742612 -0.674299779521634 -1.045371543747214 0.23870197978604 -0.04400804274954462 0.340506859948365 -0.3920106976949944 -0.3645929156409664 0.4757411294452646 0.4222355977488885 -0.03408308376660922 0.6703375513631964 -0.08398811331494763 -0.1153834529011603 0.5497826452518858 0.5902939566482995 -0.09621328756174499 0.2779619168273696 0.602647554769602 0.2529185334730228 -0.9479315687871711 -0.180098239539237 -0.7414958662791177 -0.7675083616428169 -0.09330354963444568 -0.389749165315123 -0.1093123442885008 0.449072575844479 -0.2383915814164765 -0.7616417593649377 -0.01551633829393758 0.2956539591234558 1.218240483541559 -0.343178344746791 -1.053901285804645 0.3116252407662475 -0.8264574548695787 -0.1311467907268559 -0.8460899728513579 -1.128669427018187 -0.3885204431797906 -0.5627807624956677 0.05150032548174385 0.4113477687413455 0.4616742349574278 -0.2568549269348788 -0.3299579113046024 0.7190997082259423 0.4484918339071075 0.1908923940398523 0.1162176643215234 0.2813989700593729 -0.2870542837095689 
-0.4442767994161203 -0.120607189119747 0.3763408177548185 -0.7492580442281861 -0.1370965757654327 0.2002994436217893 -0.7306438059298248 -0.4362186551702592 -0.3041806265933907 -0.03633320371787512 0.1111761188576778 -0.9414582953486269 -0.5041877804439189 -0.2000301969457692 0.4057673276124246 1.080090943762209 0.1398783571444314 -0.1483554915165384 -0.2939771755754055 0.4330160993426472 -0.005935545906896799 -0.01182538935132844 0.2700553561945211 0.2566075294006182 -0.03502119835920958 0.348611507147396 0.5680424511003798 0.1478031929688797 -1.764387222762617 -1.144652570758965 0.4314171122729478 0.3792704786500963 0.2769330233847624 -0.3978407327338236 0.1460865486587599 -0.4115796390719551 0.850212995613996 0.5370235808864405 0.07831013595304406 0.06629832281428054 0.2901239469484141 0.3278549849951889 0.001892768185916413 1.722000617054976 -0.1937056148621272 0.0380111688445068 -0.6933070479342093 0.07362155971874576 -0.5291333719844334 1.162183854207217 0.4165160493464215 -0.07778255699929761 0.6410865908897408 -0.2388054554255697 0.8924432021587929 -0.1151469187927862 -1.240125463823293 2.430279842841254 -0.2525601271360624 -0.2852049834510968 0.140870479810075 -0.4664863215889072 
-0.7776026868390591 -0.2374617876208023 -0.0500196447634699 -0.2357616684815019 0.7751326851621446 0.1350165965863533 -0.09783845875181521 -0.20147355581656 -0.7160658680624957 -0.3553079771157333 -0.3810327005133115 0.1435349966037899 -0.5896024335973223 -0.9027386659493363 -0.07018741536641511 -0.5438693176928349 0.4859199633507565 -0.0825344770301943 -0.8957627391693767 0.6164817962494967 -0.862108274450649 -0.09636072784634507 -0.2781262973861413 -0.2417937769308635 0.4674588191592041 0.3423211498302904 0.2917339748180445 -1.24949354310011 -0.27587156900065 -0.4282672197465583 -0.650219302556568 0.1458466630710814 -0.8155905836283509 -0.5273409989065838 -0.348386670114448 0.3304222229757733 0.1171553759780006 -0.3310980235059728 0.5103324166272966 -0.1206484629822757 -0.4394405776961738 -0.2371266066127424 0.4184195855362285 -0.07903066068216741 0.252446639754114 -1.691845769680305 0.1514131502612062 0.1279439772131061 0.1552753459574399 0.07925696896284341 -0.009833686778916592 0.2733320368020428 -0.04504552452365326 0.3422318061230513 -0.1662697003103435 -0.3383027130536679 0.7892689416001689 -0.2187528267859597 0.3082881164005736 0.1167353363581465 -0.07874716680859908 -0.02699346950606814 
-0.4365383173227064 0.1513274638086817 -0.008335203946744855 -0.1439244123840473 -0.8632859079691386 0.4458769847198044 -0.1094362944443817 -0.9445881947381111 0.5873999643977532 -0.2912718535400218 0.05748327703735674 0.1592104399557805 -1.056796716240547 -0.9202388011409638 -0.5273011984411006 0.228429361715021 -1.434181012180444 1.296022552291652 1.292832102047393 0.7345386844661211 -0.5953728483114411 -1.718304795311742 0.2265933036507491 -0.2307766172737971 -0.6710497524912625 1.044638344887925 -0.67195124077795 -1.50563261702022 -0.2309514278163129 1.178652109234154 1.718079888672105 -0.716559070296248 1.684752231598277 -0.6123284311642775 0.5798401345366718 0.2536148474382578 0.393110792677583 0.01060316847110997 -0.5184380081663541 1.012106363864468 -0.06942041291024884 -1.383226359492545 -0.02157698378055257 -1.035537613153261 0.9354176934297578 -0.4017281250049837 0.1881144112640158 0.4465674807318493 -0.6022968770143539 0.4984201336821093 0.2234351263251289 0.005526267910182953 1.631881811226476 0.221590947053828 1.485753755564124 0.2284032753659895 0.2499965149063384 -0.06771602633379667 -0.3250265541484434 -0.4203198970847948 -0.6979716118691202 -0.002675265957541035 
0.1076516471551467 0.5530271745425079 -0.4589685672446059 -0.429898117275464 0.2943584605327965 -0.4670692934560134 0.7359587405189125 -0.2012152237556058 0.7396474675496471 1.083016762534402 0.6811299069389039 1.464510191650631 0.1558118985929507 -0.05299083108055357 0.7205248175838492 0.386460054503381 0.7243851524300359 -0.0263249646626195 0.5603166166689098 -0.8911530685662702 -0.5172278141402034 0.5052593590379633 -0.1763346209047236 -0.1313010488317861 0.182678610452894 -0.01879914197982603 0.5395560251402107 0.741203370148064 -0.4616097380989114 1.84770841963877 1.180189661675493 -0.456915164628474 -0.08432880465991527 0.4596745296132734 0.2868042302968535 -0.6678147169182881 -0.4640239649387732 2.007421407001524 -0.9243154174124688 0.03040930266510469 1.31999130298459 1.037745541998297 -0.2474844383633542 -0.3601435342357385 -0.3139806844071443 0.5962187725730711 -0.6468600984224013 -0.5100632434322572 0.6639719097783079 -0.3660972206370795 -0.424148939319717 0.7270385021661014 -0.2986767939820625 -0.1990291757605242 -0.6710850790531711 0.5705759089813282 0.4211247244525851 1.355114574956919 -0.4551578016197557 0.1653275921247166 0.5063783931441939 0.1555905326257903 
0.7391453968634999 0.1665046109562155 0.4602780487517005 0.1618402502270281 -0.06225941351640043 0.3819711594375151 0.2651509933530329 -0.5931934496974068 0.1326367471743557 -0.7508177309965941 -0.1338019921544099 -1.35087234157139 0.5526778816157935 0.2153847443361868 -0.2534525073296136 0.6712844819690326 1.511199410322524 0.1980756579618758 -0.4992306002679803 -0.250294669643344 -0.9850315276035501 0.4400182585588944 0.2648391619663473 0.2803165484030086 0.009412414557016868 -0.5303099925482304 0.1648341792835751 0.3852258583452273 0.3957956897784974 -0.4485846698158492 -0.8506041190323643 0.6308324555001578 0.1880352612708607 -0.1847164515099768 0.3995925781173328 -1.099461425579768 -0.5844380615185955 0.4132865742586412 0.5874332978791844 0.5056117372589818 0.0832926267893557 -0.6764071999879399 0.1097454340248484 0.4022307694370769 1.119890972793669 -1.184265547945487 0.7610328982251006 -0.1718304896620174 -1.045225820078414 1.439148159010909 0.5033912943646442 -1.280711151707354 1.073442285965202 -0.9314143023730201 -0.3586088698983094 -0.8566216302692858 -0.3711244770564852 0.8016527285320392 -0.3859615140502021 -0.0578069034780439 -1.018512087543585 -1.028169492729523 
0.254813341251683 -0.7377859698242265 2.179394617088412 -0.4072950717167481 0.3059766225754765 -0.1906429662170492 -1.726980180692218 -1.211084735654574 -0.07215660069505458 -0.4771407278534832 0.4141574814092548 -1.000777855148745 -0.2508234404385636 -0.5703784791811894 -0.2761673910541801 0.3381239051917856 1.953777366470896 -0.4962769665264717 0.06158695491765755 0.5044064877202599 1.232822015143255 -0.5738368654124723 -0.3389712881917476 -0.2648600956316373 -0.07878294786717228 -0.1128451520405725 -0.6592153359640768 0.9498230270984961 -0.04117939682815935 2.223816786968548 -0.3859715168682993 0.04609940350109858 -0.04210687574093304 -0.007586107281170353 0.08340838258486742 -0.9810190729274346 0.2848380874534127 0.3577172605329703 0.06594653596518849 0.5212703591067896 0.290118267894569 -0.8056528578164046 0.451032764352529 -0.2155353977983484 0.8872250163016222 -0.1446676407792447 -1.606118390941011 0.281350739371434 -0.9584695633563944 -0.4416488810409576 1.142086536258987 1.576559018239078 0.2288987705912411 -1.186916839237392 0.6704574102961446 0.01311138566298062 0.3961457298649865 -1.578137021307167 -0.0379769118154103 -0.2640678611147416 0.3392148205127511 -0.151728035384885 
0.8064096612221088 0.8058362812116726 0.567062217597235 -0.2182725626132927 -0.881946515372919 -0.6593163770197001 0.4856844574008988 -0.5416076234879355 0.7469338185466862 -0.7467531551950564 -0.966914737989418 0.2938965533515928 1.03404864287478 0.5383236912036343 -0.1434021086816761 0.9308094602949483 0.2600597754801082 -0.2381235422475881 0.1651610091481086 0.4900963380058501 -0.1417142989631288 0.8767463720478261 0.2636430832251039 0.4271405400944912 -0.5031933095193154 0.06988376890592517 -0.8003074913586551 0.8007724991705353 0.1976224062109461 0.2347047203195816 1.268087698182022 0.2218562852772574 -2.375801008972727 0.3291582976395092 -0.113347036890851 0.6561971476924755 1.406381300227535 0.5774371038179167 0.7379405287332872 0.5270299062979588 -0.8368265607587911 1.038984170288728 0.1572359808973434 -0.06140112008589011 -0.003864574982671789 0.8659232080533151 -1.898098113090676 0.04462815272252121 0.03481588189863607 -1.548077487159618 -0.286004740937846 0.3059808064551769 0.3033344493767455 0.2247791549608494 0.4644585928980574 -0.1398561807452429 0.1069096249133132 0.2838204089202251 -0.01790290593929878 0.01643668771873052 -0.01474122302979469 -0.6596178783492171 
-0.4411178561902547 -0.5980019657061014 -0.2981215777505399 -0.1670227916106475 0.4944256233657648 -1.300653689611515 0.4898013436800686 0.04971963191387472 -0.01091351298526078 0.05788766230685483 0.1003536765153564 1.82685144729557 -0.7549855960756364 -0.07029792865535342 0.9512946037729636 -1.1944783421881 -0.5949878985185246 -0.3754057155913976 0.5080111934167353 -0.7506233804022482 -0.06537253081285239 0.4727052930183694 0.007950886219283132 -0.07736804182179979 -0.2142812627616414 -0.1916518936706016 -0.03258475485743354 -1.174256112270571 0.1460008159986672 -0.4419570838672496 -0.4499446015914877 0.03788947683707395 -1.036827521933872 -0.1635376050187619 -0.1682123807775865 -0.7318391832432968 0.1413421465928179 -0.5149682655092076 -0.5159360559681395 0.05714641068695792 -0.3393587581840731 0.7145083496273003 -1.036367576261389 -0.2264232551511076 0.3108888610915173 -0.9197434440654313 -0.4905927577377036 0.8311403501385246 -0.2447280677262616 0.8710897495098594 -0.5409712027240779 -1.504543121739494 0.4661540139032636 0.4244623501271656 -0.3277206024043399 0.5769065213459101 0.7433218654042012 -0.07695706265458779 -0.04203076007956047 -0.8268997640145376 -0.2266946618404077 0.1421261334571232 
-0.5753924377613716 0.5013076530506956 -1.402028479618063 -0.7237258956870228 0.1769945653836113 0.112740812145028 1.408717109647348 -0.1874757238804206 -0.7858106668997085 -1.104307061327308 -0.3922116570008663 0.2635023988275497 -0.5467889035535994 -0.2124581865192203 -0.7650267362086568 0.002346107624958243 -0.2702516271988454 0.42432065250734 -0.3747512159178535 -0.265398549798216 -0.7265119020596926 1.323828191209681 0.2007754667524161 -0.04565127844518307 0.4151281884553546 0.1243761401397707 1.489133257636354 0.2256138269447255 -0.5001288928514015 -0.6789492509916928 -1.010437399443577 0.03373568994630711 1.014164806462262 1.563871908180734 -0.379527776960516 0.2768624671391199 -1.257950079689819 -0.2284419116450397 0.358294328309462 0.5310558676352408 -0.3717762831761553 1.831330495679222 -0.7528253270832019 -0.1255953567784486 -0.2242572807240625 0.3390715446569067 -0.3970521159023795 0.1406915906733725 1.031637273848256 0.8826353557984306 0.07344666998176805 0.2842516968297359 0.8271805152019912 -0.7048966350069626 -0.8088587086792371 0.5035964449971995 -0.3703030156434372 -1.219806474919237 0.4422081075654204 -0.02820754251564067 -0.01909525562893298 -0.9528954210290832 
-0.3950821046480698 -0.5796625070089655 -0.7912515633745673 1.187428717584052 1.03662336574776 -0.3546250671879601 0.8484744016099385 -1.376117541385106 -2.428520015111972 -0.06547061459952588 -0.5588038645819731 -1.939186580591994 -0.2722228262740568 0.4589921802230978 1.233904777458072 0.2390300299995812 -1.105331254965466 0.3913768819829151 -0.04222712293746188 -0.5365425606301424 -0.696804067358336 -0.6116612180632713 -0.006000744795065831 0.1207862995828521 0.1142552380884046 -0.3710996447004268 0.4933498867922608 -0.5757723842523171 0.2462774054632334 -0.9568863714939887 -0.288209871723615 -1.072514109907672 -0.0635043704698727 1.720094277423947 -1.005282590361975 -0.5150984647999869 -1.047437546191466 1.343575281693962 -0.1118601346889072 1.176073093177444 0.760297750782748 -0.763773001411433 -0.4067452941901354 -1.003021046689182 0.3257390854259644 -1.053714758354852 -0.735414796813988 -0.6779545418244634 -2.019196930543503 -0.2476602223071469 -0.114145295190971 0.1059351286242456 -0.4503536189291917 -1.206220136273924 -0.00841332638914386 0.2496712468664543 -0.9094762000405564 1.681208386917038 0.3891315570122326 0.2426047610037521 -0.7719881745910789 0.0135497766986617 
-0.5539522043089937 -0.009002657443863589 0.5196590217597638 -0.1675046988902992 -0.4978561240281812 -0.2628025595457923 -1.1870033489277 -0.5695047790805314 0.4682151566311417 -0.9539384998870102 0.2053716434683895 0.4419010273027567 0.4830276550012813 -0.664051195882063 1.437454252896466 0.4610303231949106 0.6063664989471783 0.5217868160724444 -1.250656292464201 0.02687535801314451 -1.073204777099188 0.7686231561050909 0.1086825622203782 0.3323282599181336 -0.5514057940856683 0.324024331727583 0.7588352475831097 0.1176937278289638 1.253417286986918 -0.731666120267465 -0.1559308480248807 0.2687734362852001 -0.9288888785744357 0.1449821270335281 -1.465466321874295 1.025363385456671 1.188021648955301 0.7420320322808881 -0.2521438093031968 -1.056240998227861 0.2166827396201269 -0.2251089807237509 -0.580012409118503 -0.9836017086756006 0.4855331368724106 -0.1188830306601716 0.2620997243700874 -0.8294960948840296 0.05066932128672848 -0.5965307260908103 0.144073830548448 -2.098083614098889 0.4979902654574486 0.006552637932508773 -0.4801528767435131 0.02591443102954406 0.3695860041197503 0.02787115612444247 0.05577717175707905 0.0003482832636906981 -0.3712284093944315 0.09963173500238874 
1.922326465029226 0.3233020198615908 0.2713015985065155 0.3160616214835539 -1.096983861728197 -0.2312086573248974 0.3141107074533679 0.232577178710236 -0.6649448743207766 0.8133407969224677 0.4761230995319665 0.01413653488300067 0.1247259240507561 -0.06985026537780996 0.04300606706070698 -0.9505923793432821 0.5592000406084761 -0.2712845142374667 -0.1057438040789078 -1.123682635831941 -0.1722778085250493 0.7990675476255059 0.2090984121839194 0.2681675455506993 -0.923402550076699 -0.3840429678318075 -0.3097892266240447 1.658592627641464 0.9911094743134454 0.170218249292131 -0.2607368981074465 -0.09065004420378189 -1.130072216317195 -0.7245455056761646 0.2283690977028637 -0.6550810948389731 1.619804062762685 2.04582489811881 -0.4052563214015988 -1.374989019715261 0.1874045303593674 0.5896173496663429 0.7552787107990552 -0.3204974098358587 -0.6002356768933019 0.3643326401378025 -1.214421589514467 0.3420723802307406 0.4906283168352293 -0.6638816599727778 1.070527689495683 -0.5149599655652621 -0.07357808000513023 0.3483509605713541 0.1727804389834018 0.5351128053276442 -0.1967173555498138 0.8064213857612333 0.6069901619783603 0.3356208017546242 0.379648501486493 0.8752113515491746 
0.4675694618078004 -0.1150883900743681 1.254171103338608 0.5914308064320692 -0.226650573733123 0.01197791359006164 -0.5014757709662629 -0.3003166849743055 0.5460237535216991 1.37261884050991 -0.6639263463774319 -0.9187067788791442 0.4484971521295956 -0.230660350942812 -0.1544483005599467 -0.37714751480691 -0.2642239044424464 -0.5520463982867445 0.5993847977269247 -0.1045583936838124 1.211366434165155 0.1193534202739051 -0.05813361422328142 0.4688592749240422 0.5675308514289017 -0.5890474097544022 -1.094525655990697 0.7315217571923371 0.5042675797335596 0.4594701018673857 -0.09367744405403984 -0.5869698128754326 -0.7597840596598756 -0.9898965124682223 -0.4228209397502063 -1.521201760868718 -2.217290365360908 0.9603650896179192 -0.5182013168346465 -1.225743409814661 0.4297232444488059 -0.2199782948672764 -0.1179158921359853 -0.2340407017650333 -0.1336256244727905 -0.00229682746744347 -0.57495654427799 -1.156382271164809 -1.828976310034941 -1.219816034373664 0.02378717204998722 0.3710116294077899 -0.05221360853084386 0.506445658993338 0.5028018476917594 0.1600956366720495 1.178608362597145 -0.1578011688263261 0.1609357306812894 0.04121033300860788 0.05677454185404694 -0.3170135721973236 
-0.1307712531669214 0.1665523149999934 0.385461491193776 0.2187678370762247 -0.003507574904975031 0.07260721546137545 0.1794504401486467 -0.6793314864162415 0.646933154240016 -0.07992321715565218 0.4648829694068619 -0.2990053568194199 0.3656025077453467 -0.002954726007747007 0.2790796745348409 0.1142423532345467 -0.4111326870151651 -0.2422412835092233 -0.0248173914652076 0.1004100013376113 -0.1106781647790686 0.05519188908175603 -0.08221240844261227 -0.1537845839754878 -0.02468395587925176 -0.4342659943234281 -0.4304413533445984 1.337150213747147 -0.4457377275495873 0.07194516541456046 0.3001515398441487 0.1746975481212393 0.07777532497271621 0.2318525947954117 -0.6578399809514688 -0.4801217210085132 -0.5793404061176283 -1.606182207619117 -0.1529610042725153 0.7451953352162967 0.2018177840058968 0.8050833990729727 -0.06094886488490016 0.8006334369860326 0.008655458024769479 -0.4637465393503538 -0.7756369870097122 -0.07729464438042577 -0.2344550788949824 -1.486234118064459 -0.5338681120466113 -1.288500898945203 -0.1587914371621318 -1.264929910991651 -1.471441361447734 0.2428570496832243 -0.6005532003115943 -0.8680405060106974 -0.1611072146186267 0.2744077713840744 -0.4319862661963215 -0.02904093764450027 
0.5090939948688332 -0.007497104212020283 -0.164784191433168 1.002068482796984 0.414678986431189 -0.7325010574017128 -0.9566228312096166 0.444542738809824 0.18493854681069 -0.0241267984478206 0.1107045656213171 0.6089051934112574 1.742864373907578 -0.07219371816550509 0.3904187976281744 0.348856394447266 0.4150426409744322 0.8825476957349352 -1.283412950729634 0.08381661257685782 0.3663576067906749 0.6050829862258743 0.04248298114594468 -0.2936735691406661 -0.2893060479143411 0.2629449580548496 -0.1806014426456561 0.2741607142753488 0.9730601039333636 -0.08574269104990316 0.6658596227387277 -0.3836076613401068 -0.3461238767076222 1.742675943417851 -1.179129924937194 1.285095401499279 -0.8211691230013773 -1.497240608496274 -0.3322507283841117 0.4772717560369006 0.7665298277910237 -0.1612955297191125 -0.415159465261861 -1.277954126106643 -0.4150804309170737 -0.4705765303015896 0.1572099577471106 -0.3574547616682685 0.658397543932883 0.6751344163218732 0.3457453263738121 0.7105375166479384 -0.870902847306026 -1.232577113281278 -0.4805230063685554 -0.04526223379443421 0.2857111440993272 0.007216934698714952 0.08651181597800979 0.2014762258141208 0.4494306459695201 0.2612736335451115 
-0.1457082638582915 -0.5493232454155067 0.02642350911858874 0.7642731932118377 0.5175917152985349 -0.5753927903282202 0.520342511920263 0.1635542790974134 -0.5082483992476818 1.627988606368523 0.2021486248658842 -0.3666796605516323 -0.8807954587366926 -0.1834667118426028 -0.9255346323871234 0.07643369192686131 -0.3044652549387333 0.3678119657948956 -0.9066754295569497 -0.440097336569943 0.2201166425857682 0.2242992356582691 0.2502751645445331 -0.1014143093796632 0.6052659246564643 -0.2974002362694231 0.8402923672963188 -0.6096676911319755 -0.586695357358797 -0.8606366706574649 -0.9064962189763983 -0.1273055941626593 -0.2170166347953193 0.3827044337518964 -0.8630015050309745 -0.6091995028056414 -0.06692783867641246 -0.2690046055638475 -1.484436180555875 -0.7307079299990634 0.6839519971509127 0.5384192189889483 0.7072159148260355 -0.4343942744536547 -0.375315999886668 -1.068765055618605 0.5789891644006827 1.355755741640137 -0.2722937241382048 -0.2151641965854781 0.6511956059006214 -0.3273576302618744 -1.668837509999125 -1.30093231768242 -0.4186473520799925 -0.4128201710323929 0.6932246393551685 -1.083577402420842 0.2917104122172301 -0.2688232089867552 0.2558816911500588 -0.3231447393998781 
