solver_type L2R_L2LOSS_SVC
nr_class 62
label 1 2 3 4 5 6 7 8 9 10 11 12 13 14 15 16 17 18 19 20 21 22 23 24 25 26 27 28 29 30 31 32 33 34 35 36 37 38 39 40 41 42 43 44 45 46 47 48 49 50 51 53 54 55 56 57 58 59 60 61 62 52
nr_feature 1062
bias -1
w
-0.7536651033255714 -0.1574744195105557 0.4872529678946818 -0.1818798904578418 0.2559363004756409 1.206577402216162 1.213236042799271 0.2000690495132539 -0.4486959763169394 0.6629382165972925 -0.6702335457360484 0.6277760078332334 -0.1507207670515832 0.08295718872784548 0.383501877402375 0.5272918928271282 -0.2473812034866752 0.9135401432723954 0.2264114834518285 0.3071705098415788 -0.6244247798839265 0.8146875675790725 -0.5246073864812539 -0.3113013531825338 -1.001317373590942 0.3095249045805962 -0.4686470651412508 1.297174572701313 0.7627944549950308 -0.3586187131858091 0.9107527212144862 -1.117019300581955 0.9063240619389563 0.7937023991089596 0.1000778809485652 0.2448405537762758 0.1662467057983447 -0.08856947607298798 1.653922308083432 0.4937191267635387 -0.1806425561952414 0.2602783910904992 0.4641204292564751 0.2338467062424686 0.1519558063900689 0.0416207231048356 0.9780524708847884 -1.173944933583131 1.322476599645457 -0.9739751665772489 -0.2215035883321907 -0.04018561616088531 -0.4534072101518024 -0.007505201572883964 -0.1991029859153388 0.4486209586547478 0.1908629127726322 0.5398546803680833 0.5169293655524005 -0.2428168895173865 -0.5114500344434638 -1.003742567555362 
-0.5786873492615502 -0.04552711016265746 -0.4782596568404914 0.0595501533793573 -0.540381944419865 -0.6768996990088668 -0.03922410346364331 0.8085469214637606 -0.3105357660042707 -1.566907676225278 -0.4718196195882762 -0.6453828678858528 0.2764724262294663 -0.1375897658317701 -0.457402140039201 -0.9927164037454087 0.7148828460881514 -0.3728427806702153 -0.2257670972186647 1.569601458332493 -0.7007740451381688 0.3908000303567578 1.211280366053914 0.6519786119267352 1.263471375580125 0.2417323030928991 -0.1617635745371294 0.9922347374032618 0.1092642049862476 0.5167497716420781 0.1280183222172374 -0.5692823204859987 1.245999783213267 0.306521548981933 -0.4771706208930522 -0.5129218654592602 -0.298715984492433 -0.6205226133013091 -0.06625620616476577 -0.9295850280284975 0.1032945884910974 -0.4151246545351572 -0.4275769762623484 -0.01164765893960979 -0.4655511654213713 0.4303206838567937 0.7100144100638168 0.532491869338473 1.352186673352838 -0.8076563358594895 -1.422187332638617 1.188575159645704 0.09249067120520614 0.8268511693393437 0.775509743345143 0.5711683758449534 0.5640800485886863 -0.8364796564356443 -0.6860609392578388 0.4839321671003163 -0.01108230933889639 -0.88494895152769 
-0.1207017198039651 0.7937653595982201 -0.2861733349622159 0.07006905071187075 -0.4516074031105147 0.6113865106525395 -0.1932911320551954 0.3056158085953936 -0.4036366811739023 0.4363442507751141 0.3825374194535267 0.4212687651248996 -0.3916679527798885 -0.09076355230946102 -0.3262671293098345 -0.3798245533329427 1.266253467175889 -0.2985978099108333 -0.1205004652569909 0.8963857535690395 0.8996106916825086 0.08966341023132236 0.5797403506722372 -0.3783751049544575 0.2632534833938427 0.3267318189028527 -1.255272731170152 0.631289596004972 0.2045728379484598 0.09182450913576251 0.02431785701763529 -0.9193042559625685 -0.3455043087055407 -0.07710257609429715 0.8083967747810171 0.3119991050332114 0.03580639306082082 0.483908872640705 0.1792870265836295 0.6433166174682264 -0.04722971992331062 0.651475664707704 -0.1116135970552999 -0.3938594814934396 0.3643501746489674 0.1504584634843855 0.9108662544334073 -0.6543529776493954 0.05704973581710296 0.3945248889218743 -0.5256354399284259 -0.1430034768012017 -0.0154035146769844 -0.2557615855723507 0.2450101718339713 -0.1660406391966791 0.7388151086586922 0.5876025577695558 0.8051915914288299 -0.7083591086562734 -0.7097723282642633 -0.2604057274877121 
0.2210083114669533 -1.429032078719799 -0.1789915385215712 -0.7636176421578037 0.1256335092941111 -0.309565050090731 -0.08699281808016848 0.04614866949958021 -0.1735229998513955 0.497761335983938 0.2656099115439889 -0.3471957232846217 -0.7226866788087604 -0.1268724184862391 -0.05394983709219899 -0.5426602692609269 0.5329514241770873 -0.071212063488898 -0.05288922413191712 -0.2277936832861838 0.432186884425977 -0.4749103053028291 -0.5012555878483166 -0.007214609307543359 0.07189723278024472 -0.08295748049491473 0.8912096906886224 1.086519346363441 -0.02223667997339053 -0.6835452212321789 -0.6071441607652536 0.8037021530848233 0.6332084156827509 0.7328357349348742 -0.3904406270466761 0.08734031961433156 -0.3669926871180376 0.1618032716833493 -0.1707472459422156 -0.769089916537787 -0.07531156496213799 0.2278033321346175 -0.1718754915120234 0.1215917822919064 -0.1969574905270846 0.5413495884231029 0.623356524953637 0.2017182320728456 0.5718074207147418 -0.01057517625420914 0.2573281402811103 0.8475923849374147 -0.3457200297758584 1.066107763439699 -0.4225547845091932 -0.1741309584733745 0.8127301360967283 -0.1030987967300946 -0.2817494558434326 -0.8414071575527419 0.3432509065233446 0.3843188050061222 
0.4621020200841508 -0.4966668016958629 0.3379035366506432 -0.3769582756960759 -0.09976192523654788 -0.5034566991859801 0.6036754842919813 -0.04869352821385429 0.4481980168126888 -0.7930010918553717 -0.3054768664109921 0.3594191370058911 0.1900878966527935 -0.03102264827039281 0.4691527153378373 0.2810626293207247 -0.2028799334884142 0.1226737849524978 -0.3904760261995397 -0.1551754100295179 -0.7903929074051456 -0.2416573817496782 0.05684130524252032 -0.6782164310792739 -1.225381138302945 -0.4356467085741614 -0.03484278454785925 -0.2337708206926037 -0.3226292201980374 0.6801665120499281 0.6260727216603074 -0.2295919798169719 0.4128703397713538 0.04063348178065276 0.05127072796432926 0.146950355591973 1.150322173835721 -0.3660365211039168 0.32046810312156 -0.7855735600441953 0.4503478200930266 -0.6848903294614359 0.2717732230114572 -0.393307916716395 0.1263671466803927 0.06173077138480502 -0.01557743370689156 0.4469852040613914 -0.3688962997775891 -0.9153358257344254 -0.3127039839332416 0.1350533735329674 0.1891631917524573 0.2170373656331463 -0.6606241627794469 0.09633015724549612 -0.161430234234286 0.2906377965211099 -1.002682457686022 -1.222839030875231 0.6579718969837883 -0.7090903107485808 
-0.3487127384986904 0.3471685217605482 0.210782103846862 0.1781214493651249 0.7995524368955953 0.004063753182329165 -2.049643646837509 0.2663654115644132 0.1272918042054303 0.3924780414842858 -0.4623794353853317 0.2730077662632655 -0.3646967749367345 0.1013532544598393 0.2064350240106859 0.4549335399616506 -0.3187594533996024 0.7913875012011143 0.3879034785463926 -0.5373740315803767 -0.3384154907385528 0.540268327010191 -1.133005331068256 -0.1431321278124532 0.2064059453894798 -0.41841675101975 -0.4651604947518398 -0.3580809790691352 0.04450684682519458 -0.635860489292314 -0.2685993623772444 0.9939508003058288 -0.7115739990870307 0.6475595393497825 -0.4814795940442598 0.5705588906167277 -0.246154987329676 -0.2096702253711782 -0.5196786492411883 0.2645059678370319 0.2051845723523723 0.08182823079590981 -0.6623950199410171 -0.4942502514906891 -0.2031268790485494 0.2004042774171302 -0.4843290168626646 -1.222081914992813 0.06566684666189131 -1.444667953424394 -0.1890469673083041 -0.1201168799301215 -0.5028168017975724 -0.5092916438799144 -1.002931552507818 0.2500100512224347 1.42428866687754 0.3951699792817615 -0.1443534663051675 -0.1215236478185289 0.2647426619960973 0.2586030849931912 
-0.7442200620962494 0.7282162748013246 -0.4260772056839016 0.437243895461439 0.1623319695362236 0.2742876361611655 -1.122069929662707 -0.1489596039983578 0.2481705325712641 -0.55827517625206 0.9744199499700364 0.5997770770426664 -0.5332414515853281 -0.4934230838782302 0.1676312677484681 -0.8920597434915787 0.133474436591328 0.008955857119129561 0.1287922003615395 0.3308019870633186 -0.2615605939441917 0.765409435638593 0.03682721083003736 0.5608223132940495 0.9513762313415509 0.269735177712018 0.009217285309808915 0.5434090958336554 -1.03334940373322 0.08070341915303605 0.5296551879759125 0.2966905007533207 -0.1793390702819524 -0.266900652844629 0.5582634202316069 0.593572149346498 -0.3299177970708834 -0.8455207116176793 -0.7132121767057933 -0.4522379734176572 -0.03639888288905067 -0.007298551383362369 -1.529249390868048 -0.3935317607983043 0.0697992530511746 0.007259384893303317 0.4933724837716489 -0.07561853280072614 -0.1187401729341006 -0.1178241364989104 1.129423828605995 -0.8298832599600582 0.7912631330416726 -0.3277120011086587 1.522342323877091 -0.06261115157699425 -0.8385621094659385 -0.5061378399414685 1.376255863723757 1.331052046243339 0.2414815555892461 -0.8147100237079071 
-0.2298195945097042 0.6775797749570988 0.8024433842221537 -0.333905523128143 -0.07494069835058156 1.677527358195997 -0.7941819164685121 -0.8617850688720541 0.02263721444821078 -0.7421981727268127 -0.05550209232637513 0.4467716895232792 -1.064123249668112 -0.8210267134947931 -0.3846231268769753 -0.5640734646388845 -0.0335457577931787 0.1355085779729366 -0.1420756508911428 -0.7234313814908685 -0.300951421802079 0.9223228721682778 0.08356228832013846 0.3938761214952319 -0.2190100429476296 -0.4808146534166449 1.507784795783226 -0.6788600047510753 0.4805385100871318 -0.05583875181229223 -0.591004177073163 0.1092767560959797 -0.5233234672162863 0.5916329303507435 0.2638614913268895 0.0289026408270181 0.4255482485367231 -0.495050437199 0.5150968406867843 0.2348177550158162 -1.015205279948532 0.7969790104500492 0.6981526411859801 -0.05938718709942439 -1.195653152629091 -0.6556354565494398 -0.8254698508213921 0.4517091315006639 -0.8906687827437616 -0.5341228273487093 0.2737190264198157 -1.036091306984335 1.04914870531375 -0.1850926999938757 0.1363259175308359 -0.417918147235356 2.069954254473863 0.290702145974804 0.6692404520039205 -0.173250293644976 -0.02855101243549557 0.5185729046488147 
-0.3036964087126916 -0.1335759120767512 -0.5758508526139482 -0.9158633684862322 -0.9192424712504199 0.2259417637372088 0.5461813335614747 -0.3710733906696295 -0.01908039187646859 0.02331228809102058 -0.09410759577248379 -0.5211505220216239 0.7226289473438055 0.1305277575752648 0.6168703513820019 0.9363912623838827 0.08892019269971994 -0.4072874156371206 -0.07512563095197214 -0.7378341372036828 -0.5663460364202142 0.3474749201761448 -0.3173299178343009 -0.4664277976857657 0.3027854568870946 0.4264323504306884 0.2093653916805216 -1.867656075823528 -0.5814186723863272 0.4691595623617785 0.87606947771962 -0.3057276880506897 1.421804072158784 -0.5510428143653597 0.1538784646534849 -0.344844698588936 -0.3218850189548823 -0.2971947947776331 0.8186837241839497 -0.1508987172857248 0.7235035314440752 -0.8802222444274295 -0.05585574047644308 -1.143000773089315 0.1628278548320983 0.5189678154814344 0.3490435360891785 -0.1815037073792694 1.039483088224439 0.2752362307787241 -0.03417357210249042 -0.3387538940362495 0.4558180376716518 0.4203697583286397 1.175691601063187 0.5546469422513458 -0.01632803058394582 0.6203643301226451 -0.12875952742898 0.4544176483076911 -0.227658883768516 0.006557768480785581 
1.325677524149276 -0.2162937240397508 -0.154127052520471 -0.379244201858182 -0.3487573157555213 -0.6430012037141585 -0.4324437513786945 -0.3032221292128174 1.283332994673407 -0.6097767963743903 -0.4042273216705705 0.8368102274294636 0.4511801024756995 -0.3107306168888296 0.08961113733650988 -0.8526531709258487 -0.6119473823582218 0.1971488270911244 0.1192316621682148 0.471431089821952 -0.3850555083876646 0.951044835443162 0.5012595141823772 0.1269152233798548 0.4315812883958041 0.3189020811605615 0.09904852913029916 0.2861966575785606 0.1227503926869093 -0.5532025043791204 1.072487437620805 1.260759995889454 1.217391483639805 0.9009668606856853 -0.2203437266358168 0.2225572186706869 0.2123179870032371 0.08404225814253877 -0.4164887899187698 0.1049358514757338 -0.321687634621284 0.3791861884247703 0.8006837352482707 -0.6840964910972497 0.1394878757913059 -0.01406329916330997 -1.031443599801466 -1.191561711417268 -0.5896367472898519 0.1672847860229961 -0.927236367232926 -0.003185976617837394 -0.7527598639689218 -0.2303385037323572 0.8061633795325012 0.4637137425808494 -0.4357365836486169 0.6689009587688493 0.7506777143804672 0.4072229515692641 1.162614202925722 0.08830311795079608 
-0.1461268692728852 0.3169936889324954 -0.04266023117451236 -0.5954046476452344 -0.216002936229641 0.0778150820353386 -0.06133016855848664 0.1205143314079656 -0.3586121217579947 0.3870647879499577 0.08168274404444303 -0.4547020776992257 -0.1327448104171974 -0.4092515650385257 0.2213167821395243 -0.6044578239067064 -0.1618117646352114 -0.4186477541468483 0.07452098292931834 0.2049975000809528 0.153277027754544 0.01824454077736615 0.01074285252335545 -0.07737869375101933 -0.4831277547929924 0.3248396677307179 -0.1593587766953847 -0.6590969444096296 0.1713962024857111 0.1619767735506625 0.4528788064344987 -0.0287908864704059 -0.3334959753176748 -0.1317333040350382 0.4447474878549436 0.2189005581027744 -0.2463614953306079 0.1446907537550075 0.2092457750807161 -0.3246932695623752 -0.2709988203287848 0.3436679884916707 0.3083697222016732 -0.5812186829145599 -0.2781510316563123 -0.5605970759160146 -0.08748103085171888 -0.2939514070786869 -0.08910078761058421 0.6122289050838075 0.2897237533620339 -0.1888270240599349 0.00297534372228044 0.3372404341900712 0.005253162986003817 -0.7728800407707742 0.0748675485635014 0.06517924750348968 0.4063121598490565 0.196551233680405 0.3534269290413839 -0.4172518752910699 
-1.19213817272248 -0.3921400054678453 0.08819165407479414 -0.4012394955274255 -0.6007220467705393 -0.3855847892063503 -0.8239576578923691 1.030635903939664 -1.477130210866396 -0.2754658402050441 -0.4517571157310964 0.5877707110297252 0.5464972306674728 -0.4678406020770491 0.4846786527077299 -0.3866203123684032 -0.5682944979296622 0.09785147792294724 -0.2077504737132533 0.5259273677574453 -1.065085710907459 0.03079678896212001 -0.5655135905697628 0.2612294565306262 -0.4780020409118478 -0.07503417085053485 0.02686040008751206 0.1391461422440535 -0.9101861492281867 -0.3205559426375515 -0.3073272432990443 -1.257838030297004 0.2666875088255254 1.120276981329949 -0.1451481660536372 0.6577935630013897 0.7550906332290159 0.1570843633309195 -1.989985898285456 -0.3677663653076429 -0.8580262624928715 0.6257611453301286 -0.5496124973918154 0.3536845795586794 -0.50349818841845 -0.4589019449517647 -0.593401967261586 -0.8020822283178459 0.224859333123218 -0.2199495458947379 -1.912018662633591 0.4883027002835476 -0.5504938645229706 0.4378745165472064 -0.6373585952195798 -0.2025408101691678 1.425027207815782 -0.5036513474016194 1.104698948373055 -0.3304292765102817 1.023813181486995 0.09720086100634827 
0.5121123794193105 0.0557200649146178 1.385610028120126 -0.2463898097453177 -0.9155844084979119 0.7385417110143105 0.3218741631569182 0.3801572802399451 -0.3703413134924007 -0.3594592381710534 -0.5838688803288075 -0.08895336312649411 -0.02676094987839742 0.8266027742916295 1.314637804061364 0.9800456370515512 0.04189382892181052 0.7132895127950891 0.319194421147688 1.489968869217959 -0.5283754800136867 0.1054648750555781 -0.6699469164423035 0.1982751405560119 0.1578252326855429 -0.3305778542667274 0.4957587124830898 0.9059248679746572 -0.2876086894537838 0.1961044744139523 -0.3039476564075163 -0.1433906302608195 0.3259441686145912 -1.272609799537814 0.9079314967174219 -0.1282275652644705 -0.8075688930632616 -0.03818071298067024 3.771245224612063e-05 0.08975654143363512 0.314065782078041 -0.6175966640267189 -0.7073616103005257 -0.1419756995008196 -0.02772773211323215 0.8824051017439889 0.03200406285780658 0.8181291607392039 0.6671196609649844 0.3943827596723791 -1.6228190379063 -0.5064199027748716 0.4258758334722155 0.02396512270702193 -0.1742966599139573 -0.5615065027851504 -0.07054843496559456 0.6999998215479101 0.6893657878351435 -0.06188744142127092 0.09978422074604011 -0.04252125631406425 
0.1364063585879499 -0.1181988792581691 0.1325049995734189 -0.1043364736353807 0.1720615275244976 -0.2021465855167863 0.2846504125862188 0.2453110191299513 0.159023570329028 1.029349917720314 -0.3587136861580384 -0.6948411240722266 0.04440663168850559 -0.7042523069246198 -0.05929915924255604 0.6885269458104606 -0.3692618499872512 -0.1842858700739873 0.3646325206586947 0.04522176840678549 0.9637753383715064 0.2040760346138991 0.07713147670896855 -0.0264388623794386 0.3028241158803847 0.03274181943418356 0.5036622426402437 -0.009027891124899979 -0.0768265375369836 0.2816163760172824 -0.3997803100061941 0.7582564424163399 0.6065840007381117 0.595214576624929 0.02136998423751786 -0.2541837264115728 0.7173635058921902 0.2334831030418208 -0.299909255497884 -0.7834323980584084 0.5213143895816443 1.830483871316084 0.6801091436237993 -0.113612820704119 0.05318178530032137 -0.03095897209382575 -0.2566011411516042 -0.5760086511844986 0.4016798276726506 0.572612608018306 1.55237456777398 -1.0084941136281 0.2399127237644028 0.2675798284618172 0.1373222599101195 0.3268758526819441 0.1464771608598914 -0.2955673428222036 -0.6529259594003727 0.7799033090014952 -0.001041097186523829 0.01860254138931444 
0.2648285813832227 -0.6387695826563781 0.1291284636774134 -1.824204249340289 -0.2389235524467446 0.2893722754361473 0.1468554011367329 0.3930900685705814 0.5737260591275993 -0.2941282277551752 -0.5841051435089618 -0.3082559658736373 0.4312067686823594 0.8687597664141361 -0.1342681428479724 -0.8052246996872823 -0.76019095325076 0.2121289655468497 0.2114266093287724 -0.2118516010886512 0.2380734079255881 -0.9889414479859885 -0.379029887177466 -0.286016942661137 0.2111131127780808 0.3187545293621647 0.357331366557537 0.6649062956192231 0.2087706085309456 0.5434519127705139 0.1475730518021395 -0.747985489344877 -0.1890229337401646 0.2613879865653966 0.1207854419019528 -0.6351068908043005 1.172523862707222 -0.5261403381182616 -0.5385944324795211 0.2852215882480582 0.1222386827085201 -0.6128286742231974 -0.2705204313902566 -0.1538663896236048 0.04221504793746907 -0.04914894434349462 0.1847102791340675 1.061336235892669 -1.146707728201039 -0.1540457004917914 0.3923975836053388 0.7143207656971419 -0.7050543458079936 0.3262840876654605 -0.09046739962587091 -0.6290907747182399 -0.4946497641603288 0.6242836095999144 -1.033876176291155 0.8878745474448246 0.4815621479434665 0.2677171550039252 
0.6043114590322312 0.4543221565349788 -0.406399534083897 0.4626602476862686 -0.119125718268627 -0.796424317626175 0.4573229615986112 -1.578369722687474 -1.446614540578577 0.2531193160364889 0.1891578686077412 -0.2310976381651861 -0.3318858315615392 -0.1978225689445022 0.7435565610813361 1.014694182624427 -0.687562526300543 0.4052228820548218 -0.1494865895694211 -0.9420957658674058 -0.1726496918770865 0.9740287826428733 0.3202636456379684 0.9629703477144812 -1.481674447937291 0.2874479681491218 0.656742507004648 -1.322913291068636 -0.06351273783318767 0.4591787464842751 -0.1205293462426839 0.03192977438718184 0.01732677512508003 -0.9136416318480696 -0.1129920213582876 0.3476918983228776 -0.3344463961814298 0.7079191006404395 0.8499723035939993 -1.133356382353816 0.6599625400300818 -0.4065687107647739 1.54430798962475 -0.07928163659281826 0.2154579281688875 1.829640281341645 0.454609290469932 0.9194246433475393 0.5342023153900227 -0.5502075724101941 -0.8462069268220225 1.092446691183749 -0.5884598917987528 -0.379600325683867 0.2305651402811673 -0.7458457156043483 0.4455700244549776 -0.8677829783247324 1.63869117175108 1.140055396656418 0.4008802359166718 -0.2363118247130801 
0.144449619247333 -0.1226965495845024 -0.2990672802103399 -0.5649081415552132 -0.2491722371255624 0.1552980087788053 0.9131932416777645 0.185881663156625 -0.5449478309686239 0.297044308129523 0.4840494513538413 -0.090097552136264 -0.1685327483901579 1.314335729262042 0.4840524470944651 -0.03568791884605183 -0.0458951412535453 0.08058731544066541 0.3470452289068029 -0.2443890793753444 0.2021171094719326 -0.7762021977599917 -0.52466716266059 -0.2946207739721949 -1.264030434426048 -0.01250865089283644 0.7199704050188199 -0.4504376755874218 -1.04760706935464 -0.5820960774229685 0.3152295063238199 0.08840096729042878 0.186590281344022 0.4182496487387838 -0.7074974941259053 0.216397416676709 -0.453070412891321 -0.5052861170331308 0.3963583601625942 -0.1564264484816945 0.3567819709263184 -0.03396430449798308 -0.1894002462829226 1.194174083997633 0.1410894891721915 0.1109605449301218 0.5512505471044022 -0.6279439524436975 0.2124289377490596 0.1392807047482011 -0.8294764497968475 -0.3237367581357223 0.3216714005717821 -0.7531161213572312 0.02440161336778841 1.400184217968115 -0.7525623882247826 0.4440647866299981 0.1057159063723598 1.678430696750946 0.8337528982363035 -0.419374070253451 
-0.2529206779416984 -0.02036870968526705 -0.1363455080915804 -0.0939059566252171 0.08736057884785604 0.5278465613304956 0.1254037868262496 0.4647339671960892 -0.000756243772530269 -0.01673036929434906 -1.542518360909293 -0.08877833083606816 -0.6930763320377676 -0.3295804915719187 -0.6506897419347257 -0.6879107666007461 -0.4360624866162918 0.5139501661988383 -0.09348845702857778 -0.8183870726367228 0.9320243279438676 0.4310682987480809 1.046731560746286 0.01419210550356775 0.257084454471785 -0.04836687930071816 0.311368096991456 0.721980063041035 0.8471877838763336 -0.3176670467932238 1.169046864971024 -0.3455190184303573 1.349165784820662 -0.001088982256198403 0.5559517317624245 1.281138268995345 -0.1341920699737445 0.1405780791786868 -0.2671446753256957 -1.312879669386809 -0.3787579997265079 -1.050873789984956 0.3722328920987908 -0.1774030567109704 0.6645793956023489 -0.8111498635477469 -0.6662155599183837 -0.6087679112311452 -0.2735517704519504 -0.008967506862741583 0.8673676330261936 0.03185425562294859 -0.2043382621267289 -0.7526077625798069 -0.1757001657979215 -0.5296181725634853 -0.7410861403350832 -0.5145311630713943 0.2947504292105649 -0.3736005265784662 -0.4227637326327519 -0.0130543181464095 
-0.2015959279631344 -0.0945080270880463 0.09305043021507595 0.6829210749622393 0.8726789018007015 -0.3822161529077988 0.8677411486832037 0.3997647499993005 -0.7692371816097493 -0.4331014810358068 -0.1585957271718132 -0.1392919383579828 -0.8960730893093898 0.6151634957879681 0.08559136809886606 0.7693747501995601 0.2914254201763168 -0.6728205462939574 -0.9098251732377345 -0.605896533262512 -0.7979656265158992 -1.482607211073125 0.4093608861067838 0.8371520461028211 -0.2922056280297526 0.4278938074401717 -0.352635019972813 -0.5030682142094051 0.6384769610157734 -0.2067636994676928 0.5378978596871939 0.3183290103251322 -0.2014196397234749 -0.07610481627163285 0.2917195792920206 0.6226795140267251 -0.6124328382516575 0.009598114057935769 -0.685769466802409 0.73848533112324 0.5072833289333981 1.604885056399574 -0.5482570408252553 0.0563061709741203 1.719431022633114 -0.3779805541970165 -1.226798077512508 -0.3940056256016176 1.158518098773901 -0.3998999196797988 -0.6112232851251953 -1.273186787554426 -0.4174966134960619 -0.132542690153559 -0.0291790201716421 1.569463212967696 -0.5285081716710689 -0.3923176888796598 -1.247414438783225 0.3252199086495971 0.1789397390394332 0.01874858824946002 
0.4459281984922494 -1.202632003748919 0.1719593921832103 0.5898846064299462 -0.09743867601922095 -0.8900488092228892 0.08370235385787143 1.146542567250335 0.5333002625655103 0.8071746682810026 1.487250191112233 0.2494460195955644 -0.8533333324027532 0.04371978573225242 -0.5319579444447472 -0.6858648720652453 -0.1777271214063976 0.2345916592004843 -0.2424965635693796 -0.09262233053071378 0.649698320996991 -0.01691920704261102 -0.4178970119789726 -0.7452479616826798 -0.07175082959425783 0.2399352804860014 0.3634568224795049 1.109256253003672 0.9329276342340472 -0.7129459481532219 -0.6878467518280408 -0.2325669201715622 -0.4011358612479249 -0.5500779006968415 -0.1424547077718672 -0.8016792462277867 -0.5299152112129806 -0.3127732037847301 -0.5833496930245889 0.6992702579085303 1.144040284909555 -0.3377055742797322 -0.6515837931619612 0.8142831536519524 -0.4492184582337332 -0.0004706208196969826 -0.4906593413021795 -0.5946455031346165 -1.84876185708183 0.7631192169992059 0.3831647842291582 -0.9662254161914603 0.966631562327999 -0.1311934985387698 -0.6667488301927474 -0.3191717912377527 -1.743079991629578 0.8134563093063104 0.3696891932638672 0.2028704104563134 -0.4055646519611822 0.4474980414930154 
-0.06176791475390447 -0.1279035093958166 1.155935241204028 -0.592294193782693 -0.4221510272224225 1.502208699938146 -0.2583069130660212 -1.411186825315949 -1.285856538118848 -0.9749383243234265 -1.309180379220343 -1.320694254569267 0.829975297675897 0.8780895999004436 0.2420501793940797 1.041420519320349 -0.2167082887277787 -0.2979327848245367 0.4647431463680112 0.6178437675251331 0.0516956275079906 -0.2272666722260198 -0.1533652214761262 -0.7396115530356749 -0.3489027017141433 -0.331680195030042 0.5816800517336589 -1.079623853143044 -0.3414990626076433 0.3917487989604045 0.08989536049607362 0.8080538591600954 1.392876834040567 -0.1881836567727674 -0.4716049490336982 -0.03173465101355219 -0.4002333051768084 0.1472073097583856 1.479341735729866 0.4145723516380727 0.3216895573893918 0.8344823116833694 0.006321572251641869 -0.7587424697253944 0.3325295518563852 0.894271987814626 -0.5893645337355128 0.1966627073709991 0.4730845891061042 -0.2800173109271362 0.6236679059017578 -0.2101974529490696 0.1707990680067759 -0.8214209866270569 0.8141156516755066 -0.01879652238320399 0.4245693375863387 -0.5397886901700405 -0.1791011241195237 -0.7705806389464137 -0.4246066658181589 0.352221000124802 
-1.227709351701412 1.240825757742877 -1.158139475953564 -0.107027561762489 0.3813843418870999 0.1366041956800796 -0.975215446135514 0.5639061889486416 -0.475555135463474 0.5130487120215876 0.3419740007796783 -0.1981397864390328 0.2286692445547517 -0.195203380679492 -1.081452441365443 0.7974153019226405 0.5263018080961058 -0.1177469952024194 -0.1309592171270855 -0.01852821022273457 0.7004519223311534 -0.5368480334520259 0.08618042495354539 -0.2717729426894788 -0.682514382350485 -0.07245784685871427 0.5509119411442357 0.5038800423607471 1.09525241327333 -0.183496820119718 0.23743634528291 0.06457519048668499 0.05062330882903409 -2.068046399619429 0.2124477730022411 0.009921445746645163 -0.9642725948102399 -0.6836865698945448 0.1405249318721924 0.216900114087871 0.2389906821542924 -0.5396159567786131 -0.06721936402918331 -0.02950770146572746 -0.4714461956453063 0.6334394613024706 0.3534287191270941 1.138121221345418 -0.1230187604739465 -0.1178141809782321 -1.890289143604891 0.1028743361741434 -0.4691112874153958 0.4418500262291506 0.2150720367187664 0.2241050384013826 1.202320424407522 0.6693425508222108 0.345848023041236 -0.5662966230211045 -0.4890342064774024 -0.1125387323386804 
0.01732589117378613 -2.242215147804598 1.260207803043756 -0.5892652912540846 -0.469604186366842 1.943521754507904 0.8172864899283698 -1.627513894240313 0.1803050682404552 -0.1618046642861627 0.3773840918492762 -0.4477707960729983 -0.2094502243212909 0.5013449872110854 0.8100012604352942 0.1655453177049302 0.6090191508256286 -0.3827101065435068 0.2142729282005276 1.381423342188155 -1.191287494304983 -0.01592413520959774 -0.4840641987712372 0.03951170578622211 -0.2136816768866341 0.046952223606484 -0.1589600669170626 -1.127791224528607 -0.4911813592411568 -0.6001434345764618 0.07467980242542617 0.8235535836110766 0.6760021335335971 0.6133072458218981 0.2083522744596512 -0.1369809858533191 0.08002346279874185 0.7788443322315208 -0.7299122900443338 0.0888407791470579 -0.2565221971463948 -1.043139381578667 0.8366586584883274 -1.340641690655281 0.313873315915312 0.1792548712337704 0.03510656375539135 -0.06116262385334404 0.690971271554198 -0.4536318092517213 -0.9799624757273875 -0.1039733856949446 1.836447917425518 0.04547604230684572 1.01022097981359 0.507495736354842 -0.9078915120092077 -0.5809469024107623 -0.7280225823639757 0.8209001749860642 -0.4134882376972562 0.3992947224069803 
-0.9133236441054378 -0.8110232880599708 -0.2374664164988268 0.5643352892578595 0.3491167876082544 0.1254691163844945 -0.0713754697331319 -0.2694991278620059 1.154024658286707 -0.9077208111851522 -0.1762111643043116 -0.5910407720514206 1.290925511574833 -0.3028386082438848 0.06674089719267688 -0.4242206811589426 -0.1498419466775131 0.7281667739011125 -0.6440738105453978 -1.096967017626373 0.4175480005348188 -0.2087177287836555 0.71233610969036 0.7699367225072851 -0.305089042103482 0.7080332981423174 0.07387379808512556 -0.5680684310170964 0.3347166505967148 0.618528755593739 -0.01970359640961819 -1.460090345425377 -1.058720274679264 0.6401145798018344 0.06544085233331645 0.6903894322059047 0.02545594643252444 0.3726539841706865 -0.3570900823728098 0.5859819187470537 0.899966589922653 -0.3921357430262986 0.1717410217627999 0.2938541021147758 0.04081696915813594 1.551537895045699 -0.04648945696096341 0.08784407297788908 -0.0996489241607144 -0.5786076934212645 -2.372244990567028 -0.239777071468266 0.2473617714726031 -0.3842059589868845 -0.145015461919839 -1.267234258774421 -1.372026378589988 -2.316338337534441 0.7200756721992745 0.3146057746321663 -0.3732311809137927 -0.3557480417470003 
0.154881319952872 -0.376525159168581 -0.03116997241619788 0.1047337928197963 0.6002479246081756 -0.9992430872174585 -0.06115397237667335 -0.2258668448992951 0.4295135902798404 0.3183293545488449 0.5273752281635239 0.5395738058820487 0.564153541394813 -0.8661683960466968 -0.2665690651677973 -0.5230038703826553 -0.4299805481158346 -0.1476555749346025 0.1666778503922992 -0.2109944405105719 1.026743102243664 0.7544271227831956 -0.7387287954904644 0.2815471940021966 -0.5762655773100197 1.313952580022003 0.02134183075158737 0.3195011261401288 0.4130858051352667 -0.02973454615370743 0.4776386126620772 -0.3668734024683403 -0.4686951738997091 0.948892188037318 0.1767621083125124 -0.2457453289971538 1.245584696623379 0.27577147068294 0.7837321529485354 -0.1530034615085737 0.2747136267422799 0.4423027301308554 0.04170741545290283 -0.3978978553915286 0.1183246777820957 -0.8012424774090254 0.006175455330883625 0.5855152777784797 0.2570532654956758 0.5068184250315836 0.8803515405976424 -0.3777274881408195 0.2914101529243225 -0.2486472958684343 -0.4592995087086347 -0.3193713603600414 -0.3053943269431221 0.9372101406986716 -0.3540311654357732 -0.7096472233321423 -0.2242825369171067 -0.4082891107214886 
-0.062565320155131 -0.8304126133856436 -0.4717205953301954 0.1421429627896155 0.7003644928014859 0.3416024412434914 -0.4696276015304359 -0.5717667422599705 0.1204809084755114 0.9857044394982685 -0.3021405346113828 -0.0141967608731724 -0.1448994327385314 -1.007007574494534 -0.643175498919779 0.2621307101304269 -0.5866972184740031 0.2434444200748193 -0.07972009808402968 -0.6299578215617432 0.3956527906644225 0.3924294037997043 0.2320239845097148 -0.7228138874280057 -0.2273430992649328 0.4091882459631019 -0.2846299448151811 -0.3702416570239647 -0.3939125731950812 -0.05478595285792724 -0.1998941465211603 0.06605128304699255 -0.1822772302571616 -0.03473186662274007 0.1047743972735532 0.06486355152108624 0.9781365163155553 0.3465783370997496 -0.2882009365273583 -1.335988740301355 -0.4464300366551131 0.02565317006805782 0.3265445699041116 -0.3126773300433583 0.03986151002336444 -0.1249181236127894 -0.6576341534370691 1.016601282008907 -1.028983613365671 0.443445120660701 0.6770477498528399 1.06898262222494 0.6077420009599254 -0.4561712723557158 0.6661590748388809 0.08556995500074221 0.07888363696792293 -0.08303554293071683 -0.6341181731086145 0.501566341861448 -1.148448682674355 -0.417203904150057 
0.5841109282394179 0.9328679356758337 -0.3362298177828298 -0.2966164128036736 -0.4317886151838125 -1.319315568716578 1.059370832346778 -0.8482801787212361 -1.44111893547904 0.3903675102927245 0.7446814192744252 -0.2033130663609859 0.2856711110271178 -0.07373456411507397 -0.02190122687355522 -0.4741240529118889 -0.1667592965033882 -0.05345282160025944 -0.09601788483294861 0.9773034754942646 -0.664741728761495 0.1499688126565959 0.1937226041662814 -0.2091066016590443 0.05351130300604866 -0.01307640494981374 -0.3944774941890723 1.313090586403221 -0.7086115329511797 -0.3483700523822645 -0.160817055098213 -0.424146121150004 0.07065263717070228 0.5665619460730658 -0.05651330996613628 -0.233388886888064 0.6455000724778965 0.7069585600140931 -0.7209732715776881 0.5697243130331584 0.3754003756000557 0.7870592654152476 -0.4082193565367353 -0.7731567598504839 -0.0801307694634979 -0.2629316820782976 1.201189175689489 -0.1629500493597178 -0.4672541803366694 0.7865439035276037 0.2249467384944077 0.3168620828601042 0.4617014420069673 -0.6197381091954238 -0.5383998110472767 -0.5252291200240977 -0.07767115335866 0.4759081041472147 0.6233356132865193 0.6940884225123225 -0.1539234611348623 -0.01091389176499276 
-0.4823502124977143 0.1600924716162936 -0.4871394675801814 0.0661213107011156 0.9863184459792862 -1.090021632760917 0.3945310317893672 1.698654802022108 0.8413721715855342 0.6392336608408389 -0.2563347447651858 0.6333615476268853 -2.534916441057019 -0.3887043932729813 0.3221524742141961 -0.1387290976002537 -0.1214261761630373 0.6145107814431042 0.8108305635041092 0.8812838274295768 -0.2388024103457874 0.5186538308666372 0.5889947223298732 0.1413972464429581 0.375768447852192 -0.6013289811565201 -0.2341263309776869 0.05063960037997732 0.4541761835032641 -0.0144255106698643 0.6104353685964446 -0.05644842241878435 -0.03155633604648493 0.4340608039088009 -0.3772038989803708 -1.08036904224721 0.7539178815370301 -0.238594613270049 -0.06026418211337665 -0.1288139559641593 -0.07701193311547487 1.354567334257267 0.02006585725196334 -0.9043044957438663 0.6707508722544753 -0.2243726877037092 0.2929627313959201 -1.715891083983623 1.034871384689613 -0.0476556881237401 -0.00784019177382912 -0.8941589857869245 2.001778866091727 -0.06049571959481419 -0.727850458060324 0.1164315848108576 -0.2346571322998281 0.3383497139146928 -0.111035023885177 1.048231756435949 1.401817790390839 0.5719424220101696 
-0.4296546951424369 0.8276802084061322 0.002428116794376728 0.7651800729282321 -0.0502698657328999 -0.05149737852291521 0.3810426892533839 -0.7571684380016127 -1.484841539461588 0.4105234667509565 -0.02721652351547314 -0.4536713446351583 -1.609013039271387 -0.8371659538168911 -0.6114775765745639 -0.1055465416856183 -0.2883890708187861 0.692971415601668 0.1435313117246826 -0.2528759301903848 -0.182314830413723 0.1053674075485468 -0.7829552332796104 0.6340129741158259 -0.04906316087463278 0.1008754780489785 -0.2882870364054477 -0.3019316142500961 0.09755537530221786 0.009410929563943583 -0.249607365323281 2.04678452841262 -0.3551868785995783 -0.06685629041320537 -1.037015804877731 -0.443318248833563 0.2859655233445262 0.18642707455685 0.1784836481801409 0.8284342013766769 -0.1743922636889368 0.7358602981532421 0.608890786282188 -0.3448005153514337 -0.2642245017362933 1.03210104410548 0.08948074687716308 0.0790152785163213 0.5815682849567804 -0.001603827342402392 -0.212455107737077 0.1636667878665477 0.6509164270298763 0.3115872799359971 0.2116064758496851 -0.4480074818225759 -0.175342307013165 0.1726022497217563 0.5229476462642797 -0.6347561068105071 -0.03965173916503035 0.0702290957712132 
0.4755966535654516 -0.1777645477810483 0.08345929028755547 -0.4231979646480038 0.4433870069436875 0.8508089181930295 -0.8518433202926735 -0.7792443948969574 0.4007019174718593 -0.3193638247415564 -1.708588482751517 -0.2861756353794224 0.06255320101134151 -0.265393585374083 0.1443175985103751 1.02020053061131 0.641672374652317 0.3990810928214962 -0.2432414192791545 -0.3999264079597281 -0.6345016516838923 -0.2189326416012154 -0.8461964125716922 0.9193117936320043 -1.084930681233941 -0.01194175670731947 -0.05977681427137414 0.4100658098621196 0.2714332439354293 0.7094038644548138 0.04213566233384349 0.05104664406274432 0.7517889843432574 -0.2406295352289378 0.301695501686727 -0.2647366339258211 -0.3418684264003403 0.208655129824691 -0.5055149593603431 0.1019075428435045 0.1420663888749497 0.3086589490471127 -0.04477018763269959 -0.9593669039837117 -0.05582267761031547 -0.08427612364625361 -0.4506723099937765 -0.195517840526542 -0.1617383335758328 0.4688088833852609 0.6566163201462242 -0.8355659489567893 0.03397791495606007 0.7397011649601781 -0.8879661926897037 -0.6042236930325974 0.1298390306780512 -0.06108271330237065 -0.3620426505423535 -0.1870668122713524 0.3668161286512849 0.2043261627758196 
-0.1270535280799363 -0.592054094877466 0.4116539401120202 0.7876202323648572 -0.3976384678937927 -1.112092474741266 0.8132543083468964 -0.4390227970447584 -1.767582187285443 0.07821578855890629 0.8458359466963367 -0.8141271297384046 -0.5573208116985207 -1.48629884941242 0.1887800750447747 1.058919318345514 0.4466762822281924 -0.2619360495917832 0.04151817456533573 2.258327302000058 -1.608049942531979 1.002020852287801 -0.971294494447589 -0.4219127588011249 -0.8216421543761573 0.1297832864726992 0.8538188839611689 -0.9418495998618602 -0.6781096797088264 -0.3416067654389393 -0.1176711694860956 0.2288877688498577 0.9419369857894837 0.3917869853151835 -0.8707464852020155 -1.056031862114455 0.33389141976302 0.6419639173238344 -1.134842567332399 -1.099602858520832 -0.416484484716673 -1.11925582138119 -0.9538924328648323 -0.4438047102796676 -0.5482980088184677 0.9532703020352762 -0.1769370615905734 -1.320820457068549 -0.1077883630903673 0.2353257748927134 0.8754372594481689 0.241142196498716 1.850568568126678 -0.3866922428210164 0.743778601167156 -0.4364114443301719 0.07444415897930784 0.7827161488557056 -0.5039483251882861 -0.3240671490589007 -0.1000878987399205 -0.2336694935460651 
-0.3765539221763025 -0.1415306354424302 -0.5104084435548665 1.438837105995248 1.113542836301996 0.1476335075870065 -0.7111459884658232 0.05455537511793662 0.1220576026401897 1.472671074246887 -0.1921546995889115 -0.1849895368947292 -0.8720552088987236 -0.9200758867810215 -1.067166232565816 0.4330875229581233 0.2495902163514287 0.7038350130831194 0.2605901460907651 -0.09191131685586761 0.8980403905881122 0.8453797792398932 -0.7150320049611952 0.3929699831680268 0.06100570554489483 0.4373846998992151 -0.5164042914781579 -0.200426813721518 1.086375206088956 -0.3238035641509205 -0.9155942454005505 0.4592164327589269 1.023001857714296 -1.005740339914402 0.1564270379985934 1.142803527218717 -0.1177764076491906 0.2569700432747045 0.3408206098170011 -0.06973572977632383 -0.131021225677368 0.2570283783734559 -0.5881199928001833 -0.10376784496019 0.3990828779564486 0.08223906172331782 0.7236329138563772 1.360954790116565 -0.8667175293485418 -0.2564472540766624 0.3895272193836564 -0.1239761257693518 0.6147730758437621 -0.4041821514328029 0.5732491401427342 0.6014388258883233 -0.2172233418920096 -0.3201867874622145 -0.5111319192950968 -0.593477150642427 0.1221224240924131 -0.2653843197152164 
0.03307658140829491 0.6619618236416878 -0.9064344490753017 -0.8908320510271123 -0.5510702005149462 -0.2635518578452672 -1.224430333263088 0.2998074614742714 -1.166064327202519 -1.299209981555201 0.4172575957736327 -0.06002999899965985 1.136156839627145 0.5149593310874874 -0.4066316416611934 -1.22207486083792 -0.8647501011687579 0.3373296253698052 -0.4878668959386572 -0.5323742657095419 0.318074949507283 -0.3577051851693241 -0.01058404773843301 0.05760844065643901 -0.0335104531651887 -0.1126253213894068 0.7713516093570302 -0.2993100403279575 -0.8054026829106802 0.01166328501631049 -0.1568753508225262 0.8557389722504327 -1.164327450170965 0.2441506647058875 -0.2249900867972935 0.5841464446143594 -0.2077677541010389 -0.1131535631244613 -0.00898980328279626 0.9454862029938942 0.1527079173744993 -0.117524246495872 -1.106321240161695 -0.06067239189931307 0.4674406633629684 0.5137340481546712 -0.6047738524191164 0.5329000154532985 -1.914309549053885 -0.4176313046507774 0.3775997386703971 -0.3225489228596237 -0.1864589853758414 -0.1233788283339525 0.9238883760287764 -0.150896879198973 -0.5211470600329061 -0.448659554261666 0.3606141369211306 0.2311189125258674 -1.101189604755475 0.3166437927181145 
-0.2774403008236687 -0.6805906128028891 0.8602951659548574 -1.226497806399393 -0.6630971926188802 -0.9588794445953923 0.152552104637798 0.4127754918353871 -0.3011642468980689 -1.333164904508127 -0.5540296975056881 0.1018870500223595 0.3445671347762312 -0.6224633182372148 0.7710686840701488 -0.06986522099555788 0.0433618132325993 -0.8367400494075053 -0.08011554474491728 1.49397626909959 1.12975986545193 -1.511457337953643 -0.71392698430391 -1.530613362555688 -0.1852196940115144 0.0783011567310522 0.2754993254254766 -0.7996055280447113 -0.73633516210408 0.9892913152735194 1.163653357745999 -1.226431808471881 -0.9144150438005343 0.09285683726923755 0.3876884562369821 -0.7866116974204945 -0.05482126362338415 -0.06103342037953964 0.261383769215694 -0.4560614679285602 0.2541126489238501 0.3686251818517104 -0.8226208303253413 0.1782642121133456 0.06273106554560447 -0.01948373509780571 -0.5821216237336879 -0.2893173731989798 -0.04358738377993673 1.076912575859125 -1.156706315105184 0.03590193761728733 0.222428662615343 0.9732638513525019 0.6279610158424046 -0.1553163941965405 -0.7223891922947954 -0.3020795588586058 1.013016822585839 -0.5440188092759504 1.842110944457257 -0.3051539817924491 
0.08700983118479212 -0.1678812122692798 -0.04204295048604055 -0.6284814728088137 0.2114825810403392 -0.1448343309503724 -0.4471108952776536 0.5890574571660266 -0.2916327058537024 0.04320697306833808 0.7272168419567092 0.1988270030512325 0.1239457285575125 0.8764124159328492 -0.3891779597878714 -0.5550319240821584 -0.0362077262617185 -0.9454100583512747 -0.007910907218612364 0.2119552617073688 0.05219134401135296 0.2555970006706488 0.04827856156224129 0.720519909365202 -0.5693982420856902 0.4046334397058822 1.114804653310538 1.726539882916648 0.6205491501670641 0.005574491173186406 -0.6028489990420056 0.6035662566361518 0.4152523565312438 0.6263882632395523 0.4016922123776224 0.2397008581320924 0.1291157086165087 -0.09312536350125659 1.302205093983442 0.8684595274108189 -0.3186984001609814 1.672637706183441 0.2891698153924732 0.78390815155723 -0.05905078394713906 -0.2198953166937109 -0.1883705352553443 -0.1150585091701087 -0.7987304931722252 -0.6649916092829751 -0.9134179887356036 0.6916654062099753 -1.400950775491492 0.1598878416601424 -0.2473041852588021 0.2339614033289751 -0.3599782442602683 1.112966111661866 0.5741347333922353 0.2732601118856849 0.9755543453160375 0.1168840051749404 
0.4001394036481357 -1.039707141228573 -0.674536215707975 -0.06134954591568579 0.5718928227095155 0.08500988492219887 1.706538796706483 0.1805740309383872 -0.1245099101817662 0.8843636628711405 0.5504021281359442 0.3605721289913191 -1.270861239158584 0.8901508384584156 -0.1248924270051236 1.194633630745314 0.06655177864221971 -0.1369076331459699 -0.496837723367064 0.6124711842309067 0.3862812313876367 -0.5965171822917086 0.824277693094196 -0.5411087084798433 -0.349835298615834 0.4206148555119586 0.6071041515164335 -1.458124290124511 0.3670078697982756 1.391407075354141 0.5983710851610312 -0.6848755040547047 0.2183080237481729 -0.106047276144 -0.3469256367727224 0.01078346819929949 -0.7377913226777644 0.2696452385391765 0.214493900613572 0.9007054603053148 0.008711438380393103 1.34232949497469 -0.9119469216132519 -0.3165682859813072 0.3390965717764381 0.4085584756762477 -0.7304612797862114 -0.7435741035830454 -0.2943797420100771 -0.1309766734366696 -0.1714961408976427 -0.2484328248902247 -0.7966863698931184 0.7059805854615165 0.2741481012454584 1.288074932429643 -0.1799921259691177 -0.5168764235702719 -0.9725577863494216 -0.3510495795025363 -0.0007570722876134418 -0.5896145529562671 
-0.5266225432927035 0.2244796697568422 -0.3693755691254884 0.8619484872676879 -0.5440589471518652 0.0209453717367194 0.6336876568582313 -1.043530709428832 -0.4465121193109053 0.1924869955895053 0.1670468978101785 1.431672564910372 0.7883894239659587 -0.6988251940762948 -0.4465757217974035 -0.9912207369124104 -0.170948037560487 0.1959475122533885 -0.4112883500910817 -0.3229653924166058 0.08991928005009184 -0.371159235862696 1.284476570662373 -0.1871987092299614 -0.5819635247069931 -0.7096827071032989 -0.09523829934733814 -0.1070685046552204 -0.810499180275964 0.01285342018031009 1.067373671726088 -0.06647216229940632 0.6342273897873305 -0.4435853774476606 0.4843133227013608 -0.5035165054441295 -1.366846366203557 -0.4648542785958829 1.847781503016328 -1.792598780582477 0.3130429617278889 -0.9566398215237779 -0.6215903962885846 0.6898042187556944 -0.8692756791095713 -0.9931676184815968 0.02990284540814829 0.6502808487947216 0.07568513755931087 -0.7343367137302526 0.1967874748018487 0.7201253048241663 0.06843488835254329 0.2492276838409301 -0.6632625058722483 0.08458153968274312 -0.02322846522082798 -0.6828478460396822 0.6559299089634256 -1.133355699289803 -0.3655215702063297 0.5053676746337695 
0.2157898785728213 -0.6328706802818682 -0.2438876390598818 -0.2864328550470169 -0.1173189576127471 -0.8215309437432199 -0.203328420296525 0.721551752442057 -0.08838404991643611 0.09153003459361155 0.6294898040985885 -0.06787853028488372 0.4926839586634251 0.2674286325087111 -0.1160635812685849 0.3462130621314076 -0.09660315309989323 0.4502427007402491 -0.1189722917941518 -0.1934964775802425 0.8112778225076096 0.2680944656127202 -0.2990172320333059 0.1690282429862691 0.145199929453516 0.4719427357212853 -0.2266359336440845 -0.3249364001394257 0.2998924767527561 0.01563749064713861 0.357070396570599 -0.581993743761881 0.04966134512500099 1.268475260000058 0.1399826286058417 0.4699262578855142 -0.9104606318866046 -0.63200354547988 -0.3176747589765833 0.6911326857830697 -0.1884401102461138 0.8082161433187258 -0.2087177622170992 -0.4188121558870105 -0.2273921672482877 -0.4569530317460857 -0.7016597680003518 -0.3271980490276905 0.8712662826978624 -0.3327297312398128 -0.4029902209191198 0.1189164303781813 1.352755555108812 0.3331861292038478 0.2048768458118808 -0.02427845763361667 -1.112063018209657 -0.9884882665649127 0.4727667071985487 -0.2042462602737041 0.4731269531596275 -0.1031783305999153 
0.6737371091567251 -0.5635709675076934 0.4963792320170938 -0.427691278279979 -0.4401224502599838 -0.7725866962642043 -0.01392313505333202 -0.8170198289820944 0.3035616579709818 -0.6375822832002432 -0.3869885663045303 0.1267034736202552 -0.8768836336801563 0.8177601801133909 -0.04726184472237805 -0.101832202970886 0.495974180846624 0.2451997685866626 0.8446688794954957 0.6830251929985666 -0.5544266048455713 -0.690329948155213 0.4130875374811876 -0.02620505617794625 0.5343738340112584 -0.0487194024691828 -0.9138237875462585 -0.2473444825497237 0.2867838291249047 -0.1776437715009364 0.3257056465962511 -0.7139736831818744 0.4891097274699262 -0.6883875219454975 -1.226825261262814 0.1962859832298422 -0.4368834122334791 0.4244730912816279 -0.4360559550127672 0.4479676082576417 -0.2716107234618031 0.9877147668023307 -0.02791589959088802 0.1593210420058085 -0.5855771469672448 0.1684510926171462 0.7097709071258009 1.148482084238057 -1.292085873111467 0.4371997583707127 0.2521485710616168 0.1422408056785218 0.2102808486210762 -0.6340943287122174 -1.453639804726055 -0.4692057197737461 -1.685493930028309 0.05943368271544761 0.4348983224710176 1.577607506278601 1.117394001908459 0.09098533639328452 
-0.3687023501543661 -0.8495070251375402 0.4676010000523394 0.2833396250289274 -0.2667009617307274 0.08036951323534577 1.060743165855771 -0.3083991623447108 0.8361417892433965 -0.7049568781599783 -0.4919517823663767 0.3537484665729174 0.3965042193768349 -1.211772148175001 1.329570440898651 0.8799808622391961 0.3846405029011398 0.01249495149792615 -0.129952695897241 -0.5337741933884296 -0.8730674625089574 -0.3162808054600256 0.9338861801759386 -0.3410652894070813 -0.6131332064015849 -0.3171815707792194 0.2779831783660749 -0.07836946205453528 0.6540903047765386 0.2437820974397666 -0.1302018163248738 0.9140378941307719 0.08029437040883254 0.732311667754039 0.09638553598925743 -0.4817407497652519 0.524033335651678 -0.2000714397869556 0.4812899148296273 -0.3935019294030903 -1.558351640361536 0.5428730063396755 0.2875473829630161 0.4911129562140664 0.05871672456585867 0.02842368238329808 0.3479905924851839 0.06144779279718079 -0.9305277744214306 0.5630482883450734 -0.2019383972998419 -0.5446044354632721 0.7411521651352621 -0.3856210274358354 -1.168787099393616 0.1760843434718596 -0.7558909130748861 -1.168809020515975 -0.6864981697015967 -0.7304503792368254 -1.033107306599646 -0.06268221011728606 
0.303651389821324 0.02672398017021326 -0.6301403500348608 0.1258410105461949 -0.2899099763054425 -0.2234972929487975 0.2093827276190163 -1.158195764519096 -0.1806394264468719 -0.3777472873403404 -0.6740858926728467 -0.7094554545845652 0.2469932330870099 0.3220291746713418 0.4442957287212224 0.01888311446912686 -0.2376041203189407 -0.4930968144657003 -0.07599292079354399 -0.1092145248077653 -0.1800207611646492 0.09546197826645002 0.1908468994287423 -0.3130437854917487 0.2622325130783535 -0.1070808291761537 0.4452078102674063 -0.9037115097569367 -0.871310805831763 0.2609665950035148 0.068291410655155 0.7628412642101632 0.1495337035978561 -0.1943067897683036 -0.8263002135786605 -0.4502993232122335 -0.6188931263184383 -0.0843987574303343 0.5128693469435647 -0.07494798972938568 -0.02673905067922729 -0.008287726139787135 0.3171623593178512 -0.0219155898700701 0.01738753597354678 0.6093672486276686 -0.02205981016828867 -0.5096977504274718 -0.3009423557453356 0.1194998006406827 0.9580469407669694 0.324050884090973 0.06951697662790859 0.2949413586957269 -0.5119293407424678 1.018446556277756 -1.05998203756523 -0.5586932215301942 -1.122028356856491 -0.2891167237091181 0.1967063718598398 0.4729416205792695 
0.3087181320735551 0.2563884534067628 -0.7044325958920099 -0.07274188352641058 0.3546149543871271 -0.9029507152248829 -0.7998507021481505 0.6577700839790703 0.3635738782301401 -0.4945728933931555 0.8499094240903589 0.3300906256393091 -0.4812469285653393 -0.5341573880625897 -0.2101775701635424 0.6962057994372218 -1.315374541307392 0.3949783880098194 0.1340983841957139 -0.452310886809887 -0.3977197480808084 -0.7600840986813791 -0.9719466278108462 -0.04720547170899186 -1.226297495892035 -0.9871811164814063 -0.4125164101887943 0.6647155486843689 1.094192003482463 -0.180034188322106 0.8020298289286849 -1.109853088474068 -0.1677476343440483 0.5738857180787115 1.934388700288873 0.4135965025117689 -0.04265835106328534 -0.01981205198936574 -0.4581861616183721 -0.1698733638545515 -0.2047565751151261 -0.5995645592258478 1.293587235878264 -0.9863975321186329 0.3457618584139993 -0.9851388768405822 -0.3201965031316296 0.1896417691683776 0.04164611455728662 -1.326501912114409 -2.064511931554537 0.06247972121574653 -0.1372451832370295 1.18902091920098 -0.8061599347484372 -0.5337800029264594 -0.8066351773126944 0.8609754052011904 0.05316622130042719 2.35873090923504 0.5877173858896587 0.3090918693561188 
0.5333928377427583 -0.250923632289191 1.113199521592616 0.5034597623654304 0.1864035395102561 0.3523090731012602 -0.2042793805435885 0.05283916557931542 0.6352290998862301 -0.926762439145443 -0.1742410815441628 0.527761869037386 -1.508225529444157 -0.02881593868673014 0.1320768653010754 -0.5925363847291844 0.3492586990375366 0.691243346303378 -0.120254798046223 -0.1382043411734251 -0.6320415730436808 -0.4662561725469416 0.5399060485761153 0.3231324893959164 1.116101068960749 -0.07577079791724588 -0.1292430130953948 0.3701003773870349 -0.357560881115274 0.723862077184198 -0.2612874053671853 1.345225644716929 -0.3199209870831948 -1.179927306150635 -1.18113866489729 0.6712016986100625 -0.5623430205747235 0.295516745401474 -0.3258092632189288 -0.3214601125837639 -0.5155752363273056 -0.3161811974110976 -0.8749548814415855 -0.008967637940444228 0.389088402216408 0.2686251310287898 -0.3768386950801315 0.02531429105085763 0.3522830034260566 0.3411462861266968 0.4450089319851867 1.53363427631422 1.798546113300406 -0.6449716560661026 0.470202072158183 -1.56261716663597 -0.2589568935880694 -0.2747324828987474 -0.1199878299617631 -0.1122828850760477 -0.07872912121023258 0.1070905137694303 
-0.0157582499554936 1.523864151476733 0.7494556522235793 0.1593499270123252 0.2879975805119305 0.4198317308393433 1.198238027849835 -0.1245110516897701 0.4306874532333129 1.386100216097915 0.4493118786342464 0.6578815991213662 0.6244821202676237 -0.03997160829445075 0.03482518338992799 -0.699325477531539 -0.1417751038758369 0.4588846514630132 0.6733012417142192 -1.670687344323443 -0.2922132895547195 -0.6317787867090067 0.7310284927089733 -0.1004793256567477 -0.2525313755400744 -0.2599123506964811 -0.4494373410223658 -0.2714191529629013 -0.2059694446792449 -0.682452554026993 0.05419919669990048 0.1023393564997306 -0.9928259515259448 -0.0776413201666728 -0.08114951973682151 -0.9437633777520037 -1.642739737391301 0.3117292729369068 -0.1791006507549452 0.267908009526858 0.04382224099694001 -0.8612169530701178 0.09136920959840911 0.2357724471728585 -1.38942676787855 -0.2951649402947657 0.01318284737481807 0.2998553775831486 -0.6726460654176716 0.2369962620160767 1.799158412001305 0.2079463770150423 0.328777437578826 -0.8116700821896818 -0.3029183873249714 -0.5205395166405918 -0.376538807521654 -0.3940961125146718 0.7073128937977979 -0.7856310161471601 -0.1659134762210829 0.9022082636401179 
-0.1757528201906129 0.3728349039049519 -0.1388157445860478 0.3921980917792917 -0.5353200815191372 -0.3688947195594907 -1.261066266323072 0.2018832528039102 1.377187601912131 -0.03351540989177525 1.809073648301143 0.1208267158898652 -0.4764367320544297 0.6831142169916629 -1.007559559751032 -0.09558360680111155 0.6215258665990513 0.6937177670609868 -0.08917479326654021 -1.266837343603457 1.453615825341566 0.6754306719744231 -0.09216008388201831 0.6072485206281202 1.026442181921432 -0.9208980230423961 -0.7734381081944229 -0.7922273444868805 1.048950277263237 -0.5814181217192685 -0.4074175450195981 0.7884211000561796 -0.8713998190017026 -0.3851898701918564 -0.5424085185088062 1.414399616911636 -0.9147997610577868 -0.05798763100579949 0.0006136214027093751 0.4091382093262272 -0.4203648906799258 0.8731042993151422 -0.07217015493282281 -0.3693542936348849 -0.2423969723026723 0.0708278386833289 -0.5375110069489539 0.5363004851946273 0.7852252959418516 0.9786637704842318 0.7186545346044998 0.007108488514177113 -0.7924467454186261 -0.1491912490380359 0.8343208045437551 0.3913405981226966 0.9698850112440341 0.6066209411320497 0.5816125986847948 0.6469544397680299 -2.179961395962728 0.8739063747871767 
-0.3324077318212016 0.3192655615850455 -1.478510866161744 0.1817720925106674 -0.4882545683571929 -0.6315354782935969 -0.99868470868052 -0.9730707375613041 -0.9974594690459422 0.3848998316120413 0.4039034302518641 -0.2561983777803433 1.327689457111612 -0.1871854265448112 -0.9465349025638421 -0.2765803896403105 -0.01479695678517103 -0.03737440383212246 -0.3717766730218123 0.8249315971279537 0.07792261172770633 0.2046036941561532 -1.362444858417572 -0.3852363458431182 -0.05864405255987695 -0.7925934490311134 -0.4733924518432919 0.3970143595845802 0.3876079725291713 -0.2622267910493676 -0.2817106405259717 0.5791301443064208 0.02590782269592007 -0.6811068053573647 1.020742255509342 -0.2318222505976149 1.544011886279307 0.2832079819924773 0.9977503912464368 -1.668664455928416 -0.3379865867063184 0.1882743360283844 0.2641137659138608 -0.4768548083583715 0.4731875329051364 -0.86251832964138 -1.135119906161285 0.5400128492323291 -0.1412205254659683 0.7871204295444696 0.1085682050530545 0.8177929106711235 0.4211936112802168 0.3087550178175166 0.747227822052203 -0.2975531933643807 -0.7041444971693043 0.03980246119796475 1.190752273440815 -0.3165170055784076 0.3816293813816053 -0.2576916047241855 
0.5349194256733595 0.7158946743781428 2.17724449420346 0.4176031095565297 0.5985503325410761 1.458080552742135 0.114873332605752 -0.751017973429479 0.4045163144932072 0.3358809173370962 0.8865768669012617 -0.4390706663296634 0.2243737295651405 0.2900856951378986 1.244557870559188 0.691055739504668 0.2544199502513841 0.2011252775708447 0.07553845109582051 -0.6196989487584322 -0.2900291062900294 -1.224969104963676 0.4928672130556302 -0.8776535543778194 -0.02520318899312061 0.1895232527796558 -0.1334824154115364 0.2517871168609698 0.4418364288284302 0.2418384635869467 0.225704407263857 -0.1761722962275972 0.2499079138498023 -0.5389198432682866 -0.02744510575533342 -0.4491164077439121 -0.5881170284829875 -0.3517888429365584 0.761578238099289 0.3241531047295856 0.5235962874499328 0.2969703050914632 -0.3522925038842016 0.8740148419996736 0.9566005880658301 -0.1888270873800499 -0.4820526418114159 0.4730065184739489 0.657999153733474 0.2169554680093795 -0.4103682005146779 0.5987129354486214 -0.3085314282569659 -0.6017258619063218 -0.4868976475088851 -0.3895449803962953 -1.179464541075318 1.005846496840544 -0.1459569163085137 1.44187977658776 0.3674417270865035 -0.1520418681750335 
0.3606021555309024 -0.3210608411177675 -0.2105854354815518 -0.2684830217647611 0.2654050893965073 -0.4928353449923245 0.2359346405950131 -0.3160708872411837 -0.3281272928119005 -0.3048200238436994 -0.3986929518212772 -0.03893123030862368 0.04028818509996556 -0.008288968450639264 0.4571141694565992 0.2023547413831251 -0.10086234141741 -0.02526255608429563 0.2973699235088372 -0.07982834731544182 0.02694416330294269 -0.2647661116196737 -1.2996598905768 -0.7044996227472085 0.3090431474967605 0.3774609508866771 0.6455424184662503 0.3920791852308226 -0.1650805397460559 -0.9998386518128599 -0.509051654850506 0.3158451423519519 0.5057164081747914 0.5697759034268663 -0.5331240097159451 0.04781065832076569 0.493415745388551 -0.03791251553862489 0.6533443549428902 -0.6127150420041472 0.009049742016044065 0.08512218043870819 0.6180192016473925 -0.8628137535028619 -0.601051508816964 -0.2880739742783542 0.607944773697198 0.5493940136437639 -0.05861372403283256 -0.2307931815935561 0.1816351956509332 -0.7512384256497051 0.2352001058557571 -0.5738844820272067 -0.6767029378523735 0.2629542105195488 0.7619555543585678 1.249786020289648 0.2425769931515318 -0.1270749739692713 -0.4421259306212394 -0.5864395631196692 
0.3590422360646233 0.1047401552691765 0.8434045568002998 0.5511016112397513 -0.05608219792443166 0.1892614039166248 -0.8993098664175276 0.09245023532156613 -0.633839116200155 -0.7046875227132124 0.2354498875210773 0.07123484218038613 0.4275593005222379 -0.1640255555629241 -0.5750061338739925 1.585082729857311 -0.09531245406765321 -0.9584548877017216 -0.3380637052688327 -0.7074237190857893 0.2128700332734011 1.13993958483683 -0.2857285582107148 0.4169685962723963 -0.8906596170288242 -0.1991916078141789 0.4477203322141749 -0.9017434090691884 0.8611779908065642 -0.4949039452346486 0.3351267778648764 0.1353334742571327 0.3837782130022996 0.1155191911374856 -0.1884676503775819 0.2674053281437779 -1.23644072145948 0.5242520444182517 -0.4181088276967869 0.1569404306755726 0.06880720877097223 0.4341580062907504 0.3116992000026566 0.02704943249760367 -0.3398946337904187 -0.1935711941622364 -0.3376087331154415 -0.2291268936070103 0.9532219891856144 0.5097754512806831 -0.8367474215146278 0.7429392583317324 -0.2259970307436412 0.4779052409742593 0.382389795937171 -0.2546159406042012 0.946284685952073 1.20086234269819 1.297640820911271 -0.1432692390725046 0.3356382075412803 -0.5751536403316359 
-1.066951381136317 -1.49544553665538 -0.7769354500180021 0.889345818337641 -0.760096901575775 -0.2839806255671319 0.1696163641978223 -1.180029335256024 -0.9138016851932764 -0.7017499742621263 0.2821501095557737 -0.808781739166883 -0.9352435266155578 -0.4463615368065761 -0.6324388458885095 0.5708407480376901 0.3148193289378401 -0.1531135895559578 -0.1958552734444222 -0.05900872965122 0.3784651632980133 -0.2207698915550976 0.05325819300625285 0.4365909922382527 0.2679863300108966 0.2556710724626148 -1.236499793762375 0.1290587640412951 0.05847128120942249 -0.5683684060972847 -0.5808801790524474 0.4385233828403883 -0.8239546444883278 -0.3525768690426336 0.4729460714773573 -0.3098435943124336 -0.7768076701933805 -0.4131448768024689 -0.02452013676594782 0.186767979341142 -0.565242387749527 -0.610047953728948 -0.7162376501540404 -1.258177464731212 -0.1435733977096151 1.57440190973291 -1.883748608550566 -1.482128840026709 -0.4290691185763943 0.6586578564633977 -1.671536267745506 -0.6024985557763315 -0.6832412043876926 -0.2540642206066271 -1.248678441439263 0.005891351992222558 -0.2977845669733954 -0.04914013599205026 -0.08607102972449997 -0.1744985309017859 -0.6779914452302436 -0.5040130217798201 
-0.009898168976081739 -1.205993330743139 0.2144777876032878 0.3693401716150858 0.04236137122145776 -0.6032203994053855 0.2893664332137357 0.009069591486578783 0.1347928944556819 0.6177848570536409 -0.4560039406374399 0.2719015028473088 0.4967335934556003 0.8534108699897248 0.7302034228593237 1.254019130169809 -0.8487531980266432 0.09195267357982889 -0.1779165115637302 -0.3616076923921852 -0.160835110523712 -0.7192496132403606 1.038276658337058 -0.6530874724727229 0.126906968317657 0.5100987666555231 -0.5148881471362057 0.5139210877025839 -0.8462256128174654 -0.323887478283736 0.02546723040014206 0.858704366997143 -0.2943687892122107 -1.597045918463927 0.538722866465684 -0.9510324576843451 0.2016344764322437 0.2510773410900363 0.1329456339787797 0.8940787630621241 -0.3281139140406882 0.8192467971732647 0.2219315742317565 0.9009186947442208 -0.3737222939860852 0.5166796459879845 -1.001622851986892 -0.3931632643001353 -0.3293494890768094 -0.4364469857079755 -0.8089444909828194 -0.7549689843960541 -0.5601141715280673 -0.4433326168130722 0.9502169214841033 -0.7164403915894201 -0.2106585189964185 -0.7736124573993496 0.05351152139732627 -1.334283944919169 -0.3695901665649476 -0.1405004622672874 
0.2894342265799931 -0.4309413486845703 0.3954254586020358 0.4037778971238306 0.2237390420682845 -1.314415377273815 0.9993226299361718 -0.312575167685273 -0.3306749632620857 0.1932661021705183 -0.132250954388902 1.170681023704002 -0.5471935213925078 0.3158143076746639 0.4972166831464467 0.4195462819314303 0.7907278507275632 0.5872498477696595 -0.001098556475930653 0.8552429141581365 0.2707851431251161 -0.6083383782533691 -0.003324835106895972 -0.06957791686690608 -0.1967053883495073 0.5537295155996544 1.010215142372194 -0.3525958414114193 0.3697241354134377 0.2397451480250201 -0.468945753736721 0.8886510676202528 1.535086394533909 0.7665227438040263 0.8784179167245817 0.4212449552877272 -0.6217943965521516 -0.01212309559297099 -0.9551442848053856 -0.1926738379764423 1.231646786279488 0.4100476492969981 0.7886082537848129 0.03698403991559785 0.7078230788458888 -0.1618577533797214 -0.3319771986367582 -0.5751432247164391 1.040021644730754 0.4090724128483605 -0.06229524328038921 -0.4551909359995746 0.6399499395971661 0.4160603605228108 -0.3174150355356269 0.3126458583100444 -1.336413760327045 1.910883964078177 -0.5208769525233056 0.3600817466197804 0.853332213320403 0.1559080726502815 
0.01706181537664356 0.2216572723545419 0.638118016061321 0.1777804397614868 -0.6867513942212992 -0.4083602515880884 -0.3842445589272435 0.1243110007367204 1.095982667533477 0.5664541839349058 0.7143123087852934 0.3638348473247364 -0.07274362840646324 -0.07313796441173424 0.08802487763691724 1.577956096253163 -0.3431383927237223 -0.05486746625840004 -0.1845956088773008 1.082111635986365 -0.4495566295053557 0.3659898418638032 0.09620310577762087 0.8386823672296634 -1.398531087169654 -0.2558150962544322 -0.2538574347316302 -0.4493137786120796 -0.2451957466897886 -1.285669533067026 -0.3200004269588256 -0.6133395196793147 -0.7591215553528122 0.4922957192038316 0.8347148504559369 0.1416064179810321 0.1145516561304113 0.2451419342853904 0.0834569726802321 0.3571434513437424 0.2538143263338592 -0.2975517603591767 0.1607384332259212 -0.498691344552908 -0.4677802688437203 0.03887181392719224 -0.287989789954636 0.02142090982060161 -0.1784365744605184 -0.2390153072209879 -0.3599077328205258 -0.2080068812176858 -0.09111231535277656 1.100448866580541 0.2321165305458091 -0.9372067732047784 1.291065551190472 0.1511115861820039 0.1211164098537872 0.3739901531460153 1.631233525668021 0.2219281540686387 
0.2122385754247571 0.2194284146168845 0.07249982184316116 0.3922869390514832 -0.4340207148818213 0.1250145835919399 0.1166814708860335 -1.623781982488492 -0.8740476282659281 -0.4389426316770179 0.9785286297824815 -0.3956966125587176 0.9930147751751105 0.872041674308542 -0.1950828826902948 -0.09137626868936904 0.1428601364184263 0.127823311734327 -0.4435781649932981 -0.1237898268652599 -1.19903273404639 -0.7374960704113945 -0.01180447645252714 -0.5731126722073867 0.3935415520978457 -0.4948968658109726 0.0609593184207725 -0.3300367075986926 0.6513480404423868 0.3713498387731592 -0.2790393584854381 0.7319137920907552 -0.7892044334084338 -0.5608764112930642 -0.9756472936533389 -0.7405640127043235 1.046262126589114 0.4130819070222587 0.7574604630425402 -0.4363561926911506 0.3372906209319957 -0.412559624789025 0.1756648219190485 -0.2303798533688125 1.468992143762451 0.8391090039128202 0.8841288595091455 0.3837290157297735 -0.3037229519634599 0.2639287509849554 0.568581030071034 0.6782889773135498 -0.09076609292092426 0.1791420550561487 -0.03416501811181248 0.1024548494337169 1.000437303939566 0.3489437962395019 1.788352058866924 -2.422177081261109 -0.3959289647833746 0.7027576684387185 
-0.1546842657682794 1.216338974978425 -0.3677532784846821 0.3856423973569988 -0.7718069483557261 0.5868856782957539 -0.3245106326081476 -0.2119337847713232 0.06974131500967674 -0.2218457480306786 -0.9174473031086825 0.1906898823490157 0.7473735709454733 0.2499030747987766 0.409084990650523 -0.542161750671633 -0.525419913609562 0.4585144354036248 -0.1100520239783128 -0.3855333885971902 0.08145607753262567 0.2749065131027241 0.4177134875209406 -0.7187182714049127 -0.01971478317146883 0.03942938775186747 -0.4543621392452441 -1.116970555531968 -0.5662783649026183 0.1640066092814756 0.2252063234353603 -0.3288094774031631 0.1605003602621832 0.09349418302495124 -1.490504892536793 -0.05800847796345666 1.059265623782197 -0.5192688254875136 0.1638852892378884 0.3885020384222252 0.1082349118058116 -0.2906779485497478 0.1205039115223468 -0.5060788887683806 0.1062561520793595 0.873472960634823 -0.5273956432829402 0.5065648045758799 -1.392756755058586 0.02329910268243507 0.8688881595402964 -0.1211465460442063 0.3031021404818626 -0.3790191901476676 0.8759756528146666 1.591473631729811 -0.03062709590151602 -0.6774668839588227 0.8199811174950751 -0.8718998118708233 -0.5675888381170745 -0.2956120915556859 
-0.112330638257981 -0.5136662921442531 0.52900353902606 0.1751648386988093 -0.8074564182125745 -0.2654617941331111 -0.4584735201066746 0.3230693770775862 -1.047355503823385 -0.1217382560917885 -0.06899790806528405 0.517982669247084 0.9297418002260258 0.6039700538617687 0.1519195625846773 0.3576718866730795 -0.1552365940759657 -0.4230616893198712 0.02042195179663638 -0.3933473432727745 -0.9966522001572404 -0.5202943711891469 -0.2481293759631643 -0.3281416483375811 -0.4254547363513836 0.3284948688367117 -0.2328549430451518 -0.41422967615836 0.3365813789380218 -0.06437558198677837 -0.4427634408107164 -0.1714455873402088 0.3234429501011908 -0.4388792485490395 0.3475077082785848 0.0997965860701233 1.109127083953731 -0.1821762704654541 -1.274348975919304 1.379185900445273 0.4710569144892697 -0.6401728521590249 -0.5044607128992328 0.1740146148044818 -0.2442101725754074 -0.5066782977044552 0.1410791175136109 -0.6648342758926775 -0.1665874891037708 0.7365746943951303 -1.190802714945801 -0.4081637640965002 0.7557971499970797 -0.5551820071947353 -0.6567417942681907 0.3303027909578175 0.1891593647813358 -0.9502898068081215 -0.7365062055726586 -0.03943469270692284 -0.215759808182188 0.1572522286467519 
0.5607581569891598 0.338471497964838 -0.5403111920945731 -1.088006757743911 0.04782313980909773 -0.242677484623175 0.8085722526070837 -0.4630642001251633 1.980472535809667 0.1033289791323535 0.01323361000713583 0.1647160999643834 0.9911526969650684 0.04202550411033966 0.09208906734445009 -0.6135401648417941 0.2466662110528211 -0.7944689596782445 -0.01131450241593844 0.6971172086322801 0.2157112544856656 -1.417604024496365 0.6702596361692373 -0.06918465430228422 1.230620793041704 0.3365780970389328 0.283225986555761 0.03881102579763252 0.1221087911086576 -0.1677916254564739 1.048318688174644 -0.4997360317401578 -1.468450821644291 -1.155053715692826 -0.16617991710605 0.5222723427913267 -0.3759151425241403 0.2267849143970113 -0.8372122451386672 -0.4522057738691875 -0.7088684759388015 0.5602326620813471 -0.2468480625495361 0.0883694981229679 0.07827199601648363 0.1763890816459935 1.171937341274216 0.9414720591754467 -0.3980052469723948 0.187711922147926 -0.5667622991043195 0.4740829372489004 0.4627929194849258 -0.2121700802314473 -0.8358653092233779 1.391194288380026 -0.6387451216493516 -1.280540652915853 -0.8955168481190905 2.160912125627581 0.02558550312146953 -0.3860739668119785 
0.4411460193334006 0.564510657363853 0.3649659245784214 -0.356590187236597 0.3720064723847969 1.743395718141017 0.2458755822667973 0.5197443600828896 -0.2668428654295893 0.9357475082633686 -0.9355122865267431 0.9647789579642658 1.295751329821328 0.652019806210553 0.2877028770689602 -0.7150965286908988 -0.07101797402984465 -0.2967395623809947 0.2465672676577609 -0.005095428466482576 0.02604466305310886 -0.1456070479420234 0.9440688828003511 -0.7976643934032608 0.6032379187951985 -0.1200407796875259 -0.07726910007931238 0.5701947745832692 -0.2845961596514245 0.5113157732642217 0.07724142477739863 0.1011003132431585 0.09733938337150333 0.2998127665401769 -0.4159481196809872 -0.006629192063936218 -0.5141701625871551 -0.02921976960955944 -0.4913823033423013 -1.436859680878255 -0.1603858943425842 -1.041846940790152 0.2562112812365717 0.2333738366071592 0.1243868352212584 0.5486458570398551 -0.5781419340508516 -1.553998854749833 -0.4044963578291521 0.66084492242994 0.4222151346361861 0.9980382581475621 -0.6767999523756364 -0.5282946496825706 -0.300489693741899 0.2291876922134331 -0.241470233532987 0.4557902762173737 -0.2025226570399139 0.3630285119708791 1.341714483066628 -0.1161038630251371 
-0.2486953445046084 1.352742608003523 -0.223969895717817 -0.08411662101124312 0.1037260344977886 0.6645022879725482 0.5366269400714681 -1.679490414850797 -0.561654298158128 1.994008268069619 0.2220178330737559 0.4807604370655889 0.1883375738786458 -0.5245225095696449 0.2321475025351349 0.5431651955515772 -0.4755053695316677 0.03075347064550517 0.1830037567147265 -1.00898237782095 -0.4437376025545169 0.01023877783310468 0.0221303803823426 0.3784060512958718 -0.1198527097175175 -0.4987255208874168 -0.1315532870021383 -0.7250749767754849 0.1554731974830728 0.5150620404277729 -1.072617971960946 0.1719719149122653 -0.2499470349889725 0.7634680332990593 0.8167679919306386 0.9351810321461581 -0.2896517594618189 -0.3474467977747991 -0.299512366094472 1.670550067671693 -0.4520234769744864 0.308072890194528 -0.6063938861448946 -0.03034755784818518 1.146126786412127 0.426892919332597 0.6715413871483821 0.1032935184104209 1.292276286814158 -0.02365878724592249 2.01805396995435 0.7257587515318183 -1.226216328624725 0.3184142970620651 -0.3487220808954906 0.6987167480046398 -0.4624823686429959 0.5883904999542885 1.35603388760219 -0.2590431172956841 1.366226834803687 -0.103304121259835 
0.1260496241980275 -0.4652565962826563 0.0409387077172249 0.2503801893495122 -0.645278717585739 -0.6716088322028916 -0.857184353179389 0.004765494464611212 0.2366693064609897 -1.221775951317499 -0.3928461267157249 -0.1167949123213544 -0.1546080013112381 0.3604583541507348 0.1147542768890396 0.434205723173936 1.851208797470169 -0.4644796171038786 0.6454005056383604 1.850723619499666 -0.04291713608466079 0.8900694722203248 -0.1163281649250393 0.03909591110891027 0.3345233729375292 -0.7316515471746654 -0.1270548677217037 -0.1882499826124236 -0.3653312853493489 -0.1789991866928067 0.2990132943827286 0.3959634944234477 0.5523802485701271 0.2807882884383389 0.5300095310676372 -0.1287477978696136 0.3628819551597368 -0.7591525475987826 -0.7551656716245057 -0.4479475097906107 -0.7556208807742038 0.8599281553436833 -0.0640602795986336 -0.9737303971236186 -0.6423067210876741 -0.3838820937011471 -0.7562050082685005 -0.08508209502995466 0.1486526596026114 -0.4558094653396172 -0.3155067438779439 -0.4570066634051262 0.2939843698285727 0.3893239240552097 -1.383104415826439 0.1233157631898675 0.09569057883058689 -0.8950314214376429 0.1099897782500187 -0.9912329170828809 -0.2482755994989718 -0.2081554133540431 
-0.2047147540680804 0.9221469920042663 -0.3968205256724951 0.7214151667046501 0.7944612999298282 -0.08940888878322248 -0.07407219824176775 0.2862718800698938 1.553738983951219 -0.7465786956083242 -1.004726950658009 -0.9395814635109517 1.422465604454369 -0.1928853743993203 -0.04659668650168416 0.3679256201008931 0.6135666617825609 -0.4866787906938493 -0.463083937004959 -0.8037468529132222 0.1903288792572425 -0.8154574619177166 0.2436566789414839 -0.07397624232031408 0.4793226939977142 -0.1936660076435488 0.5244268612858928 1.302146252321309 0.1909274179049983 -0.2292828141170091 -0.5810480339042183 -1.42631462869937 -1.585707248199709 -0.05625358793936128 -0.6029330297313259 0.1182983700403974 1.224012058013093 -0.01960230990347494 1.010918168554874 -0.04116179453512882 -0.5232775678174268 0.3372238523678047 -0.2430693629945115 -0.1123057036842054 -0.6258630715473164 0.3528622738875434 -0.5079248962933983 0.3459028608368842 -0.1808230609063904 0.05717776597748898 0.08829051567897808 -0.4671122698807965 -1.56744417097028 -0.2596914412440792 -0.7456066743891607 0.1560167820386752 1.747539255834689 0.0318348677338048 -1.0744054068463 -1.550982155391683 0.1964898209254456 0.4142272961663211 
0.4728877808269047 0.2337992283766103 0.8982334760155244 -0.3754145095152475 -0.06399289106958232 -0.9933477105145712 -0.06933917575522255 0.1537242936509204 0.6902059229796285 0.3417063857913282 -0.2306053069532472 -0.7029851257602876 -0.1392416718199029 -0.4357520305141069 0.3294139368597844 -0.7122340295845769 -0.7321875189718094 -0.3354504909395966 -0.0378775026559165 -0.4425098468663295 -0.7172194015029025 -0.7994010872418936 0.3079708728514616 -0.1169481090787169 0.2795141191749747 -0.03555999700879043 0.6371277956654172 0.04439436280064411 -0.640468590060485 -0.2876423880360957 -0.2909314863952491 -0.1010990091527174 -0.3066065837735173 -1.058463003402127 -0.4240673686053616 0.0322059066499667 -0.8335586461322502 -0.1914546300090774 -0.3319038644610482 -0.1743314730328451 0.3813530080227873 0.04555558909241061 -0.5522549305489132 0.0516574781405066 -0.02538925417814491 0.2634526679992373 -0.1932351960185582 -0.02104554818426529 -0.7135037502089142 -0.09597252494639906 -0.1599450468419649 0.3917413838435907 0.01023459243240016 -0.05545028409784615 0.5254157191349739 0.1902949483250672 0.8507906436922705 0.09904547369237879 -0.9768005272404203 -0.1167259054533068 0.332735701051991 -0.4305040694699762 
0.03992014359780399 -0.4457725094819206 -0.08907668180686065 0.1555881096591037 -0.01002296812874089 -0.1077730781073388 0.2059665780123677 -0.2381491054553446 -0.7945801682502783 -0.3348256416787945 0.6982844003540196 0.06024250736820292 -1.27251586775182 -0.2293787670681267 -0.04544852229534471 -0.559159216847855 -0.7525028829464129 0.2844185726894202 -0.02224107376895885 0.4571175151845834 0.5508540568468843 -0.2757395652824068 0.5130664772126748 0.2316077391410288 -0.25472761644963 0.6228687257676662 0.2977962827964984 0.2628389881573673 -0.04250056038221718 -0.2589802324341262 0.7282167144636879 -0.1993481347122636 -1.529910908585962 -0.03267184128458928 -0.7750683644217683 -0.08817866677800881 0.2436718433467985 0.006981009308144853 0.2610438335991144 -0.3211697069586079 -1.523997172489868 -0.1265025902673102 -0.4845424675607242 -0.3124425590760201 0.1000943024830458 0.6805465987019962 0.4595581060997652 0.3399714036080271 -1.039485856175403 -0.004260639233084928 0.7148441204191488 0.3188004311343667 -0.5686443809887469 -1.003151960217466 0.5296120651266946 0.05285899542170467 1.67369218803669 0.05832365800622179 0.5334206162525116 0.004432251938517414 0.2517130845900127 0.3022921898488691 
0.2706853516640094 -0.2123742525045717 0.1125506476407298 0.1463408137055952 -0.4046209763326064 -0.6139711768975203 -0.2171864472912315 -0.8007711995203115 -0.5371204656765277 1.109035464297081 1.509061674492812 0.02364085275385961 0.172874300410896 -1.436313632571305 -0.1963345023180446 -0.04753974534729356 0.404591342200675 0.5538266592354432 0.3729960314143455 0.3610127489666382 0.3461763694369713 0.9854221182749977 0.3645108445807149 0.4868519794682429 -0.6371068567658219 0.1761015259342876 1.242182819234918 0.6227143592558644 -0.260926630482233 -0.7130971023161934 -1.10225118553363 0.2443541809744706 -1.18360034724275 -0.685413820323411 -0.4377678151473038 -0.3365441604867895 -0.3354997655019103 -0.8906858073903395 -0.6655397590709563 -0.2696457228536868 -0.2078338305653202 0.6799004030218793 -1.076152754802906 -0.370167972444825 -0.8384382799775669 0.01774400259291493 0.5133615694488125 0.03108291276795895 0.8192264797234436 -0.5135572309198347 1.274691351931607 0.2658062846063783 -0.3806789723268864 0.566101408654104 0.7188207517642211 -0.6436604361993004 -0.8605039031573645 0.5807859987220177 0.3238192722167603 -0.5131267396775763 -0.559842229885291 -0.9437216560389459 
-0.1193383547293628 -0.4479661952159245 0.1195951198527842 -0.3624806099572574 0.1036265137762777 0.4691459828865951 0.4553902416022454 -0.01605257560664951 0.3112488707633695 0.03129907050639606 -0.9692441073201127 -0.06491122214647724 0.4019909993036023 -0.3942858181005308 0.09389771839140212 -0.01834343158217533 0.3820896783760381 0.3000885854048587 -0.1270683771042777 -0.1034452509232823 -0.1868303880544472 -0.03287226510495959 -0.797650797774617 -0.07557362473099741 1.483844628633512 0.09952805315576524 0.1822250157038278 -0.7560480843949955 0.6122104481653678 -0.01566837211975766 -0.339133001416067 0.2676625052511442 -0.243550281192003 0.516307369936243 -0.08639345717511644 0.9309884828349771 0.4875344261405889 -0.03129452113669597 0.1432471486819951 -0.4074823225421173 -0.2588888364501302 -0.1734490304560481 -0.4782403696187607 0.08449435592358587 0.5524399888804093 0.09010266779523894 0.2973108926525481 -1.100269724246819 0.4243470305405579 0.7513062532967537 0.07435451684340351 -0.009318944648960546 0.5512299290781739 -0.287839447277941 -0.1135897111723493 0.3959451383600378 0.3167011153863287 0.04647065470464989 -0.7057274129611752 0.5302582902561094 0.3226028971611266 -1.313178279851926 
0.06107335349466062 0.215679777542646 -0.882336074131936 -0.1347816511509866 -0.8817388907906382 0.03555340142019395 1.349525615046676 -1.246550641352464 0.1081722748605551 0.2711032149215202 -0.2295496237888286 -1.119483167755974 1.147920555704917 0.1858916051253503 0.5656493543463061 0.6864047649686351 -0.9329870735324729 0.3938424232248472 -0.006354135720608344 -0.2022776418457362 -0.5887863772681267 0.6319350672968187 0.04888612505690432 -0.03885144309763757 0.4888599773848946 -0.589369631060021 -0.3316975830741313 -1.937260280747878 -0.1866271306359811 0.3461647606738571 0.9393755945122506 -0.07016960038656148 0.6621119835811429 -0.4505953223998015 0.7118228466990739 -0.09803532467092707 0.02574851496483587 0.4644742373684764 -0.7542466261545321 0.1697795703767229 0.125563735622781 0.181223264534789 0.5514214751043403 -0.7060082488550357 0.126092668468638 -0.5631176702083172 -1.088617672271451 0.3659497768345186 -0.1432383160368111 0.09131025736660757 0.3942334667977173 -0.2723427809214983 0.7328197568947384 -0.6632034034992177 0.6211370600588599 0.4752493376857346 0.282099945014869 0.1908734008996202 -0.1294092225257101 -0.2529546007936885 0.5954013407845999 -0.5260424444196675 
-0.3634239629364799 -0.4886385237704212 -0.8846098846149859 0.4055919040102604 0.4794484174654656 0.6500795628994962 -1.416177752564741 0.9575169634494184 1.12081798210136 -0.03674304169091569 0.2693382518081374 -0.4118711150296396 1.200356888822137 0.08071736681545168 -0.5971845605556753 -0.4795884377610354 -0.09299181980067658 -0.5238543976972087 -0.2320374014768584 0.2297518126863968 1.913946604109757 0.8265148893563293 -0.1968490789741546 0.1187441104790345 0.08507368292650551 -0.2730413090798421 0.04486476296183087 1.515571724152372 -0.2603022366879051 -0.1010197617112649 -0.773348248881724 -0.2001686983341805 0.9279868744385331 0.2826555146929974 0.2009488573701326 -0.9321449181380534 0.6027592683833521 0.1189905733062675 -1.023656272622966 -0.2545713256137822 -0.5475805690582249 -0.5187769490362345 0.8938025086839695 0.2452262073670156 -1.135635790504176 -0.517616494309672 0.1586248226341581 -0.8119931592196782 0.03755771780220882 0.8188898898584991 -0.4203704792260755 -0.3096809248961384 0.2699019520079962 0.3077233652917328 0.004195600549167936 -0.04672154511226308 0.753964142438961 -0.8605123154794642 -1.074818912477693 0.4870124285533383 -0.4314161225627351 0.1702542130522886 
-0.9906500275973558 0.4837846234173656 -0.6624124135688664 1.038608585199861 -0.02321777568039087 1.324764645600657 -0.05589013946061197 0.3944607243561666 0.009037988996382116 0.4019179972199062 -0.07664146103444792 0.5737887199065107 0.2471511128846771 0.131549348081915 -0.8691975075343307 -0.3036318716365726 -0.1250223074758383 0.05482263646875395 -0.2115716308563508 0.405642456495249 -0.2202814759909942 0.6686963309639621 0.1680784213795317 0.09523377080944394 0.3406764664408637 -0.4008535204997883 -0.4638035903820003 -0.8146923643197261 -0.3186497558588044 -0.3884459444250136 0.7687980007827419 -1.543385978898025 0.1793727003270302 0.07491026636974896 -0.1963887505945425 0.1134457988328112 -1.01521886351285 0.7706620176022381 -0.4273135895835378 -0.02744501798412172 -0.1169242005738411 -0.2143621512886833 0.8560514925933395 0.1714127959815522 -0.3583159628382397 -0.468220488669213 -0.04490131831851724 -2.217290188407102 0.6862362740651118 -0.2627283776830249 -0.154913449199162 -1.45944702340289 0.1847536534543011 0.2879749178578732 -0.5649357044851666 -0.9338542282653807 0.07211525460784712 -2.04318224358407 -0.276934896373777 0.8943582389807292 -1.249586169060663 -0.06424817928650632 
-0.1038589995773133 -1.052599814852739 0.3167450110290479 0.7743089335665164 -0.6109149437217031 -1.150988205946875 1.689912563941768 -0.4447711128915595 0.5204538755489951 0.8940513897017384 0.3753280675230865 0.4955186989981604 0.2100119643659444 -0.4457609245655182 0.5093408724828478 0.1922324333109438 -0.356379009716161 0.1523134014765904 -0.2815463683128323 -0.3549063260367081 -0.1896315172834398 -0.7080340666500596 0.2020812087217924 0.1718087322103143 -0.3538568613859723 -0.01948227901229336 0.9713732880987754 0.8662009235049772 -0.1033030963744001 -0.19343744558489 1.233248994866894 1.016753250218897 0.7354411117100439 0.398976473977621 -0.5443645869640329 -0.130193736777872 -1.009040827018042 0.6305178948605666 0.4583167277161113 -0.8012734424506249 0.2958060211198285 -1.046062662978577 -0.3221420608154357 0.2064224121540284 0.4923066645957059 -0.7811693986965947 -0.5808853156146045 -0.06776596636324204 -1.431786831152519 -0.02184919022379206 -0.4939938770961436 -0.2647436018519589 -0.09908262304829377 0.7246368482413954 0.2365154722944683 -0.6197891475054387 -1.495379838037446 -0.4517624996109948 0.1983370914376447 -0.1112707349285384 0.2327318137919727 0.1369258239122562 
0.1154061013533628 -0.3331468328721666 -0.9747617170659058 1.403969144273791 0.004363912612634554 -0.1178767349000754 -0.2976162313977077 0.002845816459707595 -0.2785051578105339 -0.03678663442131976 0.03078240690073581 -0.2441900077439835 -0.01255225310341529 1.053589203695961 0.5364875440905311 0.000137885768817965 0.8895921560230468 0.2583830041895544 -0.5162026091714959 0.06280910505081161 0.9628384385023148 1.10674105284928 0.7193877678294508 0.8108881058364434 0.4990747981825925 0.6786170004923787 0.1025942107527263 -0.6474191673328671 0.5153180551472972 -0.123796894729912 -0.2641778323877922 0.5946045622241647 -1.910574149439638 -0.9080841296075215 -0.04186350002967527 -1.996172891654449 -0.2216917695159766 0.113755693717978 1.791419611942713 -0.3032685935108355 0.3300323642180328 -0.7154763235970882 -0.06206830602942539 -0.6269504226048969 -0.05306639117556394 0.9704344451983236 -1.073878303312597 0.6431997477686048 -0.4963736462885946 0.3479619240276924 1.611706315952086 -1.008986115447328 0.2903724206310656 0.4702618816024721 0.5686470890530535 -0.3471331620648532 -1.489971547866965 -1.173771335415319 -0.01389950219322451 -0.990776359075034 -0.4924797646986936 0.8208078197339858 
0.1315651595294816 -0.3348093405627788 -0.07908662432528389 -0.1624279784333821 0.2116535194252608 -0.1955944081571565 0.01962067619652688 0.7551716078591182 1.149257913995002 -0.4718554188814331 0.2291083990757606 0.3811149025031472 1.173280330447418 0.1399073219617256 0.6717956617018049 0.006351590039140457 0.2817653536026093 -0.762359514453506 -0.1589886889040872 0.6832129121364174 0.7808706939929669 0.4601897538990372 -0.3538908292190787 -0.2049513699133164 0.2669543785268879 0.01818370862049436 1.236285889797242 0.2852718337475781 -0.01578289279925676 -0.02364711472113923 -0.5818422303984724 0.2613967360427469 1.09733367757104 -0.1049037479752127 0.1813187571625958 0.09124411361799888 1.253444450389741 -0.852044680651277 0.5720155872409036 -0.887576443788335 0.9091938847111553 -0.6432387221308087 -0.2380442950918078 -0.1167202820624309 0.2833196098733445 0.2459948480230774 0.8518127645389483 -0.2646423489352165 0.8324622716734174 0.335370026802786 -0.6722251014555124 -0.4374391780354126 0.556492483908038 -0.6314196540879956 0.2160139765019482 0.9405291262731115 0.9114787018410457 0.02100991080932064 0.02581090055729697 -1.752825268186863 -1.039560849443257 0.2525882427161315 
0.3923685404197173 -1.045355245136963 -1.119816352152539 -1.117611881159249 0.03298753097166027 0.06831502203477646 0.5281044703016813 0.4716293439634814 0.2406904813137888 0.9764176575446293 0.1974477757687241 -0.776010541401644 0.3652530283973709 0.5202396244421474 -0.1670755145475418 0.6653466884704358 0.02129906438529842 -0.8182915134576327 -0.6121715505847538 0.4877095430171913 0.03375334014101953 0.6638837971272002 -0.7481508952984017 0.7406755849138513 0.4193742850872054 0.1705867703795786 0.5887257033303851 0.7797904295844303 0.870873989875768 1.42888543180735 0.7733603915424343 0.3087585318368556 0.4746424944422682 0.1907165061231703 0.2905778166007577 0.1920757285135175 1.532145116378757 0.05912632060915265 0.9663617702675629 -1.112466912617086 0.04513871780911497 -0.2439878936693711 0.7717210588035713 -0.09304518799321533 1.182891420931955 0.301004500359237 0.658294358507029 0.2807975417909111 0.6428826365880476 -1.352078250726102 0.5653632202880469 -0.2137698575160802 -0.1123783694546037 -0.6184204791270987 -0.604865269385234 0.9949785672581302 -1.073140086209514 -0.8589927152289742 -1.549591157101111 0.1627056255544517 -0.8732099704862851 -0.2034870671729126 
-0.1715054519131501 1.042403604125071 -0.5265583505255491 -0.5476991416116705 0.6903412521730272 -0.8057814282283786 -0.3763326802115035 0.009447950180949795 1.06235999391784 -0.209203089903539 0.3651972601059315 -0.1179670250776217 -0.0571929475811724 -0.2976705394705303 0.09316746446145735 0.4501843929251092 -0.1009381408602686 0.3734522240416113 0.1555734631872757 -0.7979156530855065 0.462786260077467 0.6488156703126167 -0.565124335259238 0.6014537273870592 0.1708048249344847 -0.1106578333123076 0.3481493988558018 0.9565657662949287 0.09253680614690329 0.1917790437760977 -0.05776256499668885 -0.6068436305786058 0.1280186312990611 0.1577564615818151 0.668089180346877 -0.4013603663318285 0.9644985766140135 -0.1631074475315191 0.5278396383217936 0.3806383738734649 -0.3624300464962884 0.09334738855326614 0.01829284695324079 1.067607454405378 -0.3639839282611291 0.5079209532498564 -0.5033762124693754 1.651955193873319 -0.4825282168509223 -0.06527968833628056 0.9833664714736348 0.01407368481631013 -0.5735014326842607 -0.635515766940442 -0.52607035156495 0.4515255471158395 1.037806019200227 0.5990391966025639 -0.008928819456026298 -0.6749953092085909 -1.404228430786673 0.5017382779381753 
0.6546099907060013 -0.1544857205459767 -0.546886565997214 0.006529506564823253 -0.3389876784615782 0.4865586124250803 -0.1424970885255891 0.58505974782836 -0.6821726137820824 0.387753310485261 -0.7476929709354506 0.3154657133501323 -0.4031370590600206 0.416358707727678 -0.4289757747632733 0.09278554712975406 0.05339541322946152 -0.2179770258413397 0.1974748686875972 0.1296874441338276 -0.3199982585302225 0.6044607996141302 -0.5444487360043284 -0.154858710661764 -0.1174183331964505 0.2196485421507781 -0.1337471124878187 -0.3600065143659597 -0.2883886487414838 -0.5944284681791394 0.3158542335932593 -1.706485907065581 0.2209346805467509 0.7282415862342473 0.6755876328022464 0.4979702670635817 -0.346968611289825 -0.01738648433744174 0.3186436994105661 -1.387362738360852 1.143906270469161 0.618813848701627 1.052138663973554 -0.4059570984813054 0.4318804425490491 -0.7885515639203837 -0.2017673223376868 -0.006897223798591062 0.6287973788194378 0.2058022778632474 0.8888472835042512 -0.1074678100308983 0.5157424822111726 0.6284953543973307 0.1728371585024765 0.584676710847243 0.4065074072760838 0.6760033463784624 1.754155979069669 1.128847794661532 0.6304367684248792 0.3538748386707008 
-0.8820144408700032 0.3806372756670685 0.05990019733018704 0.6296102257392228 0.6884088275046526 0.01968530147290821 -0.9078972316482723 0.08244323320125971 -0.1274601543838384 -0.9545365601433553 1.743887895971995 0.1651826869365223 -0.0903671196187826 0.6482254151775666 0.1904122801022752 -0.1854591638400448 0.257316678251209 0.4822635988114921 -0.01920008121004708 0.4622478182431838 -0.01415728234830306 0.01819667977404136 -0.8883125093687957 0.575047577082524 0.4121906765633732 0.06274017142659827 -0.1721983401138178 0.9124005592578271 -0.5348990185082194 -0.5262323874143463 -0.7017273978882689 0.02044456531834361 -0.3329188858667898 0.1430913070140643 0.09048332795907262 -0.2179228895205982 -0.07481780556246628 -0.06011199675134089 0.7895896512430864 0.6644201402713944 -0.2167628517818785 0.3285128613386869 -0.6882798855170026 0.3765978759780119 -0.4439468619871951 0.4378952245759356 0.09412366957959778 1.018027240254836 -0.1657185207136589 0.9773382411615873 -0.1907549631757424 0.07400455702521835 -0.001187230285463092 0.5744312849771995 0.7780492218943388 0.3229672567638512 0.9449291091622706 -0.5767459638541844 0.5634928670049624 -0.1532669733595894 0.9772717735849588 0.3784431066637576 
0.3134923593397501 0.2139662588073425 -0.4773353155627069 0.3478584770750223 0.2344011643562077 -0.8948551572691242 0.8199776769486975 1.49944375397344 -1.155768743304652 -0.1602859743452959 1.560481935522304 -0.3845154891313889 -0.4611396751404992 0.1026472267739812 -0.2157176516141429 -0.9466684919344244 -0.2705824322751567 -0.5543851003617334 -0.07744030757973261 -0.321787204436424 0.3750095494060731 -0.2816356633155139 -0.5295207563281811 -0.288260806117574 0.6581589040975274 0.2547279400841329 -0.3086898497340535 0.1918745277708138 -0.1543914503354003 -0.8667713437105934 0.03726328835415798 -0.3555986484059752 -0.1713950670931587 0.6265254768719446 0.05479937368688995 1.047411100081141 0.04964372637636145 0.6549254588387318 -0.3012921858564099 0.09661316273087388 -0.2709789328025812 -1.887436346441409 -0.1890721061391407 -0.0003609913620398692 -0.6026273643103224 -1.154935731125472 -0.01329579131515236 0.4719781050069498 1.61503630113656 0.03107779539887412 -0.8640967173401558 -0.2104341603667648 -0.6595538389521615 0.8073369998415985 0.6468444573039471 -0.2885879614053926 -0.1218018694460896 0.4793709625046433 -0.5233792034161735 -1.83898171680634 -0.944876767494558 -1.705800702011207 
0.2456451946257775 -0.2621342652509505 -0.908027712989165 0.07593062977347866 -0.6241372937782111 0.1872093154515818 1.289984268649718 2.077073987666061 0.7398679593224313 0.2295482603468711 0.4603474232131428 0.07552316267232893 -0.2438927590626476 0.9151412697770196 0.3814800178742682 -0.609673226076535 0.1534227996813619 -0.3812218878931058 0.1615879925905162 1.638912368839287 -0.5832829229142226 0.8695174107103174 -1.077603090918037 0.3314614963670406 0.3124848255750377 -0.5716289638695897 -0.3471478970323238 -0.5182351108825769 -0.2823099064205149 0.3399616884894177 0.2824224649180025 -1.493481958871256 0.3139996520118776 -0.07351455324698819 0.1407131605606982 0.6944591158517746 0.06628739543560994 0.1858163569519699 1.019163813936071 0.6972256210673222 0.8133391474496958 -1.470739077028922 -0.3721168560024603 0.9403935893263896 -0.4936051662271573 0.08381349118244191 0.5264897329921097 0.3888285415939942 -0.1993016763371264 0.07223839796995897 0.9044566623224356 0.3088854591284473 0.221407631789413 0.5952175911775845 0.09727595752855832 -0.2916828008385605 0.2636045167175489 0.7150371191502275 -0.2221794324715112 0.06036038144320992 0.5431208567651616 -0.00899166830340593 
-0.5812682760857597 -0.2727371523334393 0.9226536454523673 0.4213525243710374 0.1001961084004385 0.0006281213371217066 0.206300545887603 0.3743653142763886 0.65533542720398 0.09243579652686203 -0.03489967721810269 0.3800794979051146 -0.3896916817773302 -0.008979493507446056 -0.1785835683635805 -0.3670892077989 -0.7989335207986246 -0.6351680256227874 0.04104670420698888 -0.5803307742948888 -1.366678788237212 1.112459844137377 -0.2070168681595324 -0.05625592792787255 0.303134932165418 0.09934878734982934 -0.9638957465219375 0.9405285499516267 0.2810958607828827 -0.07811816374570296 -0.1909218942977612 -0.5127984682530237 0.7188539899850279 -0.1235165986134289 -1.255187493184872 -0.02994257543814828 -0.3720614753051042 0.361689921847801 -0.5419492468896258 -0.3965888999714364 -0.6184072047501832 -0.3514602615831471 0.2108223281128791 -0.04219702116365722 -0.6749116087129582 -0.3988852726663307 -0.7088872354727318 -0.3061498629860378 0.200207117770004 -0.3848063319493908 -0.6256981927030122 1.552313274888623 0.1118966391128791 0.2885116665867282 -0.5584610704295899 -0.6390862689426996 -1.333740922193963 -0.8036603641774585 -0.9130395637818547 -0.4777461690494482 0.3798430086235564 -0.02363958466253416 
-0.216045281900379 0.09622657719443418 -1.477037166000094 0.01673930212072697 -0.3357340130483374 0.1449743692483456 0.9930528213625489 -0.761011636981762 0.6799192142318583 -0.3513499299086756 -0.4264050556913027 -0.8923747599351523 0.357118852996496 1.179678066631741 -0.980989933047974 -0.2819757923562244 -0.4142435258868346 0.1360019518877381 0.1068752585970385 -0.8656832621875327 0.1747283534411205 0.8772452255288102 -0.402369449860671 1.316054932962933 -0.4356926907942928 -0.2533918097637179 0.7409797840418563 0.471192517607694 0.5298221393389226 0.3265546607000268 0.9274458241292627 0.1084992886944186 0.593311146536313 1.074826285478306 -0.02752722541780625 1.170110163668508 -0.03492665669847221 0.008929773797547705 0.4651200187581088 -0.7976286238281772 0.5987485556944988 -0.3438652708269558 0.4492471781979057 1.108777047993988 -0.4379745174825809 -0.8346855948969486 -0.4823649288285751 0.4648499511274742 -0.3678868081883466 -0.15492990201707 0.3185971454324085 -1.362480528272277 -0.9366332486547365 0.3799875956909045 -1.037650273633133 -0.5308130290786359 -1.108398777315357 0.5994318180609766 -0.1171794409226608 1.460975450181449 -0.05387067743231304 0.920311676971449 
-0.2306331239552425 0.1022626630077966 0.6429566824690849 1.176081140664752 0.08347978858513373 0.3854714149824648 0.6867428759973648 0.2553924730525627 -0.2624715652381907 0.03826188857038246 0.6174490373765633 -0.3256292156630847 0.6812681484002866 -0.3148008580594342 -0.7212501139389716 -0.4270734082532544 -0.8783377788186861 0.05079786882742562 -0.5523328043671376 0.2029183071465772 0.9946158310512101 0.3272932320814012 0.6387086890908454 0.132506505661863 -0.1549729957927325 -0.5953384334638047 -0.1999164946004385 0.1448373074087439 0.3892928445230864 0.1876811948731765 -0.05869161502095928 0.2002172912897511 -0.7277559221904021 -0.769709942917823 0.5836905664871297 0.2131518268905533 -0.006512771864141014 -0.248851535059528 -0.6334739296132363 0.3326740557931257 0.5456816868352291 -1.115908970941875 -0.6812301060629468 0.1999315672439017 0.2195056843299766 -0.8027706398286997 -0.04174480290672918 -0.4982520003294685 -0.7700429416406251 -0.07530694322663818 0.3565346881200466 -0.5703475053553162 -0.1869665875302287 0.285562305167964 1.480629357728245 -0.5912161811198492 -0.8300046034101956 -0.0198304608680427 0.7600663609461942 1.271832023456829 -1.304083241576203 0.2942181703685391 
-0.01298070879698175 0.7316429377044613 1.306963083244182 -1.12156652210033 -1.072889846982463 1.213886325718152 -0.349121610496168 0.8166678230530945 0.8733079791933173 0.7653614784510949 -1.989834614258168 -0.4230996717651401 0.5832886454060753 -0.1986112954404297 0.2060706625193432 -0.4825497000835502 0.3664568480608994 0.5980889890631899 0.2468559464128171 -0.9040194422712921 0.6535374486489198 -0.2185991438991817 0.02889567671423014 -0.134836917326862 0.2670267319570515 -0.6009206698323278 0.6284203797387292 0.6329301968536292 0.08451493962560273 -0.1071028620124171 -1.656132991342286 -0.07963303579118985 -0.7016401303391261 -0.4559933578509382 -0.9190860341219264 -0.1981690212825595 0.674993304416883 0.1073107419654012 0.5255281813853271 1.630985518585458 1.080423292875986 -0.2857677078169541 -0.1861809835983686 0.3685644027772338 0.06154252553345752 0.04598537774222206 0.278506800520138 0.2484928942929849 -1.19448133496252 0.3652602794391733 0.1769780999429063 -0.7870591598707213 -0.308396506372546 -1.142274154657659 0.0757661725983081 0.8398540515683518 0.6009861283414384 0.5668032256060721 0.2716314200024095 -1.112057276463242 0.8632330508611715 -0.4468652849116264 
0.3329532451035124 -0.6999666668890095 -0.1672060634665578 -0.4554881804228124 0.5219835078485539 -0.2415844538660973 -0.3170462982914389 1.708349174677193 0.560344122477681 0.4112376317810441 0.105699558784854 -0.3932444768342788 0.4324419715686285 -0.09782954208971954 0.1557553499449464 -0.5119414776882456 0.2555818311089429 -0.3579797143459142 0.2212938468288112 0.5926044845776778 -0.553172712800249 -0.3329846677255491 0.5231595376929979 0.0475348817820475 0.002709085207285214 -0.1684855959708824 -0.3350729544859799 0.6951135791466987 -0.7032538879914628 0.1823861889656183 0.2607977263240296 0.3538078514858268 -0.07774973262315989 -0.3337868994632701 0.1098360289421952 -0.8603883674723048 0.07436669103577852 0.05352532641874825 0.8216655037377879 0.4183677168087409 0.6573956141545829 0.4052353955022912 -1.481980653790039 -0.1516188910416467 0.2282953206752051 0.1674900652809685 1.104822895450422 -0.6691581134107858 0.08036646037528225 -0.848708462221788 -0.3004218842863599 -0.9044934140198726 0.7020919210608433 -0.5935389831251054 -0.09754607355790418 -0.2253269589042234 -0.840471554558376 -0.59222655163433 -0.5460401423111587 0.000203686443081467 0.1917358161643481 -0.5475531482255914 
