solver_type L2R_L2LOSS_SVC
nr_class 62
label 59 1 2 3 4 5 6 7 8 9 10 11 12 13 14 15 16 17 18 19 20 21 22 23 24 25 26 27 28 29 30 31 32 33 34 35 36 37 38 39 40 41 42 43 44 45 46 47 48 49 50 51 53 54 55 56 57 58 60 61 62 52
nr_feature 1107
bias -1
w
0.5932738751676713 -0.9295627658696383 0.2905190790544579 0.9885956580394663 0.01224984006816867 0.5241216459426341 1.286766497875669 1.463546563828998 0.08384099252967468 -0.4063722621745809 0.7740066205872488 -0.3686779920847075 0.4292264696039548 -0.2312443059015401 -0.3610992336881624 0.9967453392953556 1.320457559188177 0.05662956959160699 0.6286486162399153 0.2870303096054865 -0.2303468807688208 -0.4734971247293782 1.587361240634849 -0.6910667986389382 -0.05682793597920329 -1.074624331836167 0.2037416182408039 -0.1080801569548809 1.999837222255688 0.8742110281161865 -0.5524739594416394 0.854449097761471 -1.361926413437645 0.8355696424452933 0.9073897633383251 0.4248319750007188 0.3464402259344054 0.5128893663811521 -0.2368039405108986 1.528134451748208 0.297264823771033 -0.3414378570859312 0.01802081897173289 0.4543618813572505 0.6763742691862691 0.2791767026191794 -0.01192765408441963 1.020478383973029 -0.6304350805747491 1.459277912362533 -0.8294615246847846 -0.4446511301195988 -0.1486254578826148 -0.5696908928267894 -0.2457528706814747 0.07961457258363999 0.2936397167255261 0.1579962435277343 -0.1619702262062367 -0.2428679736754971 -0.2669153015871324 -0.9631461510505159 
0.469043118141689 -0.4741459285199431 0.6025910568021572 0.2065501612920904 1.367211103140966 -0.7138926102081758 0.3172229233600757 0.0627864294945408 -0.2076801961827099 0.2785498832860131 -0.1918644772219879 -0.2302904053605908 0.04984953501302549 0.08255058476943553 -0.04716929217469229 -0.2068747768313414 -0.7006747681507249 -0.1784414777711401 -0.1667224401833981 -1.132236843380688 0.8327490121188981 -0.4930396411072234 0.354049487239905 -0.04686851635421416 0.8824490001135625 0.5131259918670663 -0.1192281956284034 0.3359942611429723 0.5756551517401696 0.847761797820677 -0.1911153096750546 -0.6103566461631128 -0.4039912895796811 1.187033223228908 0.5068216593120242 -0.6043322092255753 -0.1215695362068287 -0.4984993946450564 -0.8947297494685479 0.9824885631374546 0.2538608394654587 -0.1934624682838335 -1.334468771162077 0.06102265135182511 0.009506924474706059 0.3201072530592433 0.2410568971200646 -0.7232936005592508 0.07911460207921837 1.343168499693135 -0.4150340475196296 -0.2621772618933244 1.73054628567364 -0.8520999931621203 0.6824294448495046 -0.07652191400723687 -0.2443644360375425 0.6726263119187311 0.2253386490406689 -0.3996528674702816 0.4466523020275605 -0.02144176253508216 
0.2370680942311132 0.2794529182217037 -0.5684361758393933 -0.2120031164407888 -0.1960204563455415 -0.09286053776989835 0.4611727343333392 -1.26415756855004 0.364886265067852 -0.6802162202875751 -0.06309716443393944 0.03993855151436992 -0.2719891380027561 0.3520299153687322 -0.01559465527409408 -1.024572867404523 0.7904189598831431 0.5641761096222812 -0.4919137842960969 -0.3068613499338675 -0.02104259368490702 0.746082747776098 -1.080744239692723 0.0714057642410021 0.3850040832298514 -0.4410404475850969 0.4104540657823972 -0.133745926173058 0.6511307147345384 0.5698688446887623 0.1600914495875953 -1.085510262377404 0.9712105690485325 -0.04076830184651348 0.5967213675230828 -0.04944520066696455 0.3560625506241046 -0.06650746024958251 -0.6113345992891172 1.969582373498352 -0.01868022841228154 -0.5227289731678728 -0.6547400785063696 0.2583830292320774 -0.6264087867593691 0.005485906686028499 -0.4676138363979382 2.074168780008713 0.1116911399211115 -0.7733831985038081 0.5200592977012044 0.6270216774038286 -0.4380373458991488 -0.2841529509011393 0.2247676915244063 -0.04202576888791267 -0.1920333365996413 0.5065384690208112 0.8809744866066478 -0.1076984775430465 -0.1617194214322335 0.3146717568438969 
0.2101063977929531 -0.185687821637152 -0.6733274787985398 -0.6704368626318203 0.2243968508267402 0.1684632580103066 -0.5332581221544243 -0.4715228736994574 -0.6313113466518254 0.05294712697396079 1.526697748135053 0.1731456266497082 0.264669000122585 -0.1754647837041752 0.03251143642780822 -0.9099448041218527 0.1109893019461759 -0.6094949878695717 -1.082144284662116 -1.208117322041131 -0.205616456892485 -0.6197592342454836 -0.1054830737893179 -0.7599080321828567 0.1005943797277767 0.9365304361187854 -1.289469716557286 -0.2421568416517706 0.8224612324095313 -0.08903867815864304 -0.2322649264238046 -1.083769971973507 0.1087936788715355 1.209626850399128 -0.3912358828267457 0.3530383331809653 0.5341570815400518 0.6094299883974693 -0.4415461158059594 -0.4058614692896567 -0.4876942466516065 0.05211341763805526 0.16612334806978 0.1040672518139924 0.2982180651382427 0.7217339225198131 -0.3965530583495636 -0.507396319806984 0.9595763561849322 -0.2173138149836771 0.9904533068111313 -0.8400530041114594 -1.076026502129437 -0.117855175702642 0.4864114619867156 -0.4632348568407888 -0.1229604966092155 -1.097872339227837 1.280640176258928 -0.3527335258729091 1.178329536410763 -0.5441487217638172 
-0.2681232265854525 -0.5033455339932401 -1.255737744983302 -0.8399276477703345 -0.3625732518329052 0.3295537898034304 -0.4247142907399329 -0.166606353666995 -0.2530515708058995 -0.2112134764052184 0.637266257821155 -0.3144357560611544 -0.3011485633111962 -1.033459073595414 -0.08612690560690375 0.1533616115720411 -0.7209505502167493 0.4409576621368348 0.5237215208217253 0.05881457104376996 -0.1397815824210897 0.3240227191517554 -0.3695994076473385 -0.3874941309509657 0.2197847307537938 0.316731377254914 -0.007272892349985266 0.5583259218122205 1.22631000581459 -0.2290325110531206 -0.7936791221395727 -0.2572966953274965 0.4147463464989725 -0.05850725287951604 0.5847602966979355 -0.7109587620744303 0.4551288728833853 0.09210713377626692 0.5808623193838963 0.2936910318475366 -0.9257253992558072 0.07673040733922282 -0.3474850721742239 -0.3447065723400382 -0.002900456141293303 -0.05743129789052331 0.4614470798087304 0.5424302810876055 -0.04182767963506587 0.9452097518679969 -0.4374843026420154 0.1399272716502968 0.08582159411265924 -0.324640182442342 0.5941904980648305 -0.5211967908488851 -0.3752827483939213 0.7880017319401346 0.3185454202234521 -0.5198889753186028 0.1866188296216367 -0.01326499648899234 
-0.2086048595034144 -0.2142390869219858 0.008358492511665584 0.4393210247066259 -0.2953261963296427 0.1944396825746459 -0.6100236567907061 -0.02427970238192571 -0.02272604199602176 0.4914245614789494 -0.1090006770246201 -0.7605633027454216 0.3707513108041194 0.2729564210815365 -0.4437068031313114 0.2553620903928095 0.1079618847330209 -0.3470831505001882 0.4746599267170252 -0.5021110717353384 -0.6245710834917222 -0.3935747618615673 -0.1032921860105081 0.5477055165947894 -0.4291567745008754 -1.317192483598482 -0.5068372982820822 -0.07488398973339644 -0.4402473868368449 0.006770199216525726 0.4179648337407847 0.2838437229924311 -0.4062973191825911 -0.4189632269377365 0.1269485536143234 0.4669205526444711 0.166581966681782 0.88788936397688 -0.5830553928809737 -0.4127999990325446 -0.4558759455974363 0.4010187423368707 -0.03126526567357008 0.297450442238084 -0.06842154509163753 -0.03544435858722941 -0.2888655167310579 0.02610901924506256 0.4358019815970516 -0.2072868715467968 -0.6484420797220984 0.1047040086175081 0.2121298115065894 0.2536462359866091 0.3993442160913535 -0.9299576129544708 -0.1535708532250367 0.2466852878793294 -0.3508380159448822 -1.209549912307998 0.1892304104268968 -0.4543502059677743 
0.5776049926881243 0.5613986053519979 -0.1961978391301138 1.028698833937052 0.6896000879965253 0.329619581111602 -0.005656238374032753 -0.1838802732520921 -0.3706429618773065 0.5575658741866133 0.7259427509856868 -0.2830532583905741 0.03519344984390613 0.1359262038846686 0.06392725293704413 0.1595634364467934 0.529416815352476 -0.2453751117934412 0.3994830984956196 -0.2068618733558416 -0.490631619636718 1.897649921134642 0.0304572855341662 -1.623536851310461 -0.2338266169590454 0.404249627581829 -0.3434261519251121 0.1455447530822498 1.003005438355542 -0.7059640249395911 -0.3903739242157969 -1.886459196539284 0.5418495644751232 -0.5234716749439171 -0.8103883932702832 -1.559601431135532 0.2902950215607753 0.51737338076228 2.155480065253964 -1.072156260221455 0.3530422151907143 -0.2521893363813352 1.032770937800775 0.08006640190620422 0.5416114425269195 -0.1845214147683679 0.4565167390128102 0.4382443676310859 1.048259345528453 0.4834445750839372 0.09388294283442571 -0.5046802461766069 1.477656400472128 -0.3764123452828466 0.19070959542574 0.1150561737440249 -0.666023577720539 0.8959988041152482 1.095726161264703 0.3252826450820395 -0.7754190678179116 0.3989348437094952 
-0.4697552747098758 -0.6013723496453354 0.7558794191085458 -0.2478100667573658 0.2014338595033056 -0.08098980517598565 0.5766248848219236 -0.7810509754330976 0.2229904971440418 0.194471822578794 -0.4962210812735418 0.9280545979565168 0.5565424628551623 -0.547175520390153 -0.2943415355403529 0.1055025273802571 -0.719806575887779 0.1073611098900208 0.09235332953590478 0.3336420865685711 0.3150123110387864 -0.2612026529900369 0.5438246594585222 -0.2038949345400192 0.309227111949482 0.9937329497555433 0.3092010035772596 -0.08984681930826441 0.3254182216841443 -0.5922135557676566 0.2515845987108233 0.3773081522102359 0.3854389370472565 0.05406356979822242 -0.2473607937692304 0.4760974879004101 0.2632709566599348 -0.6594895742957713 -0.7504524335706273 -0.5755228752965811 -0.3022466702167139 -0.214492719452043 -0.2352226311055155 -1.231535186665905 -0.3161317823879296 -0.06828662883561878 0.223154266677614 0.2628779806533147 -0.4590151623643443 -0.3762176042433415 -0.1191299088456825 0.5138373105619306 -0.751642755644673 1.015663374211921 -0.1170082592282987 1.418877933189623 0.05135198964220032 -1.077861533465247 0.9262898449798311 1.261308746753914 0.4588377080928484 -0.6654048713243244 
0.1855254073203335 0.2084470361049042 -0.3207047439922252 0.6887761085152703 0.2258428436600091 0.4779522886239954 1.003345391479474 -0.8597642558502241 -0.1098849012660415 0.0099627072978171 -0.3294053889955188 -0.6945927797174828 0.1611312475210076 -1.004339951844158 -0.1122149622539528 0.2767612623997069 0.1068127035693039 -0.386986797028946 1.035042762293919 0.8793878900629553 -0.8348588595305131 -0.507532768181351 0.3072162210165152 -0.1087243155416517 0.4364900694411899 0.12617167262232 -0.1653846522190308 0.2403717172940386 -1.227094994285488 0.1880316331252533 -0.5605994968601944 1.284678832832304 0.4691030896894221 -0.01879486473725778 0.8305732087678167 0.1916377799358564 -0.2985780889954157 -0.0545621499522221 -1.1258716755189 0.397965570637205 -0.1079204847377294 0.3548377626208391 0.1846810763985446 -0.007489835391585791 -0.4761403906940309 -0.527820441228501 0.4637034614763075 0.5955682167604909 -0.370651092077998 -0.7876055051185304 -1.172040621124339 -0.6745652977179848 -0.6080519024054417 1.239455134639429 -0.08404073127046917 -0.6412566660624918 0.2284739719128017 1.269195291336644 -0.4425740871818679 0.2152470542335156 -0.1775908841387022 -0.1120292895751129 
0.7061210385493297 2.075204757560508 -0.7857132035493106 0.6014248179945314 0.1411487538679533 -0.6592307929371279 -0.3445650034941153 0.687058960930313 -0.137528820417503 0.1328482888064666 0.1209379752743 -0.2691352521409067 0.4811680852420895 -0.1554888108472981 -0.2798562167829484 0.5473586753493648 -0.2887947904947676 -0.1333921663613843 0.01564488575348968 1.353300140403299 1.01616054429502 -1.152796875777885 0.9315199632074392 0.137074512982228 0.1250742369969732 -0.196620489335612 0.3020662849941451 0.27373393660416 0.2952737175105966 -0.4506077148821527 0.4140120335867986 0.2720107501497743 0.8696702635944179 1.496956452427369 1.451195121689296 -0.3563099047615678 0.1783402090510795 -0.05592311685240776 0.3541472257235298 0.2583152567190595 -0.2514182795525398 0.2724639601122588 0.6413445022616894 0.8247149204479478 -0.7864857601524325 -0.03855319541244389 0.843596961781273 -1.465893495122164 -2.216170556219955 0.1388420120807494 0.251534708934872 -1.286985735743847 -0.5349161065134563 0.1091564208493041 0.1622404672409203 0.5579243713748235 0.4461564590444296 -0.4384641504563954 0.5318028884595496 1.567071988493872 0.7864540843837406 0.02444493939725495 
0.002302395684682475 0.4242532905134563 -0.2007655435200563 0.4080065106657258 -0.3079578887113828 -0.7156753332805884 -0.3680956123737734 -0.1666351099778691 -0.7353812769236715 -0.1394581794695966 -0.3937485736852235 -0.5116589696503884 -0.2034800502848576 0.08724290993709831 0.7903277062486895 0.4502456953874771 1.101558133399146 0.2683931510637558 -0.2118548239342488 -1.108086669470842 0.2732876562180191 0.325293084852794 0.1343461931623045 -0.4720424596616163 -0.139426834643431 0.8998305514368989 -0.4987460482715418 -0.200309767733631 -1.07957702564692 -0.1705107807229118 1.183490375092766 0.6339487551989763 0.2776376306814041 -0.4928060327416248 -0.008333539225414657 -0.2702950930161951 -0.3087944875308666 1.019011738705513 -0.7308791733689076 -0.1391012024914082 -0.3088675676019148 0.4068418426955536 0.2710601454065474 -0.3884272915053728 -0.240274378496795 0.8183360587400946 0.324753439721254 -0.4353064035981582 0.6562840028733155 -0.3464147569519985 -0.5098032425027927 -0.321154115374751 -0.009011243182145006 -0.2621925889672096 -0.4361011550035881 0.09686403021524126 1.581496898660938 -1.026237727825305 0.5759380761679043 -0.5956255491053759 -0.9973609988912507 -0.05904859568624793 
-0.7572521964939938 -0.717604964453286 -0.1908123320656533 0.1628723533776877 1.458071929544312 -0.1406242669130589 -0.1592896336550115 -0.1356657905184413 0.4887840210033254 -0.7863503885783174 0.5143059264992459 -0.3821931271326179 0.6298026023867781 0.1528011307326418 -0.5508339067465147 0.09334815266186239 0.3934232195375469 -0.8145374157904046 0.01310467394139823 -0.4118861540113817 -0.2345215663478629 -0.08189228026703485 0.7025510820185569 0.3472730936740068 0.3032212977480114 -0.4559263645004117 -0.5371499599308814 -0.276012777464712 0.7832365474234124 -0.3806986513983185 -0.1075891974678735 -1.613491875105302 0.9999375951257982 1.103248637852313 1.067993141667841 -0.2448140622560573 1.046106209311129 -0.07875050377472509 0.1430511741384211 -1.248600965156155 -0.1210736733083264 -0.5050433277297903 0.6805180714048709 -0.9101612551206862 0.7570173052396146 -0.4616764375219724 -1.026791014228926 -0.6290408196690989 -1.185504762955788 0.168790365896854 -0.06464318266855042 -0.05858708576540488 0.2906535574162061 -0.6862124168262463 -0.804497899059887 -0.2567198654801457 0.773111533874757 0.9981652019763795 0.4818177756938813 0.092245870554299 0.06249345781679307 0.1761283599437818 
-0.02505696938997158 0.05123519782620738 -0.1426024087406435 0.05076892870373252 -0.3875258238487559 0.01333229398354347 -0.1404291173194834 0.07395318509876951 0.1184475778282762 0.159302346229799 0.4597159449335469 0.6608241288011198 -0.2299254714377055 -0.8399021198548641 -0.1750392252378239 -0.06055065119646097 1.064869194793959 -0.4103029035052583 0.158413505839051 -0.3859588909264731 0.3728002718011353 0.5494003326843175 0.09145401391207253 0.3298171480826139 0.1182243104254451 -0.04306362915865354 -0.06189764677472771 -0.1936770019902103 0.1662190811049277 -0.0179274550552939 0.06528051643730957 0.07859611425615932 0.7635877971339941 1.834573138042706 0.2709498687896776 -0.05933390212027973 0.06941213746436088 0.9954542531237021 0.01297236285641704 0.4594992749270464 -0.4725203737990585 -0.1852374761776731 1.57164683237387 0.5189700453665678 0.3443202868453923 -0.2345807945148284 -0.1508398473799051 -0.02010019474613762 -0.2545649198859307 0.9215791999465771 -0.03623587758006223 0.8725998458096527 -1.201222605007501 0.5312495949622368 0.3279501634831344 0.3736965864851416 -0.388936076118841 -0.1336976414813796 -0.07298435082224287 0.7937501580175044 1.065760042896342 0.2928901741874442 
1.052893294419575 0.1481948952986976 -0.705139504991614 0.009377449203591109 -0.9611348952966101 0.1585291321585001 -0.4099674155021895 -0.7013091093354976 0.5001974499711161 0.602688209285541 -0.686144224577132 0.2980059684794535 -0.224017419249576 0.6260828354555006 0.6058164001663823 0.8463813722700173 -0.405651761328184 -0.08205854372700026 0.6557066159800652 -0.1488631761908972 -0.07217073836604709 -0.4049272150456006 -0.7405879289430718 -0.6183171206862298 -0.3554245308811015 0.949149829776479 -0.1469674515325853 0.1663429827828798 0.4183871639264605 -0.2587900831507092 -0.07159976883836999 0.4050388429582493 -0.5543182326666563 -0.01025595741064204 0.02140822508677241 0.3475195109296357 -0.1565289358372965 1.005914220548114 -0.2728591757666523 -0.5204943611217751 0.2011448273014992 -0.2021547855962937 -0.4772410728795528 0.7987705286603699 -0.1236127623316711 0.3087233106458652 0.124529149479458 0.5179177202071699 0.4409125185923484 0.01883931289653297 0.5044927878729529 -0.7555393044455204 -0.09605984276759005 -0.8096474802269655 0.04881772887079444 -0.7028426651658506 -1.258038568911433 0.7033664810205309 0.07590665465063019 1.296220024741005 0.2006622064990365 0.378198897278043 
-0.03612163475723525 0.3631383017774531 -0.03823265020258768 0.1366469038171117 -0.3899609293642531 -0.3230008488788239 -0.296697581411532 0.6649236942850369 0.4894924020596657 -0.3815355276966257 0.3221590145820115 0.5849991478858504 0.2037768986522768 0.2669560335074512 0.730079168014608 0.3278246819016409 -0.08646424017098411 -0.2228266651652963 -0.3399905930099399 0.04751470688392765 -0.2087069017194022 0.1284379692138081 -0.4559005658699124 -0.8242729293291351 -0.3600536669304167 -0.7265522569235873 0.02905512413289297 0.1951564309374523 0.071857524015803 -1.197955897569296 -0.9408304646897664 0.08468724971886789 -0.3976800024810675 0.2259242678793749 0.7443922328790934 -0.6456126501509849 -0.1446710308138301 -0.4141852381651305 -0.5506409929146636 -0.07356060405671001 -0.06020737674829668 0.4560371573277024 -0.8140747382555255 0.007938230646685182 1.257863132817342 0.1161684969484186 0.1242347643053915 1.129764004134291 -0.4190123238938263 0.4445407883551132 -0.1258071745113273 -0.7942920886484386 -0.07703192931498425 -0.4173592726965547 -0.6140803555902251 -0.6576579355308221 1.324478969880929 -0.3656913588145571 0.504579205405186 1.077948671001754 -0.3818219764082599 -0.2728181909280832 
0.2525439989237601 -0.3475171345100649 -0.06886424028167995 -0.08056996086540316 -0.2244250442805222 0.2379798920256166 0.05182861543947581 0.414539828578135 0.5339198378166999 0.06170925441932281 0.9072892650037869 -0.9445288675149783 -0.05242448472620991 -0.4728023769863517 -0.4003947340340071 -0.6135985326040378 -0.4014605968001926 -0.07984625771897599 0.3523746231129277 0.4934121245686731 -0.6596139333256987 0.6110178918081621 0.408417409782072 1.552672871452382 0.08448405074567324 0.161507394942773 -0.01030318308652526 0.1904802783272535 0.9805918197952246 1.176034941152381 -0.2625661490855017 0.8634157989504158 -0.714910431878637 0.4415037837364892 0.6896235313279235 0.70868174898428 1.054747543621018 -0.06783623008773812 0.407061182948078 -0.5137540433898412 -1.337044158516067 0.2048345112816857 -1.093968944572713 0.5050941328172384 -0.1841831189318954 0.4647176525344422 -0.25769989735174 -0.9182634588459502 -0.3536200800988751 -0.9271654000009629 -0.2591250001734239 1.081255062302887 -0.4623767178181982 -0.6271653136623034 -0.5240640001990067 0.07289669404719909 -0.1816051603145913 -0.03623997244433094 -0.08185286049625613 0.198595402612868 -0.2729574643949776 -0.3123680796563474 
0.6377439631553109 -0.5722695624467513 -0.1243157022729119 -0.5097720707005228 0.6263423209301281 0.01369997745454092 -0.7388924104370551 0.1992266666542837 -0.1168799180339824 -0.3248838562934744 0.06544515116687546 0.7745119905222725 -0.2761928207359538 0.280080428216483 0.346353695170703 -0.8176062497637063 0.3954145433000232 0.2377070722311493 -0.1884660121834122 -1.90369538902451 0.4291775266367732 0.2897179339974486 -0.3275263730640533 -0.747929590301065 0.4754074518955378 -1.429392132954066 0.1052912527469328 0.3478267849964385 0.1330771857145133 0.7730803854015926 0.324473228703939 -0.819469284884368 0.07791346131808005 -0.5261235519178861 -0.5143878525114844 -0.06862946008652823 0.4125137989988485 0.531608381979128 -0.555292077915164 -0.4622633770096404 0.3348180341219171 0.2035571894141696 0.6768242707641919 -0.8464197119626172 -0.8542904847950219 0.520852725808181 -0.01136750267809513 -0.3707867876558639 0.270602321187065 0.2576511283255124 -0.6892016806564254 0.5257376546327408 -0.7279786778300502 -1.235064610994719 0.3803899914245462 -0.4442240816738218 0.6285199007905775 -0.7596904270753081 -1.173308591900275 -0.4322577729494948 0.6540206917752854 -0.3177971019027982 
1.138517281715755 -0.2088250621635727 -1.174684848999374 0.04892053229980219 0.01090456160291357 -0.1093501611664 -0.6898278847525566 0.8570224653077549 -0.3335479309587169 0.05239669133950165 2.057749911222999 0.5788084648894967 0.1804630166301866 -1.17178292658222 -0.1582775340161735 -0.284784668290253 0.3504078021001604 -0.4515971452010798 0.2882146739446466 -0.1957157104835625 -1.222960728597263 -0.1666925381797984 -0.1047092406411949 -0.356749183925129 -0.1184469690402105 -0.4657577687512331 0.4566785474448253 0.3407267584974578 0.7916354484759338 -0.1865349664843845 -0.1387374769749505 0.4596787660534854 -0.2397163935763364 -0.7879830882623809 0.3011504930678462 0.8664727666846923 -0.2934367174502398 -1.085062003441458 0.3373640575051475 0.5300703872998388 0.631621602669169 1.61753974918351 -0.2773757573923869 -0.3754277253515448 0.2619672128363402 0.3579926350492655 0.2659726308068142 0.5081437960044708 0.281323041897784 -2.128796976392829 0.3039295854997441 0.2588458911802687 -0.8693935151116952 1.212701782757722 0.2800002999985263 -0.3387913868475217 -0.4054996144722129 -1.210695919250085 -0.006378208754549721 -0.9202459813899154 0.7993280358667708 -0.1386160360147069 
0.5698911616858219 0.1400569111672299 -1.04053749134564 0.1931743396470678 -0.832321015278529 0.1391176372860733 -0.7264614689047976 0.116450185068099 -0.3006476188790306 -0.5690715156462087 -0.4021571836687132 0.5759084279057103 0.04602368000619574 0.1196958356364545 -0.08804287873460928 0.8641518831270879 -0.6100227227365553 0.8852131983088892 -0.8052474611068169 -0.2053152532260643 0.575972534260886 0.1692737566721101 0.2157795452545231 -0.1508321950203433 -0.1168808417883314 -0.174681823681753 0.09023754065535081 -0.4071203589694344 0.00711493707752732 -0.645584815290585 -0.7259090140243472 1.264748624357088 -0.1479880751700632 0.0960346619105153 -0.2106959216484302 -0.03102590488794115 0.3894484190676961 0.2668700683512241 0.3696702109081473 -0.3089746027845252 0.3422823926624488 -0.4145077071387709 1.152677932143367 0.9931391882407146 0.8024935794003736 -0.3454215765134102 -0.1859365799978168 -0.1284143786208093 0.09532172123685442 1.380222371420182 -1.273333651518558 0.09710490463283925 -0.6065572671268648 0.8284216843766844 0.0328261552767147 -0.4790630663718725 0.6824100271012329 0.4249287926974623 0.291732668354462 0.4846264661097703 -0.3279775551523705 -0.5272493350154441 
0.3543409969675521 0.1886196694006511 -0.07354657766143954 0.1660555273000427 0.1333645062399688 0.1894795186891846 0.02766465134330492 0.03772284348216247 -0.2734077413324584 0.5664455842592044 0.4934972928133884 -0.1046560256979442 -0.2521678071045328 0.3023633279271875 -0.3699818489693273 0.2019337343999554 -0.4034196812602137 -0.3617282164798755 -0.5268364102250496 1.091525391135995 -0.6494599338470369 -0.08084081773161725 1.52040473631238 1.269307579877555 0.1699189812613586 -0.4484766829233251 0.2631720524659978 0.2308003785902832 -0.945872632094044 -0.1144943699214741 0.120198562839565 -0.5670820568530874 -0.7637377297584494 -1.225891263588569 0.355829081681706 0.3830016843629498 -0.6153183929524788 0.1682168026162165 0.4658619334679483 -0.9771148025253804 -0.5062745488628397 0.2048278257615437 -0.03205346559710391 -1.582093665775902 -0.07102591387178979 -0.2510667809853456 0.1879368744432984 -0.04937441422508636 -0.5816795460854999 -0.2869566522356144 0.3235937206437475 0.6430103159256199 0.05820583908374855 -0.01700391654759427 0.3310692606718152 0.5111504665647879 0.6759201692863198 -0.161685484598964 -0.3143385977650163 -0.4278823472042981 -0.2084227734012461 0.4638748761146788 
0.4904746044013389 0.797649530456474 -0.617142542449426 0.2568622868885662 -0.521714916969221 -1.027313079316146 0.4642414748554535 0.9054084756767371 -0.3392821154749893 -0.6018940857851057 -0.9857451965677539 0.5926392205202539 -0.3194520575257075 -0.1212986170176544 0.4226416161083199 0.1496024722239793 -0.2275761527393922 0.4702156951077102 -0.3355144454318448 -0.004027487211766279 0.4859533626801971 -0.3508354416336412 0.02904519884826931 -0.3803322089359945 -0.7811125607278653 -0.05905223698254329 -0.09687396338233191 0.09839967160993476 -0.4010248576465467 -0.5202695151023199 0.2245932197295068 -0.02069445534160332 0.3566821726920723 1.067504837027198 -0.5820487152086109 -0.3436736090909322 0.378244059015454 -1.178965168030323 0.3398433871607456 0.3279992482851751 0.6086367929568971 0.2316462923260036 0.06232684841697914 0.8832639685111445 -0.1437096762713442 0.1601611273998275 -0.07930229803065141 0.1790872905724182 0.1090528958770684 0.451951483709103 -0.4408185553308485 0.7722041486989797 0.165647965468808 0.4628473571941394 -0.4806110958600823 0.2680462612011973 -0.05799736238937599 -0.8096084999170207 -1.118797459381574 -0.4400810290699338 0.729704492264857 -0.3767515978957548 
-1.793558926371301 -0.8579589198237957 -0.476505437121831 -0.4172620562681512 0.04243278556885914 0.1501888285206292 0.3354334295033643 -0.3226845093902623 -0.2465196632024897 0.5398253293476964 -1.205757910284263 -0.2145045715089732 -0.01457477161268511 1.604686499820621 -0.1315596332485658 0.07957880399457957 -0.3758681361964401 -0.1653760496082566 0.5484397796242806 -1.319591487552369 -0.5654555897291926 0.8762338669312926 -0.3904923973162131 0.4191851269141392 0.3876884150315291 -0.5175188230743717 0.6609804516473682 0.1258052984897082 -1.56230010070598 0.3251471737520011 -0.09891071671299383 -0.8111324643351191 -0.1284810375044967 -1.072143113552855 -0.424106275106023 0.6144507991389868 0.5515486568198563 0.6176000506454177 0.05732457544898565 0.05744565342506752 0.4109982675025679 0.2905059741755265 -0.09482720715466585 -0.2917908061949607 0.3080034138662807 -0.1461703958352206 1.061647292184468 -0.259280269509261 0.5603625326769457 -0.2214826729433668 -0.1652452113200042 -1.785156264775835 -0.5181279683279482 -0.8308807637908233 0.08396208511512028 0.1014280999550333 -0.7025811611225067 -0.8474108263563022 1.043999488327743 -0.195349836848574 -0.3057035589591777 0.01128056070234242 
1.275232443004396 0.2983916967550147 -0.1057744162804566 -0.2328408383220139 0.694015188623803 0.1219767504443599 -0.9485019915518745 -0.4950505045899426 -0.492098814016403 -0.08493048186416131 1.057490810384855 -0.3254592949061271 0.6717464535636312 -0.2265314039385638 -0.6404517711006168 -0.3990331146425031 0.6074421793652934 -0.09304684738229703 -0.07895925540772263 0.2346496515816656 -0.4491452449116046 -0.1245431787291263 1.142472474917536 -1.280692907879474 0.2924009886368449 -0.5757097285121967 1.416293793252809 -0.1354429771734326 -0.556636708102791 0.371058150089252 0.2246216165817635 0.4529997222883259 -0.4908028481389879 -0.321534945788324 0.344949461396629 0.007224662453509523 -0.2285738428184156 0.9351533804806749 0.6491853324009702 0.7259852887565998 -0.1635226757367488 0.2730917603401335 0.1563131667057447 0.372713268002028 -0.2658236142850927 0.2188913739476447 0.113287857409897 -0.1526368705829955 0.7241206728115395 -0.2223349462835347 0.1341119303315928 0.4451658611925923 -0.5243059344607401 -0.005053582908401222 -0.3509616694339098 -0.3690935889951837 0.2671838652596669 -0.1526331894222296 -0.2211803047023594 -2.118613989860432 0.4242132640978615 -0.7190742320114756 
0.04612241903342885 -0.1693477459826208 -0.7841125694542983 0.4180371691087073 0.1292946415076529 -0.1570873037506181 -0.1061611960846405 -0.9292336605401011 -0.6385468722933895 -0.3137154365592958 0.8437476672761188 -0.4471929872082901 -0.004499049861770624 -0.1883117959577371 0.1745270348328856 -1.121542567293959 0.3032664284065727 -0.4826282331944817 -0.3055732784199474 0.4327775533903291 -0.9948183163351223 -0.2761211215122396 -0.1903175541574503 -1.038839428154111 -0.7025648218344714 0.5884850408605602 0.5668805575474577 -0.669303500167572 0.004992497753108403 -0.2230087681546026 -0.1647155672645844 0.6596933395256971 0.2086363592031826 0.3193092012511495 -0.5785942224133311 -0.1050882386255935 0.3642484337227345 1.493503693239266 1.155912382751259 -0.8218562842277523 -0.3867562479734066 -0.7370371903072513 -0.2060101664908524 0.3207479518123311 -0.5991678960711315 0.1276734731093384 -0.841487102563458 -0.5511148358847672 0.5464939965253374 -0.2303401068243424 0.7867272396685988 0.1612447558931685 0.9992081097377897 1.373376883092888 -0.4621259360535843 -0.8931932175644475 -0.07036264431889135 0.6515016647732644 -0.3703171216642169 0.1194593999945643 -0.2776174970154268 -0.4084525480321718 
0.004233356051356861 1.233082806360226 0.7796450453699413 -0.4190583837276045 0.05538457869336213 0.6170102026557511 -1.070737818207785 0.6816374092685804 -0.1342466954225109 -0.2560307959508467 0.1098510148947936 0.7701071855906645 0.07401193899775901 0.7433952577888312 -0.0866592438053462 0.4056322344353704 -0.3405907186423612 -0.07718059641642819 0.8657202199449315 -1.19892250636706 0.06954762243509148 -0.1577744901707099 -0.0676541090250668 0.3746059191257424 0.1182757358232414 0.3696336629770851 0.007462240738026074 -0.1926517461856689 1.145549842121309 -0.1727547736890035 0.2692182616786424 -0.4840192759345422 0.3281749975033439 -0.02539110237766085 -0.2593629129081058 0.6116295737652757 -0.6012914079532313 0.6440572164502659 0.3111533944645646 -0.5685822786957286 0.02520563030643806 0.5911679176295186 0.4038769133566663 -0.5757811234932247 -1.215645083184578 0.2509064120037349 0.7941447346875679 1.316437220620623 -0.8123586685646754 -1.119253907056082 -0.1579061589231412 -0.2698485576167126 0.5364744990403166 0.3173208810018025 -0.6663819884991046 -0.8052560446456816 -0.6530037987857116 -0.7188202015542861 0.3334045846430612 0.4234565223029518 0.1230193732220718 -0.08944790659649068 
0.9582247876103666 -0.04504869169696703 0.6244636535810011 -0.6867451573875533 0.4911977856651525 1.065352283400079 -0.5979910200225746 0.4391710645160096 0.426826217328744 0.02831150967910283 0.3541531282361636 0.129416157879889 0.4428288985806279 -0.1427695866894272 -0.211802474878863 -0.1326609644235658 1.146591426348402 0.6769669252589422 0.1996080455477689 0.2655992420358347 0.4631900443196953 0.1547934137489962 0.5824542950975405 1.152490551747397 -0.08005643207926308 -0.7676751782540832 -0.2490796209657671 -0.4441843981705317 -0.1179707363482154 1.379455225638411 -0.6302918381718281 0.4497619214430818 0.2624389632976633 0.5733628879122681 0.07885342663490991 0.6043941198196808 -0.4664730558188934 0.8507751074025832 -0.6280638723546982 0.08234508900854304 0.009577674237892771 0.266297466522999 -0.3892693037829613 -0.3431504095364128 -0.2543469066040439 0.2746868227230596 -0.1485634226376308 0.5447911146729644 -0.4005299224473872 0.635602283927299 -0.9589356792966649 0.004775599780110941 0.1237224483196898 -0.5843968571909789 -0.1790502322317095 -1.627948649551345 0.448796970262858 0.03488746579799347 0.1104611443871508 0.6335618474366328 0.6522882746748264 0.3385251575707254 
-0.09045573004639086 -0.6558266263228194 1.576834862775091 0.4986840085530754 -0.1401697842941284 0.4404399098095124 -0.2455334593433401 -0.1431512285344015 -0.4760812113222093 0.2462774924919444 -0.07940735691571654 0.7711573024254386 -0.09735230123473979 0.2211136445818931 -0.2983958363056089 -0.7483253910071002 -0.1613534126681508 -0.5640497277133194 0.3128703713376637 -0.8075346578861046 -0.6429011233109792 0.1800828172839844 0.05136586558691946 -0.3259325897166387 0.5182565748236091 0.1046321962400449 -0.03202585813737576 0.09659261759503025 0.05617915598378936 1.355701404730805 -0.3478179904276393 -0.4455820100931968 0.2114918522691846 -0.1188536719937967 0.229783230911699 0.3170819072390415 -0.6165399110177966 1.143860944971097 0.4167158270894886 0.07770176792782023 0.3321045650665353 -0.4990676222040341 -0.329559847456714 -0.461371403321627 0.8299613233618548 0.3381031201078258 -0.3762217396541025 0.4575641312990125 0.608451043285241 -0.5472599275499577 -0.7906848262628581 1.333920413560532 -0.8237441125214212 -0.7109258646615676 -0.8201032274634372 -0.08942341287501789 -0.03313759112193995 -0.01084132118690829 0.7504600498035565 0.5505611038383431 -1.374059602337001 0.1433016287268304 
0.02875144747158892 0.4171045122168056 0.06272736590540805 0.1076103844871454 -0.9586131740429266 0.2363603885080321 0.7544103507782478 -0.4862246810823523 -0.8640162557317945 0.3392594231234381 -0.189243346623378 -1.535005039603655 -0.2879751774471369 -0.7549199842086576 -0.2970143019202319 0.1248329234802067 0.6570980986976001 0.7110694688410246 0.2819009352447542 -0.3148514541527206 -0.1829109020453589 -0.2875336723543021 -0.3741144524090196 -1.522724605823247 0.2831646481451893 -0.6478129915162648 0.04018758552164244 -0.173671458826144 0.2137609210574994 0.7355001896563568 0.8762599182134292 0.6564578148486198 0.314414370875209 0.9140933882233463 0.01841124677411161 0.7022648967892998 -0.3881837446102751 -0.9332614784774601 -0.2959737317804198 -0.3655570063140575 -0.3006553503479646 0.04836984426607634 0.2864725382025843 0.003307548595508402 -0.9361859923591582 0.008662192606242567 -0.9114716596042282 -0.5677048864822776 -0.3279552203389591 -1.822562358561437 0.6837225191835585 0.5336157760547467 -1.326086793847701 -0.2584059432249422 0.2874496524912455 -0.3157427929416823 -0.8636878846147863 -0.373862207285049 -0.004536091245794955 0.05846867461071099 0.8801428020891455 0.2426357088494078 
0.04893512087462306 0.1716519252379179 -0.07795341857555842 0.2271212571031304 0.5574991577876137 0.1885159912547743 -0.09059846251352308 0.2518262624325325 -0.23638130940562 -0.4310090225748884 0.5484300494196648 -0.4717314459671297 0.08128755349278979 -0.07432429733667693 -0.7018189116415869 0.5025850868357782 1.029432969279667 0.3730774009654956 -0.3364324617603004 0.7332497677443113 0.882522712888262 -0.8625212934890224 1.476795691521662 -0.2054439755735772 -0.02567733772934367 -1.15155099617683 0.1583490851596029 -0.001941195156098464 -1.490982830629682 -0.7235628057503587 0.2991985050610407 0.09192148717579576 0.6270224316018208 1.435353141141079 0.8475561497309716 -0.7352050473369842 -0.4981966970695563 0.3673817862687819 1.002001589157222 -1.685351464784776 -1.15744388939059 0.3846934569835915 -1.404222497865466 -0.5803908344031939 -0.07165509223413702 0.007930629280909316 0.7922966406915626 0.9433277144896556 -0.9640994167363907 0.2365224910898895 -0.3040754685621752 1.089226262105899 0.8049237020839108 0.6500552143976094 -0.4445451614327033 0.1731384566456835 0.03834192571183441 -0.7732430222075987 -0.5886561842119428 -0.4905816743767932 -0.1930625214629336 -0.6041635540870268 
-0.8656355774320579 -0.4029368739303913 0.2465446580374955 0.5084970793956041 -0.5612418138438972 -0.02242250179759991 0.07112331833571392 -0.2178296700381213 0.6656630537360968 0.02537825018438816 1.488305423024485 -0.6801314551126207 0.08289246076268997 -0.4411889978824524 -0.604151187330029 -1.079555695651968 -0.3093062692449569 -0.1945788027030238 0.320650266155364 1.226364073275217 0.5994438673270233 0.372621788453471 0.1483336109848454 -0.596397907626528 -0.1794524360617527 0.04412089428457183 0.1980620401643941 -0.01157089240723049 -0.2430991713788825 0.4649044782982684 0.5366288911942082 -0.03763787949317469 -1.030378697159092 1.206134338251178 -0.1412813535652118 -0.6209630573354898 0.2952831694793484 0.008369221421598971 0.4954700705167545 -0.07753320128027021 0.4895290817891687 -0.1999443666778518 0.02081719791196504 -1.112948031341375 -0.09237433999925831 0.07437336292211666 0.449028041204444 0.3911834210360498 0.8650669944065261 -1.722081520936713 -0.1016803111429873 0.07827518702451254 0.616427979673615 1.513004140264139 -0.3070252073686753 1.572821311934256 -0.2098228802880721 -0.6695270569662417 -0.6994515476255212 0.4557082699863754 1.133802687775498 -0.5384752689660842 
0.1779245694781518 0.7310478703213313 0.331285709812044 -0.405194892743946 -0.3907284244152244 -0.5740279196267994 -0.6669204947277342 -0.292802313113386 -0.1873304446058777 -0.3826851085701362 -0.7834187413791517 0.2255490541302945 0.2548247390592223 1.329513802099714 0.3133299360822491 1.092942103719263 -0.4009301884785162 -0.6362495611183753 -0.2503608885552447 -0.8357232964235761 -0.5755216432370417 -0.840995106271471 -0.1625229258701869 0.0445057707268312 0.3148325300580444 -0.3136276360254842 -0.1085732238561729 -0.06355826279266392 -0.06029735712067428 -0.4577205528988103 0.1344000567541313 0.3408396100878698 0.3446391746045412 -0.07933646838638592 -0.008139268299403509 -0.2958387785776082 0.4943499689468744 -0.02609119823317228 -0.03817926461276502 -0.5084449684705771 0.3937199654839916 0.5766601263222367 -0.2137502760582522 -0.731042348850296 -0.03439680598030208 0.1554900498740196 -0.1131255323742691 -0.7717560339381386 0.4876486228127311 -1.129260453013372 -0.6232635781821053 0.4786565261391971 0.1018023336024007 -0.3710814514716451 0.3384603031067845 0.143935526367753 -0.4506382347318704 -0.353711187902119 0.3239015380894016 0.08678841013382309 -0.589512220139813 0.1873209102981076 
-0.9860576811745342 -0.4628354303278098 0.3266768274697713 -0.4680163103533482 0.7709292649210217 0.5851037399641351 0.2716654528435874 -1.047651481886509 0.1144739697024149 0.6034079139874332 0.4662033003981274 0.4041244765622333 0.3866225277697041 1.407417635834697 -0.2640680162915781 -1.298924425231908 -0.1117062665211129 -0.08355644102376414 -0.3280123094100212 -0.5343523748238 -0.4839665554391011 0.7246288005588833 0.2535021589799316 0.2084971857039575 -0.1148531752747721 0.682354655295325 -0.3991211332888579 0.0243548372752142 0.2588511848719272 0.1779644972569378 0.2787276423876272 -0.415963689258291 -0.3888628688898327 -0.4414132860920914 -0.04055274688509359 -0.7784734971285154 -0.9497144537575141 -0.05343672625739369 -0.05647031530065275 -0.0451661849844488 -0.3988635797237496 0.5988681358540047 -1.805836697973568 0.9257591257430284 0.6024213455318529 0.6459957632350495 0.4444396396068793 0.9765961577848624 -0.1230956319377923 -0.04813144828448949 0.1785938339243793 -0.09794305773337464 0.1399472114204719 0.1007646812763041 -0.1364155010657737 0.9725414502914786 0.649415804785771 0.5251378050683391 2.016291081182248 -1.18985689597929 -0.509622531743676 -0.02632590116419003 
0.534048389758266 0.3260483319310375 -0.2521881348732896 1.699620968596441 -0.4948902621251588 0.2146538755481019 -0.4179448784350435 -0.8362793267360531 0.1463322165490322 -0.2760026681399685 -0.1319972738908556 0.09736477895785843 -0.1191235349828441 0.08789393716949101 0.2122507256385916 0.8066258534100555 -0.8865152398773469 0.5309503181151658 -0.7406390699915376 0.1589103198215519 -0.03022124573837756 -0.6276231461330081 -0.2412458790840551 -0.1868372525853547 0.09131855911112197 0.09026873817623128 0.7444454777232803 -0.04859571203407559 -0.3696058568669811 -0.8416373660413675 -1.179880532987071 0.3190716460098235 0.2028662224760308 0.7911687978066009 -0.6930416149948952 -0.1274015539793358 0.4627738957575755 0.05610730301369705 0.7202267798108787 -0.4660102576424322 0.2389852742895195 -0.8872978986669525 0.3055753346359436 0.3883598921709132 -1.023320432046082 -0.6040576176331274 0.06567085149925032 -1.251482528354495 -0.2712943481752829 0.2156120341119126 -0.4020787258908176 0.9294744644561007 -0.4186547386251632 0.9399182222166099 -0.03523731249324834 -0.5422577910208318 0.09488949752127399 -0.5060885149292262 1.044254648440004 0.4173854220580428 0.3651273923247079 -0.2489523360472464 
-0.5995685988329623 0.52375155608519 -1.561997770485839 -1.035598400316121 0.02048406414765409 0.374037755606826 -0.8703082649499031 0.4622678989300378 0.1486910717130534 -0.1032100466919609 -0.4861298306075762 0.5677980899275256 0.4314954893215564 -0.873516643194832 0.4994391082183103 -0.30816972411164 1.347401704612277 -0.4250404414926768 -0.1343289766882758 -0.4214132556489572 0.2952751847261338 0.7071054023926442 -1.12721661265679 0.6140881510771308 -0.7360716420889825 -0.4873022821655894 0.6138970723663093 0.1537108303184905 -1.469805909256906 -0.63605869988409 0.9387276224969966 0.5346438699703608 -0.5480432904372547 0.04178131997918629 -0.5280764796223602 -0.367232913015644 0.3207600042135808 -0.6583507465831084 -0.3483168111060378 0.1804707917534071 -0.2249671065074771 -0.1289729585713504 0.2028001513081891 -1.017678821917138 -1.514114635924293 0.1081099249177957 0.5387794713293985 -0.8478944283835392 -0.27097023293372 -0.7959495027601359 -0.3342313339833218 0.00644234692602527 -0.7862171667752142 -0.1169910917212608 0.4761233034165662 0.1104651838079493 0.9062370666363539 -0.6818270345375522 -1.240270444354791 -1.235447730070448 -1.149354800619693 -0.7815556997430992 
0.3897610859212992 -0.9638072552430736 0.1623628166298282 -0.2415738720241792 0.3257825735560433 0.1202880039135513 -0.3076909277807035 0.03365033316232323 0.7569024153563744 -0.2445252523598676 0.6371347089492312 0.1187239168421275 -0.3355732256152422 -0.4475769952800611 -0.4435082764580252 -1.066943244248882 0.04859523400541793 0.009867087947203288 -0.8143480622923498 -0.6022241334640313 -0.07077223103111718 -0.8453349385992606 0.5567562426240403 -0.002580552740266776 -0.4299755431393406 -0.7749432247355661 -0.01297076992576271 0.347198998040017 -0.06820069800602208 -0.7808094432295306 -0.252426136246142 -0.1007850873902391 1.640816288107396 -0.8413414369908642 0.349960014327278 -0.1435195856607943 0.1482026286323739 -0.7883235557361264 0.4976709042559967 0.1919657198096323 -0.6658248896764783 0.5276144994918641 0.4470556069834946 1.221223436371232 0.09727781672810211 0.03991092007106172 0.6332125082538886 -0.8627239257073952 1.390802617596768 0.2664661665329143 0.7225312004360883 -1.718240716645496 -0.4158518801822985 -0.4261222017728728 1.091641673805788 0.8096098998308191 0.06453560063185647 0.5685441791520359 -0.3191324672298659 -2.208050121547731 -0.4719602976971614 0.6573125115947103 
-1.056680156957061 0.7302777738770296 -1.274634202685456 0.06689026201503324 0.4970120659970157 -0.7528638733668516 1.080175124392514 0.308009840875883 -0.05562983179656412 -0.2958271593824368 -0.6052024374551698 -0.2885088602316316 -0.3637133081465018 0.006160354907643471 0.4490081733914577 1.356008704424309 1.489352778021705 0.1591479803143104 -0.1117362439682068 -0.02376871373111555 -0.106195418499912 -0.330424687402653 -0.5653917841979077 -1.132985670741869 -0.494735211829133 0.03028173502747141 0.004204967941725302 -0.03436824646589514 -1.927826036537112 -1.599874636816734 0.2266983105542945 1.514116140439627 0.7978552517194325 1.740213967939415 -0.464090992713387 0.06575380448063639 -0.06268138414390814 -0.4428814668847478 1.455762045455625 -1.169941662962103 -0.1974113006774535 -0.4624429279276723 -0.815111190385215 0.4543211220328625 -0.7933162065587671 -0.03207514520929502 1.192020455890426 -0.579937302621888 0.2515984968295077 0.7476228751783293 -0.709117747324307 0.339104677287987 0.3590450768373297 1.289526137787829 -0.05038233994437934 0.9548452762183578 0.1909755621899358 0.1616481382895014 -0.4122666617563325 0.5465044268567703 -0.2839775099027235 0.04769030111653861 
-0.5590401489144765 0.5311792332981239 0.2343873908813592 0.6012389134768085 -0.2342879768119223 -0.0851419823643539 -0.2507429189692191 -0.3022371916257052 -0.2887914560344943 -0.1246983723452212 -0.4681187120398678 0.95044478846991 0.2308066798489501 -0.3445441595553577 0.6147960722175845 0.04683151498370765 -1.212471094579207 -0.2843417807197087 -0.2453403713669266 -1.196239813219715 0.06873887674076233 0.5356179472407794 0.2039430944986103 -0.06459725107857062 0.2103529746490366 -0.8060185650946525 0.4383161341564117 0.05435930958308492 0.1393063045313481 1.21522037457328 0.2894992895614354 0.6443164256186896 -0.3146401040215682 1.210410176252014 0.2959382867689568 0.6233609592093261 1.050065944957778 -0.1231615334898782 -0.7742065938784904 0.1586454954174289 0.8365942499875137 -0.03313008729307204 0.7768122574432559 -0.462926689002033 1.47052377002616 -0.3331135166418321 -0.9800401400940346 -1.161837329614356 -0.2303663867392081 0.8414291673998241 -0.3018436561396323 -0.9569452758515846 1.566238722663657 0.09335731713598741 0.4199502310600686 -0.1092328984371671 0.04564424566202139 -1.021519491265131 1.196086917939918 -0.5008576620547281 0.1829314962653106 -0.3710943870565272 
-0.4647263571526984 1.533315670164201 -1.248625814357321 -0.6597617165109281 -0.2608341575432926 0.1902267052983322 0.416035368541967 -0.09160670382851377 0.6781847493212314 -0.4496438106573067 0.7748834484029131 -1.024114198471396 -0.2940073766426038 0.1744619572398735 0.09679178377543819 0.2536922165102334 0.06331526935762316 0.3936117535107887 0.3005131633890434 0.7479858862498545 1.039404830101724 -0.1852410124990288 0.5328965693046495 -0.755127296241407 0.760001643038426 0.2920747654174926 0.1466385611407896 -0.1132044321916448 -0.01381633621541557 0.08209242044917205 0.2881643557350253 1.147481830465651 0.6124323516153837 0.7460918474552222 -1.010501377302869 0.8764641229164944 0.2871032696530068 -0.0703022227724244 -0.01146814663416258 0.7583017716360407 -0.4538896435857683 0.7876554244698185 -0.6905494034305908 0.4203628166048947 0.04330217697723009 -0.02139954106653403 -0.8504032103500285 0.4461201186808221 -1.690204947991954 0.2057524927820963 0.5916963629883232 -0.1520933935216473 -0.2859585686784277 0.2302993856959984 0.1868820077503892 0.4912254006090169 -0.08970958446600309 -0.4489253639511059 0.08099690271653695 0.404932791525529 0.6857013424989323 -0.2464831550387774 
-1.884538219825915 0.3598445779052755 -0.2228215813419668 -0.4218579485691767 0.09913229552515369 -0.03495335028335526 -0.2155057721738847 -0.1452596504509371 0.4975289918093924 0.3245038539424453 -0.9793297073067395 -0.01064551031888548 -0.4757404445031321 0.1280438711027457 0.06951879770873949 0.1877284107209369 -0.1764896516959503 0.8304723606731383 0.8565734681005822 0.7830320688620807 0.7400915375195013 -0.5471453362845227 -0.06441793174534804 0.7522353218392169 -0.5038903252871938 0.3306936299630754 0.05512293653456127 -0.2113854779101751 0.1549980227778961 -0.9423782213203864 0.6605516404643733 0.3941850856878743 0.7352138207768197 0.1504383583119694 0.6994511437570781 -0.209928289426643 -0.9230372442749777 0.1696548133923633 0.5877756049633092 0.7170091034898729 -0.2448723756297932 0.5078520305688773 0.4555335521255159 -0.9359817050478419 -1.671547482352586 -0.1968440639943556 -1.03430879689573 0.4664327192085562 -1.22668776939905 0.3525208752251048 -0.8767563749277361 0.386836484903575 -0.7481331054425084 0.8240486132112459 -0.8549789996938258 -0.5931574666021123 -0.688534349231414 -0.5878820229980447 -0.2871631383035673 0.1707568472329068 -0.3493166792010183 -0.6992544351505198 
-0.9554836025791787 0.1434536388258648 -0.03498930464140525 -0.8292537520002286 0.1721245480538666 -0.3062373401181193 -0.1004441633403029 0.2075239876097811 -0.3771995295060558 -0.03465260995219122 -0.2380688532893014 -1.170871562922227 -0.8591510631463076 0.3160932900943155 -0.2047448251485887 -0.2565842025369914 -0.4753562515670923 -0.4801278324618278 -0.3282547436699165 -0.07224302738892371 0.1509589360843717 -0.4780114458135152 0.1982776351648013 -0.09163957027335416 -0.03662062179448345 0.5951922921984812 -0.07326832500441792 0.1717186868362413 -0.3560946984503451 -0.7060839570875606 0.1661237441963554 0.09642201858858017 1.066849120755788 -0.2445485354532849 -0.4875440931727726 -1.22919652974902 -0.116031076073561 0.4039427719356008 -0.08453686036000224 0.4662404188403572 -0.06512513341045635 0.002462882643694702 -0.7930882673665685 -0.6504564037581457 -0.1261787405185386 -0.2751147156600601 0.224800749636381 0.5740584193833846 -1.161719770517109 -1.104070305809772 0.2111604085912246 -0.1096094097036091 -0.1216957939299872 1.149741282640808 0.1968560145310903 0.251849787843003 0.3436685505791428 -0.7051670058498993 -0.5536002947388223 -1.049096706331387 -0.01661862265008266 0.2823621891962944 
0.9118917367657048 -0.01836754952665283 0.9609414669577991 -1.101301577852726 -0.2072061771303353 0.7585270603807376 -0.5173689953062033 -0.380754711011682 1.147992977432287 0.4058094254126625 -0.2384078516422336 0.2155505184415506 0.447286720522693 0.06850609271278317 -0.6547883015205163 -0.4981529661017862 0.4891384386896818 -1.420978292493598 0.8889016449705033 0.74392925981819 -1.151929403136492 -0.102680846584734 -0.7343636257270438 -0.1188531449579859 -0.6373128094192136 -1.478080617058704 -0.7050790671065692 -0.02028541911684448 0.2021613815850327 0.1704749043481903 -1.260435712981064 0.7191076750718438 -0.6621426685630327 -0.08333292393301285 0.4679052670722685 1.228603842046347 0.286244222712435 -0.1810976335478638 -0.5125401932030028 -0.3622003331124787 -0.5025500587167798 0.03305257676739233 -1.348734867317098 1.243255036778665 -1.137820119266807 -0.4763482059611734 -0.4237815252170961 -0.3242884067322372 -0.2153189485546918 -0.5157442666514395 -0.7869270687203707 -1.047268789011596 0.08148261160151066 0.4269623296439037 1.231060069267787 -1.209700817513321 -0.5199310101977208 -0.3912549096176106 -0.726336895435688 1.47757040115157 0.588139685512601 0.07142067995155495 
0.936121939707648 0.8076352079703194 -0.703789574685981 -0.228749319006911 0.9884930066237795 0.03084919156880955 0.06612228425917641 -0.5145089549237133 0.07178401580166233 0.03821867696466758 -0.5636121930027106 0.2132373788899688 -0.1311162377850653 -1.106050191548912 -0.09187087783075382 0.3721837615664623 -0.0624282694928394 0.5262997848839833 -0.1148287651629751 -0.1254892747998129 -0.2360814273464693 -0.6448719551635445 0.0630411504512336 0.5695958899027952 0.5169271731599859 -0.1150816824654453 0.07763549692821824 0.336471776062831 0.1429544219751282 0.5224868522119578 0.05149215436880587 0.08570465523434469 0.8560003357094792 0.4905924279209145 -1.422791908159781 -0.9214592170827554 0.3282679919006918 -1.050948241227921 1.493258490283179 -0.7260318831292495 -0.2200508059778517 -0.6069567210916386 0.03274202913670743 -0.2729095018787887 1.158073320816265 0.0145834377010702 -0.332121833243376 -0.1731214845578499 0.07556546059768753 0.3586863612461068 0.3172323963425365 0.7364009694934093 1.692663502136728 0.9405976972341318 -0.1749316177909939 0.1494648995789594 -1.667598054230604 1.2910332746741 0.5322219748211432 -0.9349139809493886 0.3221231509141488 0.2382728696998432 
0.2529171046321214 0.06139438229673271 0.3858699112892265 1.261076482212064 0.1451839423395308 -0.3448363054797464 0.7553048139934129 0.6707488519829784 0.08733181445540457 0.4347700175313289 0.06991644573464686 -0.92341353392869 -0.3247423973321145 -0.216845399459613 0.3142033475831512 2.224668786488136 0.6602468777439825 0.01180100011511057 0.5353527345707896 0.6589763643639432 0.4540554370463113 -1.009625304461769 0.3927741771084405 -0.02638054118046339 -0.04059424156697729 0.8529892999683207 -0.2785414644109384 0.1564585252139776 0.982405590585784 -0.6917439823089546 0.6675364712586225 -0.1085421802335266 -0.8264677097967753 -0.6977389606380917 -1.451658339994915 0.7855294586875305 -0.3657756859605921 -0.5486323449624265 0.1134443789093967 -0.4131708890500847 0.2357809983540727 0.8457563910319001 0.06767989292777969 -0.2016620988380284 0.3942656144514642 0.3724307740810661 0.9122866853501927 0.2151711362785969 0.8066885250758263 0.6705182814903309 0.07571594238578479 -0.312802347049784 -0.9632472840754353 1.525175939825923 -0.1569899474416262 0.08770978451354561 -0.4170034797964093 -0.08283168981655264 0.8028135770655582 -0.2622051836381999 0.8385428756201482 0.04114366339179638 
0.167106694494231 -0.9457756564212273 -0.4157186254435024 -0.7477291308181561 -0.2000318789382925 -0.4616322353580602 -0.4187362676505271 -0.7839765117949374 1.04718174776955 0.2098782059222452 -0.5215868910170379 1.619124901850858 -0.07317122013579422 -0.8007163517800259 -0.1161488421052114 -1.112263106319046 0.7225309768430217 0.09177524631719838 -0.1993169967409759 -0.8690097853821913 0.03939224436262899 0.6869766264320362 0.411900304314016 -1.03627024350306 0.652159631858883 1.209282815845689 -0.4850870178269623 -0.060130609420618 -0.0982778028994736 1.200330716101568 0.06214596549539841 -0.08760271905479033 -0.05438308650607195 -0.5517070701661719 0.02675930433952279 -0.4521801519725459 0.6196831849561238 -0.5695888601314524 -0.01728525966641121 0.3901010983268846 0.1475564649037096 -0.781220792256503 0.2421252119871363 -0.5050737448679894 -0.6439791657379582 -0.1925558327241056 0.1713360363227376 -0.3560880514705441 -0.74955307586123 -0.4317296064922322 1.4501178803137 -0.1762357121598292 -1.077584806814808 -0.03555867538184686 0.4812200651994048 1.309129389205284 -0.4968436386896863 0.3538015837931404 1.956898717285275 -0.9341325660382639 -0.7635548447265124 0.3074528963776804 
-0.8290172950916187 -0.3833973867928634 -1.059795989104529 -0.9471922966158011 -0.6811331217394058 -0.4803935803882118 0.02207802727263255 0.1235385825180531 0.2378942694252426 -0.4285906060530905 0.2442224662958712 -1.407298355388489 -0.01976123880635548 -0.981461328396169 -0.5275570040960184 0.04992861516235026 0.5357569607958814 -0.2513438382172622 0.3759435415931828 0.01694766972164871 0.06719335182974076 -0.05768333840583185 0.6428337081239011 0.03738371182731646 0.1811578089493013 -0.4182823900100378 -0.06864991323875676 0.352601021952369 0.1057589888040788 0.2710602681184061 -0.6062795802645097 0.3045438630142451 -0.3994731461183187 -0.4422861672062229 0.05778285226660395 -0.2673631088154245 -1.024610991084395 0.8675377312736987 -0.2378573308023785 0.4082177926205095 -0.5978889767136293 -0.851167843161532 -0.1073369267138048 -0.5229988358675481 -0.4077275931831605 -0.4266952171361177 0.4259565581175565 -0.4324974741680963 -0.3185541430910589 -1.700345818493113 -0.6258880374650388 0.1531756043664526 -0.01198810432058522 -0.3421754356541105 0.2212739822070598 0.6177353224895685 0.3415815251185897 -0.7068011241534209 -0.04985168444229474 0.1148931806522754 -1.158964554483036 0.3152631576196021 
-0.4237113281401387 0.161709496754897 -0.6693186459195067 -0.4163490519358468 0.02369716590292382 -0.02483916665959271 0.3275206491295454 -0.3516242200115229 0.2125754835155761 -0.6261314038334722 -1.18501057354444 -0.08278007109570584 -0.1621291560783291 0.8188029423976033 0.07762283669539898 -0.2456543971345145 0.2746854699540866 0.7788536023392568 0.06328946688526406 0.8365553458958096 0.6585971774229726 0.6458082985520747 -0.0456885364028753 -1.090199298939055 -0.4957376579441505 0.3040408371593102 -0.3597367392103374 -0.219867969073545 -0.2249674089971908 1.000020856256634 -0.3253480087329647 -0.04637068919786231 0.4586800724226541 -0.183145373553477 0.3693957947591181 0.6674934183325931 -0.4354494461018477 1.176127742051917 0.5077865727573277 0.315301638682417 -0.1687240147920324 -0.3423864578573444 -0.1217928973166211 -0.3245220808316774 0.5801143915727095 -0.06266008206695642 0.8081176305106736 0.3287311591133764 0.4173127578904439 -0.08957059043852447 0.3849778855581692 0.3892156944778298 0.4311098363148825 1.053422802173499 -0.3011114405483412 -0.1464816822334319 0.1124503137546863 -0.02389388241775526 0.2043701297013213 -0.2750599285839156 -0.7913529811319712 -0.2002285876586842 
0.4224165328726199 0.281948092039178 0.8666508510633919 1.673917625133286 0.2522302345159581 0.3444609893780968 1.996721750566664 0.4979094846048142 -0.3864445655082712 -0.1276150594861654 0.8068226373177856 0.6766155242002967 0.01812275922726266 0.6131878978001855 -0.2464038659754794 0.8350226792270775 -0.7174854778681062 0.3201167777314719 -0.6133650844784851 0.02071651282427335 -0.390552008756281 -0.5014452407809082 -0.5340255848736779 -0.7626964343058552 -0.7771489799355977 -0.756513250831535 0.06035297121075826 0.2213366160117731 0.2541199783801903 0.909259725517136 0.251157767807536 0.01330933243035055 0.7041174047019392 0.6550875826177178 -0.1178345419825371 0.3973801403909836 -0.09540728617282691 -0.7571219144652748 -1.271656224334997 -0.3548296227115298 1.248470990144799 0.4547900155721499 0.9703233865016978 -0.08340010041744912 0.9995287703771022 0.7391046990643849 -0.4758712269891316 0.3130055826867634 -0.4167518526004985 0.395196189584256 0.1574973225786702 -0.5983352254293056 1.268695902916428 0.1765311013875699 -0.01094307445951766 -1.030298191873013 -0.3670807668739776 0.06531469850553251 0.02850553325612353 0.5126156250128994 -0.2494935825944957 0.1964149956539537 
0.9579177064977547 0.36022889710936 -0.1613850246775929 0.3728485707954164 -0.1276218922159612 0.3638969104897571 -0.117567932285634 0.1622997845604267 -0.07998198268829965 -0.2623673955442352 -0.1226912178081065 -0.2752117596853491 0.1461626892538624 0.2110830608989964 0.156250808448176 0.4826303682404389 0.4503922388995944 -0.2587992202178846 -0.3243512603392444 0.2484106079095604 -0.09346848513202891 -0.1085616828180042 -0.09167017428335346 -0.6322924210081534 -0.4304134305544579 0.1284700202061222 0.3737127010242317 0.1198141761795299 0.5250751856387498 -0.7409906631895782 -0.9569618006464335 -0.6573615126577997 0.5172650428105099 0.6346366923915097 0.7042414058329447 -0.5212192160653695 0.07288529069717435 0.671765137619632 -0.01303419056024978 0.5879953125016453 -0.4675247416848223 -0.2018678077999811 -0.029277212873146 0.8344011158967787 -0.7151464883797374 -0.3904932199949786 -0.503718886476639 0.9689370283695519 0.4788210071377932 0.6134842345221234 0.2621772729195775 -0.1124011780198245 -0.7453612425199119 0.3874828832975029 -0.8400307161066255 -0.6245329236573588 -0.3159680224656126 0.982734900581778 0.08377621580491412 -0.2426569063909527 -0.9268214793024994 -0.1854141067485732 
1.335200631680205 -0.2561632990855173 -0.6234082951668287 1.006093991338695 0.9313457816068863 0.191346409922264 -0.3473399143472195 -0.4485951119972645 0.3235355887290826 -0.5580793838580768 -0.373663156618568 -0.02259957965106274 0.1438033858999861 -0.2259690268840829 0.1629428716763885 -0.4629506265618051 1.262299660452451 -0.2703804299711783 -1.311981253681512 -0.5231174016719747 -0.5568020598140971 -0.3446691198401947 0.1972960198319103 0.03516731661357785 0.0300725222449733 -0.4785192456813175 -0.3197852420150994 -0.032531867231589 -1.084367023098588 0.3138130900180307 -1.065011790918701 0.3239574722324776 0.3940912912159185 0.6850384301399525 -0.09879930830601809 0.7005845786628317 0.5196491037968239 -1.053149603725788 0.5062238425966082 0.2512542279554099 -0.05473497393783216 -0.1173411420545459 0.3853454028892213 -0.4183050105095628 -0.6060914746032361 -0.6348072465857981 -0.2944720643644521 -0.6495591849281334 0.4060775389882099 1.408025027734316 -0.233686861819459 -0.6003959273519549 -0.6368348810506427 -1.500364983416747 -0.2736234674250689 -0.3883195132943328 -0.0794609173007161 1.155402142187034 0.002839962656743951 -0.6444162231117512 0.1572269829414638 0.09764230952215128 
0.07000383164588235 0.2289914839247941 -0.08893834010667158 0.4303601589488958 -0.1033143349487114 -0.3253823507163968 -0.006173079978123223 -0.2260609268958827 0.05552355530811717 -0.1560041491230599 -0.6715592554535603 -0.9808385467350632 -0.2564493401299491 0.7209976971018872 -0.1006172305883478 0.2496721811934295 -0.6648489236307946 0.2610377406880466 -0.3906963635455878 0.001822127471649721 -0.3050268244648992 -0.1033795861328927 -0.7303809000020639 -0.3865156548462276 -0.6750849650010562 0.4037611497924535 0.4039902262131288 0.1499770880637196 0.166121065399924 -0.6868340148287204 -0.1762261881232463 -0.382500986300799 0.606480567759872 -0.3003098605126853 0.2425421609390149 0.003064757290311281 0.2848036358784536 -0.03069205643169421 -0.2849439307872506 -0.5064888443276322 -0.3850370925385866 -0.04241015892802309 0.06677385235850454 -0.55153652693363 0.2240300223453223 -0.1757674679825486 0.3869003537521473 0.001659807564739039 0.2407843660342172 -0.5181773568069814 0.4180388613957002 -0.188702521050751 0.2904748117799359 -0.3270945158512257 0.3057900660884677 -0.4239590451544346 -0.1679755015220499 0.6466467017950487 -0.07390438870736193 -0.4242676224788647 -0.4577012343443534 -1.153036190901861 
-0.5674158892076961 -0.2925958525821921 -1.746526349192186 -0.4938980365303749 1.557565224208068 -0.09922570425918625 -0.7186720650088618 0.008975932338784255 -0.2976603170085659 -1.948129339333277 -0.470102375869572 0.3581617378915102 -0.2536321016785143 -0.8282565972506004 -0.2265433422188597 -1.103182472584651 0.7788094075404763 0.06001741647848811 0.5461141735660554 -0.2706785382328822 -0.04235591035885473 0.2519766746600188 -0.2116974987712111 0.5205847926446068 0.6274750347881026 -0.1243107008224146 0.3537012937432131 -0.06867062036810594 -0.9043934717557651 0.08873368882028236 -0.740512247239013 -0.9660055580553637 0.472918919148586 -0.4123821615802297 -0.7141802072113435 0.9030186062267676 -0.2632173911047187 -0.8240557650994846 0.4032572112422427 0.8698356690972264 0.399728029936016 0.4304661783073596 -0.2690548262713358 -0.3379570135069543 -0.8964360231200393 -0.2456124047905167 2.314899833996211 -2.064048879289027 -0.9998361582114407 0.6838687097751706 0.3609404834557692 -1.318962166642873 -0.191610090494027 -0.5285809752257292 -0.06557971420904501 -0.9172459246692793 -0.4539360258809377 0.2721610387123575 0.08514086115998756 -0.4756765211136983 0.1670067212766203 -0.4849898628848194 
0.09762435360093308 0.1302342057549708 -0.1143079428564307 1.193429888450714 0.2543467728974985 0.1473368748423466 -0.2900605790362367 -0.6555925145877665 0.03633314690174529 0.2598283653557965 1.368980492247986 1.175821717448378 0.165844833686751 -0.4188573257340804 0.08774254572802465 0.1332496283018403 -0.6491404194262121 0.4272932233311814 0.1514580868163774 0.6662850533825169 0.3170720563254406 0.01671791460566356 -0.3910811088268734 -0.3511973002633263 0.1660908509722985 -1.186516994128217 -0.1228773490786445 0.01947280617059478 -1.179225679936942 0.008540891524580546 0.4001808665124173 -0.1158745371657813 -0.6100282645731511 -0.1731193936456089 -1.409064828052355 0.8944928342257236 0.3897586408202549 -0.674442574929779 0.3078060164284403 -0.735939864788807 1.125146084694606 0.2200082278332392 0.1470984961277111 0.05324803702153014 -0.6170361161702157 0.2671777449020287 0.1130868028262363 1.438217261260545 -0.3189804471116288 1.425703190828453 -0.2805931323666959 1.52776156601864 0.9391007715075964 0.5736524666753461 0.5841794386634982 -0.3306541458142594 0.3155378932174509 -0.02761897262253297 0.8229237111117208 0.2796035407014895 0.8426584523794232 0.9633602754928028 
0.927852705762129 0.1747018760981383 0.1784412493804392 -1.188033103015872 0.0878238633819686 -0.2674962177542824 -0.9590130672055124 1.178341665630541 -1.076846948376365 1.021404954990369 -0.3033939364143211 -0.6270193064573936 0.8180605600000906 -0.01606183724989924 0.2648879342841222 1.005443624238876 0.536805931424889 0.1640185257659065 0.2336635693862409 -0.1015589507021383 0.7926408807213072 0.7418001851861273 -0.4364989538038423 0.932551239987452 -0.1302918443470758 0.6900415193879423 0.5395242629852519 0.2211834579902775 -0.447045766858186 0.2231695951158875 -0.2184895455047478 -0.5493386928068136 0.3159045993360374 0.05923157098585237 0.809132273226687 -0.5643434037716998 0.2543810084512531 -0.5471081833119174 -0.09194670376770367 -0.8413284662471575 0.3211475226536499 -0.5984429228341501 0.4961767809680642 0.01800192118119951 -0.2950751245490779 0.353893494450903 -0.3412593793378627 0.5481001803216702 -0.5470551339823881 0.1875137316805743 0.8808930354867663 0.4218380190800702 -0.1723701831896309 1.152239080819852 -0.2994195706187117 -1.016677578347554 0.6418916311872234 -1.121742990289584 -0.09139477169457573 0.2069512708482486 0.4653888463374005 -0.5102724089684788 
0.9708672228745842 0.4825153091283071 -0.539715972934973 0.1585009926825721 0.4488971360042108 -0.913988002957408 -1.246044545079496 -0.4098368797777835 -0.1540770226937298 0.7048764388233002 0.4666688829497677 -0.1673550888009706 0.1585541191896278 -0.1349896874485504 -0.02776852643527417 0.612032601821511 1.083891603142998 0.2238153927196424 -0.6273851637640294 0.01573803651291724 0.4323978277635074 0.4866230626727235 -0.5296213084815534 -0.5970153001975628 0.5666303310387107 -1.353587969703465 -0.06662393188375727 -0.1086458651446747 -1.01048187953874 -0.6163638762323694 -1.541830793967965 -0.2406961369890626 -0.2181499330743361 0.6039022210748844 0.800077230262616 0.7881984219891723 0.2169870248486939 0.01137196781401326 0.5310332861616572 0.01118990595278379 -0.363278433591548 -0.1944998523175803 -0.3779937068847384 -0.06481577242436395 -0.9278869401381867 -0.03321750910467967 0.7146127295670802 -1.238270092249223 0.1211010561467312 -0.5398815675457816 -0.4547477357644045 0.7474307596435694 0.6141365173207441 -0.4166702176978637 0.8540897372980178 -0.3384276715788984 -1.189722164137273 0.6879267600888126 0.2993939328405131 1.005167042753596 1.649524336910974 -0.03303170271664743 
0.1218166835487452 0.8445167203787209 -0.6734174540694468 0.8012379124357362 -0.04580876015233215 -0.4274550940400791 -0.03018104695599652 0.631903881749131 -0.4346877519544319 0.2568969186905832 -0.3960512148505547 -0.5861094907458442 -0.1212208422063234 0.3636467380913143 0.4869120877125636 -0.1396235566197128 -0.4009786998579173 -0.2510968429676215 0.05520581845610589 -0.1405657520669343 0.6768633955252962 0.03981949545588829 -1.402926860653282 0.2037674936545103 -1.07155485355518 0.4122681214684288 -0.3632678700411083 -0.03443785931440486 -1.045533313253832 0.01653775299341143 0.6603253295967355 -0.05064923104752133 1.137916331773677 -0.3884740278526372 -0.4664248613839243 -0.04578286804045967 -0.1854242056962856 0.1011817394206046 -0.3444806885431437 0.251088952803707 -0.3515512067329611 0.4727936790925374 0.7128259258438824 0.394979457157175 -0.2606335201823286 0.1559453993354388 0.1196850726844412 -0.1072155235162529 -1.14291432468343 0.3835660749260437 0.2645820088515672 1.333013322089525 -0.2308335138832519 0.07897051460277893 -0.3904628678331837 -0.2473983046582642 1.048297839536994 -0.07231743508208675 -0.114956317927686 0.1103536565546059 -0.2856136562076903 0.8906273302918882 
-0.4272601782045153 -1.553568637348891 1.138658879734011 -0.4442299271843553 -0.3608801402695371 -0.4393622484824753 0.2871584288745055 -0.1162770853044374 0.7081160538258782 -0.9630559860817 -1.135126226214868 -0.2928616368881364 0.2102913966891547 -1.166779258300669 -0.1133660546762572 -0.4276624359581193 -1.448178555385229 -0.8871114455913798 -0.4508507274025628 0.2930414558824016 0.4540727245047903 0.2978050414277514 -0.260252675898456 1.459577875326788 -0.3449813291931733 0.494105763218226 -0.1391412030466947 0.1426483695410357 0.1596377179691554 -0.7332703762258407 -0.6584412847800888 0.1026262722224513 -1.096482926709492 -1.872528671628241 0.8650007809358025 -0.9688411347285665 0.3520968966274008 -0.02692994264143098 0.1234389728032203 -0.6590672906275212 -0.2283505386705038 -0.9170220347834019 -1.629022484035186 0.4177820574604275 1.198942773869918 0.1531320206467802 -1.018748357306444 0.01962368003990846 -0.03326059167970616 -2.280942076281967 0.5257163065026942 -0.3938290251930646 -0.6324425659120873 -0.3705756831944601 -0.2990377534983663 0.1667744042400474 -0.1455152652899558 -0.1240392030997804 0.07106071426059535 -1.219316852407902 0.08215401506725535 0.7824417061521425 
0.6388388643491836 -0.3849347017226258 0.3115441949027311 -0.8633943565013614 -0.7956708492338267 -0.1567673911460549 0.1485601824025477 -0.5084923750599626 0.5687199088469969 -0.3393416105295788 0.8164656712505008 0.9137200679547445 0.3589932945142619 -0.156066236418704 0.07190863006645246 -0.5918132322140265 -0.01872005644631014 0.1781421613058589 -0.3415650484717918 -0.3325150330021423 1.232249592179887 -0.189508508024187 1.054011116121324 -0.3885206105508393 -0.07417057279093278 -0.6875069644279429 0.6919039753378987 0.07657779321952637 0.61030020991789 0.5781223080628373 -0.7166122541620371 -0.2161617568466479 0.02371558142604783 0.1168228805702407 0.5412073317884047 -0.007765311757856313 0.09533827347184276 -0.05800404073152711 -0.004475811857675781 -0.06078372331686009 -0.1656689091919587 -0.07115153977865182 -0.05595306943439645 -0.1278437058665108 -0.2540180034505893 -0.1471993869037295 -0.2747874518380651 -0.4212771760251079 0.8596848393705954 0.03347709266605616 0.5030820087166573 0.2635116825583709 -1.027701975022253 -0.424544215567652 -0.4711492572675415 -0.1319421752865562 -0.5180476874606799 -0.03383484939900899 0.1364739297122368 -0.1377246202260592 0.1325015333466034 -0.3241964186020257 
-0.8827795110029064 0.8383883462210647 -0.8329466022374863 -0.6980143977167039 -0.8061799937315459 -0.3374302921648136 -0.06860278474763591 0.537241979546644 0.7665172780476874 -0.343033664318714 -1.144697835830721 0.6516808963091946 -0.4964377986246402 0.9536347937119951 -0.1413361894750713 -0.4353185332668279 -0.2128734675162998 0.7911076152069541 -0.3897787245287714 0.1535558337379676 1.301328133388687 -0.4849340545063468 -0.9949034990469455 0.4253152113017088 -0.2945432968049421 1.308088533437623 -0.2100790783957883 0.1894855819940922 0.1110648934682782 -0.3777798486157875 0.6660713814697514 0.758917854440012 -0.1028234193408138 0.7008079479180295 0.19305223774233 -0.8389132094203561 -0.4282996689439906 -0.0355605955695151 -1.030470025202028 -0.4024980156539149 -1.044948738113175 -0.7038259840330099 0.1248709737876974 -1.861857586190283 0.2158497408296168 0.2589578525531393 0.7142948283325468 0.6679728422056551 0.3173217665873993 -1.06334624530523 0.743056175889422 -0.4013486981179007 0.3713401570799116 0.219015833887228 0.997958149159301 0.4481302500749242 0.4238628304929248 -0.7212870401722534 -0.4341958676228504 1.156319127991314 0.4201952874637145 -0.4661563692537593 
0.6549036066533422 0.7971770039931846 0.9639309454254561 1.158152713704296 -0.2940882687455436 -0.6383518818286826 0.7408242591673782 0.2139105450991477 -1.579229736796601 0.141300282726276 0.5448107514736167 -1.071910560767405 0.5656358581640137 0.5922277305248931 0.4176614523682883 1.742987688648705 -0.5223173078738426 0.1092456477845922 -0.1270417395960993 0.2530434265278381 -0.4311780931023174 -0.6081851206238643 -0.1489389174246014 -0.1981932214917743 -0.5829964877066892 0.9141322239842486 -0.069590019504917 -0.1432460682911029 -0.9578109777617745 0.0844586810608635 0.4418730568813874 -0.4670536365013881 -0.06375478337560991 0.287347909803175 -0.7270284864001909 -0.6457652338468036 0.2153129904193525 0.2527071785643249 1.02356285152643 -1.609187061006732 0.2453870853303523 -0.8188231341069476 -0.4404941268055044 -0.4577614082070788 0.3449655015379248 0.03866279062294487 2.008456351932286 -0.6719611235968288 -1.343307421025069 -0.9330441971171173 0.2142007693089979 0.4721450096089419 0.520762767949559 -1.413748320276278 -0.7686084663140546 -1.353650932099667 -0.1806318955260853 -0.4276984295171014 -0.2524419591207931 1.157386244000241 2.190899112766875 -0.3513605040656991 
-1.292721685077012 0.02585807160248733 0.0158297749167759 -0.8687031602992844 -0.8821716185766637 -0.1351702843234407 -0.2436137526556579 -0.7756542056317121 0.8244393074934675 -0.2515873810254686 -0.05101101124831191 0.5860859354463651 -0.3487289526461181 0.670736590019137 -0.4780160039885574 0.07293345305445878 -0.5868549687891998 -1.262447683874356 0.2213324013117976 0.2537693881067848 -0.1970304011076824 0.006641790206550464 0.7016123041609318 0.04624641576040898 -0.4422366993304188 -0.7517122997842902 0.007787288520268588 -0.2495084036774702 -0.1567506624016752 -0.4549126790300067 -0.1471471285353348 -0.4815210672893747 1.166424103934075 -0.3785703619031225 0.1182586035916014 -0.2440341397418845 0.8441069054144873 0.4604107451956731 0.257314596153497 -0.4237689120711287 0.9122793787075982 -0.7384616862366087 0.8945510839827072 0.0391289519652837 -0.2340284597245029 -0.0004662506716029329 -0.3526818972539865 -0.8846368060755491 -0.08014785151049915 0.01869069450413667 -0.003430279525849787 0.2465472353495105 -0.009727441548227638 0.5686257558612834 -0.2006066664447824 0.2006134756231542 -0.04725218459946448 0.4285335504780445 0.05929898334782448 -0.5937484964131888 -0.31849879027484 0.02515592561732644 
-0.8664887030678515 0.07084776786538488 -0.4972155201627738 -0.04620452570462256 0.286027859968102 -0.07740899751472251 -0.1053642914312113 -0.7407683507063553 0.4774297839035234 -0.1843011565176065 -1.065696731434056 0.1343187639101003 -0.1367246892707734 0.7312551185300475 0.7075892190462276 -0.4765744128290768 -0.1074434861120032 1.766873812351681 -0.6493500467994404 0.7942895107469096 1.483856100642984 -0.04163605639769623 0.5327483784728256 -0.4875258621944596 -0.02889682725062674 -0.1090913853036069 -0.5935556870303984 -0.002732348344525895 -0.464765877014956 -0.2909299465448983 -0.09287179262407305 0.3133484607428383 0.6505999605174326 0.7052450350153723 -0.7024889641262412 1.100340875627418 -0.1315001257982125 -0.02270480820277451 -1.273647609171417 -0.3707926796733632 -0.5841731708519429 1.002838071929671 -0.06833705886084819 0.1855700368002755 -0.4953633878563968 0.15038495026347 -0.1780869502153632 -0.6633949041865979 -0.1546202598645022 1.284873542862345 -0.1185937682634997 0.4739520610309857 -0.2127306498432703 0.7257985395598131 0.1136252982590112 -2.959050731594051 -0.003435503964583938 0.7789699649777586 -0.07287678249562415 -1.230570278919357 0.714592209104511 -0.2812251979485016 
-0.4977692812974338 -0.2927032232075677 1.258881137666024 -0.1544360536504844 -0.7004472282073579 -0.06298774840551334 -0.4235819164257937 1.323486804551728 0.01131154664572295 0.3848067798092002 1.19004118138237 -0.5335095987270243 0.1121953635760262 0.8993166055027457 -0.1959098799152815 1.551731371178596 0.8113072070039122 0.01358659092145724 -0.05130227132127703 0.1915811718693313 -0.1800187887010792 -0.6282710683604301 0.1254567201460758 0.9914999288959179 0.6676122040820872 0.6400942399158563 0.05185982408149176 0.01520449820980247 -0.09286954728399509 0.09121382722418915 0.5726517997500106 -0.6225042664181785 0.3187364178680338 -0.482166075959495 0.318330401488141 0.3415685773995434 0.2502450966305459 0.213450796773644 0.2908610187066494 -0.541549903113381 -0.3895345959557842 -1.077966449244344 0.7070253836970223 0.4875687423273842 0.1592884674532529 0.2421608628886382 0.335224984759337 0.3700835616558439 -0.1398290434336328 0.8373076428723298 0.6626386362998381 0.5574598077899156 -0.6848896186535367 -3.008563528179168 0.1316056609776829 -0.3204520672330474 0.42407029951086 -0.4667886356104878 0.6183079530332677 -0.332260115372936 0.215121191796641 0.3463888158751965 
0.1433334501348777 -0.2301219642685184 0.0280462661104584 0.2818567397703372 0.5392446726289543 0.2208585411966321 -0.4775764263722814 0.07171959926802281 -0.558002071197384 -0.09879789260984971 0.9644448481008441 -0.01058971367217393 0.2581205120444057 -0.0588252274112706 0.08095769781299894 0.7350078238986167 -0.302833160988116 -0.02324115085403622 0.1759210733250399 0.03735880748309667 -0.9577273709301415 -0.6507611116471829 0.6919421441509984 0.1044208200532026 0.7922194468717583 -0.6485231159837633 -0.4442335871289352 -0.1251591521594057 -0.2681488756110379 -0.4566055590820782 -0.8378418291671531 -0.2152535657125939 -0.8259112642262324 -0.06353506477084302 0.2411394188348235 0.3124314498381122 0.05260925074253781 -1.097425374567615 0.5596004535636135 -0.1879433726677591 -0.06308487127095593 -0.3405889594206998 -1.051713201924148 0.7152527652117368 -0.1713301711672812 0.03064432039985067 0.07121672784101461 -0.6515743381131552 0.958320073134496 -0.5734768026132611 -0.3631527863335681 -1.011157861966074 1.368885074822385 -0.4918310137112698 -0.0436399996463795 0.6958533887632169 -0.9138964371850212 -1.032464781858562 -0.4031174871520353 0.7562123676467045 0.4241375492037604 0.4595552618891323 
0.6033497569794802 -1.086981519459814 0.5148381317011435 -1.278832324753802 0.09457595938211444 0.1443052480859904 0.07353056982959773 -0.4327948933506089 -0.3734387605275893 -0.3568171162076003 0.4232793264624113 -0.1236862981414292 -0.01555407133158556 1.312613575044033 0.06344104766581624 -0.6065977963899977 0.1783656334360035 0.6999547861682087 0.2806149486255494 -0.04863972203821187 -0.3470378349546964 -0.03132918414456261 -0.3462336256652592 0.6288997882513091 0.00304079659724518 0.1876769614371759 0.0794217199203231 0.2699900623445923 -0.08737310875715841 0.5601948238369898 0.3278681886391779 -1.008379078509345 -0.4197284369804409 -0.4431901592865825 -2.114276817617457 0.3828359642578716 -0.005534402374341876 -0.409224870063976 -0.7794556024659752 -0.2250933108124307 0.2578546403032416 1.407201065224766 0.2994406797116304 -0.0315484868623685 1.219070328059148 -0.085265052048501 -0.144970868407461 0.4293747989327013 1.02365285646729 0.3036453961215691 -0.9232311987362581 -0.9079323707777349 -0.6199772106962539 0.3157093854063791 0.04517931932183149 0.4459421525858356 0.4225977208645461 -0.2586692412417674 0.4469995415049323 -0.008179553732158187 0.6444918524982146 0.1976558411789262 
0.5034509812882062 -0.2545097012790738 -1.502556029435205 -0.8419356895150113 -0.1486983366766073 0.106047367332243 -0.244931965682393 -0.2864176806881573 0.4287733949560865 -0.3524665737826455 -0.3924986174451925 0.7660199025074336 0.1302651174519865 -0.8491527465735627 -0.3404443798749898 0.01677386839152869 -0.02131062165808767 -0.6970760315682268 0.1003869292479917 0.1094356828863704 0.6065020991001369 0.5277732635264024 -0.05350070306773 0.8272831212256261 0.06081460746812806 -0.9274242516945745 0.4231590196367219 0.01604524431169677 1.084302904433242 -0.3504257933488772 -0.7101644533608786 1.774349225908981 -0.1289937942945394 -1.231119983313482 0.4758899137116547 -0.3620071586967264 0.1633708055591997 -0.3015066322475522 0.07826821070244021 0.9606168928366403 0.1102810490030798 -1.261148204774091 -0.5981587225029699 0.2002772109040906 -1.424818221133372 0.01169381427031802 0.6485593858800617 -0.2618921755157828 0.2044694780838286 -1.926457320964624 0.6160977141699804 0.008944729857339417 0.382859365447579 -1.688242276345728 -0.5390853123835242 1.048343283427245 0.1659491139765394 1.399525958144265 0.4496225257618784 -0.3198454562081752 -0.185418829590266 0.1777892222803204 
-0.02354409755117484 0.562928638699807 -0.4455975422518664 -0.5576391360463119 0.7887478763244322 0.2696395596029161 -0.2828585660202017 1.040198048654006 0.1679572543517751 0.2592405168740929 -0.9031600446408643 1.183759259636102 0.32709879374321 0.5285186139997909 -0.66725735511406 -0.611374804524223 -0.02210348425373156 0.03474234858605223 -0.03055709334718965 -0.03438148942414949 -0.3920059034000323 0.6953556818380439 -0.0037691877912679 1.542943187830544 0.2253144985639488 -0.9207875517279671 -0.07726619998080204 -0.0182428475813854 -0.01715392957931127 1.213104134735359 0.6907491632313211 -0.2936959428838551 -1.026669200054293 0.3646464006844077 -0.6899843611572198 -0.06697500071973646 -0.09459023791424688 -1.344761125938333 -0.1719075804703698 2.105864005052527 -0.4438808258498899 0.5558683554248444 0.5877135946085285 0.7742514341946282 0.5126734385290858 0.2497418306730772 0.4990582437126174 0.3014909605139278 1.350375651270316 -1.856585304788177 0.7483633789622786 0.09033475751086732 0.8760871172328812 -0.4511614810893401 0.4389059882160817 1.360198848406659 1.110410285579047 0.2934058514805997 0.4139265498108042 -0.05538433917605713 -0.9540792430613484 0.2333198538944853 
-0.432227302807888 -0.6308839223125877 -0.5437815274897863 -0.1150806973979679 0.1180806568822639 0.4805984219303336 0.7715065010706922 0.5622529214006619 0.07487043215758009 0.6106324540109641 -0.3518846143932536 -0.1787367383284358 0.2543639582371037 0.8636724765566858 0.6142163684478306 0.5319441600881943 -0.1655299064090426 -0.2137408477391868 0.3693178058074151 -0.6152433627359459 -0.2149075543551866 0.6583718138717297 -1.101677508231301 0.3777474843805649 -0.4558446255702699 0.8700687553751263 -0.06339113797183404 -0.1016109533948933 0.7837459233775743 -0.1624162266276193 -0.5982589220112061 0.4738260396357505 0.2861870408184236 -0.5205244977698857 0.006892960335424399 -0.5697011582406245 -1.069479874798978 0.5601881715009807 -0.3059420962401242 0.7324727511576414 0.1463630345235416 0.2782162176948311 -0.3061779557475551 0.1529830622277545 0.9982252145954027 -0.2848213520388155 0.2621768639025754 -1.137931930109045 -0.8573516395680478 -0.5083999043521537 -0.1490074152574586 0.3406260855552262 0.09806454210639945 -0.1518859406717585 -0.0913485419122667 0.4813485872828471 0.2879647310725443 -0.360714038407601 0.01934495780905066 -0.5322433115035783 -0.7801227705859461 0.3243454585769798 
0.05280188660929337 -0.4817317951070264 -0.09230547786026759 -0.5371894044780875 -0.09017683290647258 0.08888199068658123 0.006809103546656602 0.4625182801410913 0.03527907154006453 -0.04734020910830074 0.08079929350957422 -0.2293132185679102 0.1706134295148683 0.2830394604819048 0.1956599756140959 0.6517636613702109 0.7883368200108396 -0.4520669330608528 0.5792631719954301 0.2722455794250625 0.2825257045502293 -0.07318153841036411 0.05935365885340625 0.4311387375333989 0.2470314073618148 0.9276247203294258 -0.5002305333445624 -0.1200036728631778 0.2137238226722146 0.6761695037519028 -0.09853944015775414 -0.2038807235033782 -0.2558964951330312 0.6204309901570717 -0.4234411806746602 0.8452397805954907 -0.04974244549198539 -0.1375783547771742 -0.8043486490948893 -0.9656503943196145 0.2425999867220575 -0.2760424308792608 0.04505142926066558 0.09721089955280424 0.493971733291901 -0.02620115607427887 -0.2802124379134568 -0.3885113203868781 0.1285951421824844 -0.9037154368263337 0.2809544107182018 -1.171444182697928 -0.04315380701289547 -0.3386308971306327 -0.6161075629031165 0.1477110505610959 0.1977607067831626 -0.1806145433498318 -0.08514985923223997 0.02953419898388737 0.01720899568012519 -0.112792992474423 
-0.2594208090371923 0.5288243181390054 -0.3832154748968811 -0.3287997553539626 -0.1112932554578897 0.4520527254467641 0.289310500260569 -0.9935997249115521 0.3503668472288375 0.09976024789256858 0.04233200854421197 0.5151407585940707 -0.2470869352608784 -0.8933095016381835 0.2660172630442766 1.036947703525043 0.1847750972155918 0.09234297016552967 -0.8905106292061822 -0.2983885273736159 -0.2640318848838911 0.0005318378177316856 -0.1195120343812927 0.6963525616403503 -0.3969777390535837 0.1239717259293354 0.2464442822740097 0.02399878443351173 1.437105363458006 -0.6936370425791012 -0.4655017611819863 0.02897044574110588 0.6596232598124702 0.7936606204686572 0.2897451618043943 1.097398760866103 0.1788873398313158 -0.3171643795551884 1.163186629908546 -0.3682562344214089 0.1446359542470425 -0.517472674092473 0.7588445488059298 -0.5250238520105598 0.2549553444218011 -0.4368893303382153 -0.5110096040728466 -0.7730491925924915 -0.4378432341562267 0.7677234485963134 0.5300159316285963 -0.8898336679357983 -0.8910363956140215 -0.2135839626788621 -0.1659485278503555 0.7980464816459142 0.1930349422251198 0.7082520138453535 -1.671354668675895 0.5510976978972856 0.2822441515383439 0.2294517167703744 
-1.131199428745512 -0.6001744623207683 -0.1678328515311975 -0.01536339148592929 0.5184893087711038 0.09611683322264454 0.596077347401926 0.6308279467865038 -0.9278997518854375 0.2985166197388409 0.0419619293745489 -0.5677150932960937 -0.238627932039504 0.5268956646656824 0.3221031532356801 -0.8096213531126335 -0.1350061912012959 0.2118324578826174 0.1526170283289022 -0.7244614831321601 0.1786801613942138 0.3297520482385958 0.5585870984184999 0.3673253653800444 -0.09837745024637197 0.3821219521473772 -0.35144256453038 -0.2543469951457042 -2.92604274959712 -0.3547672462076623 0.2232479301154461 0.7374300118177246 -0.1334686774669337 1.220544862324209 0.0967399667417788 0.1839026739216225 -0.6912371070672907 -0.6079032120625032 0.7461685564275382 -0.2319945427926766 -0.6338088793557606 -0.5300383860417984 -0.3752599416689109 0.8445842757791436 -1.097846743756554 -0.153002964453016 -1.268364458668024 -1.929610458643901 -1.588773796185124 0.4887578558429091 0.235958694031929 0.9570785580261513 -0.1035990556137506 0.6282404868365191 0.1754982958284058 -0.3581220206030689 0.5367342729460819 0.80609772066082 -0.3073176354443202 0.3744937516771314 -0.04173520297063758 -0.1712713801086375 
0.5220401478998596 -0.1754637486135941 1.244312167636757 0.9079662281773 0.9684855280378819 1.165767649912412 -0.559712045170271 -0.5413459299937969 -0.9253519452274657 -0.1287857156907415 -0.8916863893120365 -0.1947318241960179 0.1144001503368982 -0.369054353762421 0.07407143485699655 1.020090883409302 1.14756574482376 0.4380425952601661 0.6712036334429237 0.1761565239953915 -0.3455448954745302 1.100259353146255 1.152796356873877 -0.0642018347053324 -0.1061239603998844 0.364574722802368 0.1925008533970279 -0.7779062493639997 -0.5906523026766259 0.1917231564177508 0.7796589681278301 -0.2765295347070444 -0.758127367214638 0.004238827872098501 1.576325803845305 -1.330915360731975 0.3987557508284864 1.317967137433979 1.122785964821204 -0.2862234673745435 0.3349173077406138 -1.587421139201616 1.267555164963431 0.2277805449115257 0.09322370016141526 0.06898768428368947 -0.47834726480332 0.1060784728446471 0.4259579655970985 -0.02793056121809072 0.08998430445688461 0.4780379586274839 1.165151647190726 -1.158484019157377 -0.03134311251479759 0.02352198746188185 -0.02696171130561273 1.201542965216436 1.464798386893137 0.8624668099304394 -0.05564850413914706 -0.2438318971642888 
0.1179713698177815 -0.2243352910507698 -1.150163944124087 -0.3650143186982319 -0.5029679283952494 -0.4554598566217397 -1.490158705372983 0.1630552323352195 0.5869600966269869 -0.1197838430058737 0.3336218637610776 -0.767082229910118 -0.3856634611518042 0.4103295623992608 0.6891515367908621 -0.9402905718149488 -0.4644044157240346 0.5849710776039149 0.1589926661400504 -1.411719590414425 0.5553486293949139 1.058707675149621 -0.2894416429423883 -0.9121542379970132 0.001183260678858829 -0.5472069605687515 -0.1794808951667206 -0.09330035452949903 -0.8105223320127947 -0.04073140467264243 0.4381485448016477 -0.1077752698419037 -1.128080985198002 0.7984013789367589 -0.09148665420507596 1.036621544089292 0.6658517382481043 -0.02452720473818569 0.1964416960043222 -0.3993300228331096 0.2176258241106521 0.6288418528747967 -0.9541567934114142 0.3446670825921746 0.5009144815944492 0.2214595010363865 -0.5189342028171717 -0.05237284768542762 1.223499010799116 -0.0712316868756028 0.8783294912681552 0.201418128608867 -1.319620057777094 0.7718671450925882 0.1118475877640726 1.314841471020014 -0.5164987460920847 0.06529511800721614 0.5060074844405807 0.4980777262153876 0.1216785065763677 0.2902419789320076 
0.2629023224101022 -0.834360750216442 0.1233719297580138 -0.2856632803428494 -0.05203111587360296 0.2494339188577694 0.1234288843324226 -0.1992044827095379 0.3539862455716276 0.5926309281038328 -0.1869919339380584 -0.09576636521208869 0.197787646125783 1.395759578400482 0.2894085072930452 0.7314901658142363 0.1260393252877387 0.217977134335724 -0.1048164878056083 0.829237493172277 0.8229211732067244 0.5914056763069118 0.6643464295654312 -0.7101314404115219 -0.2565052067524527 0.1308264146089303 0.1129800523198165 -0.03149170260121899 0.7204621942205023 -1.123373800803848 -0.4114339123530641 -0.7696121293524927 -0.1660556814313669 0.4669663205823638 0.8083227284549164 0.3349483401156652 0.1450994137489501 1.345841405345067 -1.187180606720159 -1.277079605319201 -0.4500826112492368 0.3418122993829411 -0.676200445319305 -0.4037596343063479 -0.2594492303600552 0.1189554045387496 0.2463579899577746 0.2678994404762372 -0.8631287011655506 0.5430579833193988 0.2461131295797872 0.6753278187897007 -0.1165095293346101 1.169908894843715 -0.6923798685785789 -0.3532969438834542 0.5433706094906574 0.9141788910738289 0.3341333023477295 -1.108493320016573 -0.3756064125636709 0.1452822086223609 
-0.3687436529734737 -0.4343727200478593 0.1319987356688547 0.5285703327981196 -0.9328431226968537 -0.1398171915749878 1.431200407471112 -0.121159861416218 0.8867526813139707 0.3781359436157166 -0.6846586813092514 0.3917412100439962 -0.1938286743102514 -0.1847755123714668 0.05153041465274073 0.0713518974156041 -0.04046455248018891 0.5726294349983192 -0.06550061109295044 -0.3217977196370587 0.09300002365411511 0.04157411189660491 0.3719585227472798 0.9530048837834527 -0.681244407374659 1.25560986929629 0.7412132568944663 -0.0541443755060744 0.525239691033583 -0.7173976041497102 -0.1327106364739381 -0.08680113799239106 0.05695895679929611 0.9953109024316238 0.1069311986862144 -0.5196954334008832 0.3962910244050092 0.5033745862382416 -0.09296994872877917 0.05451963907259221 -0.2056931596428534 0.02109037309230986 -0.2823774766558306 -0.1133982602512898 -0.4215720393650917 -0.1633522363284317 0.4610448319544789 0.4997521618324468 -0.7129956001201849 0.8015413056008959 0.2826204036326688 -1.065683672803602 0.03121355073381964 0.0978448180918105 -0.2784598425765237 0.7158836106435058 -0.1961801625614386 -0.3226020983288631 -0.338247409990646 0.8776752922222008 -0.7939057045777143 0.4290810256096267 
-0.1355418679228861 1.255729296752142 -0.02166948840218439 0.5499686453840419 0.2480530954417627 0.3010478547555139 -0.3320476876293416 -0.3286882399724976 -0.4463711346349903 -0.2525734739838338 -0.4399618976221954 -0.1157978093103849 0.2044165985063796 0.1704283292705663 0.05393395435905603 1.286601253061169 0.464896072872116 -0.1591252648638861 -0.3226722596776475 0.8717804667074651 0.339113434506447 -0.07524960330589389 -0.1762652788849213 0.232922530874006 0.7290756293589934 0.3148832501891846 0.2877081659247161 0.4058763755246684 -1.275206079833086 0.9488763339454779 0.3401550709410157 -0.5161403819912983 0.1549305948187022 0.75998122130874 -0.8783782339694015 0.4464359486148481 -0.2440453597168808 0.9806659754912657 -1.025688398461319 -0.5763534252713565 0.6901886980242494 0.9431148525513358 -0.3247465198052097 -0.7253490092898092 0.4530656050159941 -0.4496794399470954 0.3837047568139474 0.08870688043135777 0.8148424506364397 0.5245168222983327 0.04678564339291939 -0.4311133723468299 0.3165813940127156 -0.3992303637868759 -0.7854559301801302 -0.7709917340853299 -0.3134998779732142 0.3648063743712171 0.02693910964249753 0.30007016425049 0.2139086271851607 0.1443397386196848 
1.001764189459679 0.08686502067069125 0.6862994103228333 -0.2708769693230321 0.02755514778687636 0.0003868363535504566 0.4231349487438817 -0.4317939695730458 0.5277600915147592 -0.7225655131723964 0.8882195273026219 -0.3780648114386896 0.08346557196799395 -1.545702661673235 0.2362415314040793 -0.7477077084181827 -0.2209968987247197 0.08924310435959426 -0.06429574118628401 -0.4962416570212583 0.008287109666182912 1.656664649510674 0.2144745153356572 -0.8364372440346149 -0.2332877282280806 0.9143910987967244 0.06470612768138873 -0.09226535884319843 -0.3139877545743115 1.202376184096935 -1.03626177716785 0.7064876574153808 -1.364796609638908 0.6265403542134762 -0.3005039705127024 0.5133417810975446 0.2318619842362615 -1.081089315304675 0.1466009708884113 0.2560757509641055 -0.7721954458931525 -0.2298120698936051 0.317682661887367 0.07382111742246007 -0.7201328700642925 0.2327378510342225 -0.9267963792201391 -0.1982161376659567 -0.6495555236319226 0.2782189974895427 -0.7948279939528403 0.4287703589031677 0.4117073987373783 -0.2634773224023947 0.4257782090633228 0.7731691442749137 -0.3011444205769273 -0.4126691028944897 1.092694653858251 0.613186774043387 -0.006020018159231166 0.2191537397250911 
-0.642265504857141 -0.4748851187068444 0.7780252966145583 0.2879109466627635 0.5873831512908175 0.6447934155718857 0.01725978445551406 -0.6676175632135324 0.1438984697919227 -0.5344673666888746 -1.27854435757096 1.39174577943058 -0.04475522473991069 -0.08384919596072363 0.3004580586364015 -0.1200707170831813 -0.5113771187023158 0.3947730976351199 0.1864078056080685 -0.08713293570868462 0.8694231207574518 0.548179713655796 -0.3102982421770071 -0.8266741338043714 0.196998772440764 0.702887586043127 -0.1931333628217677 0.1862790944788432 1.090784581544144 -0.3580935175787238 -0.6309711779237714 -0.1100350295251584 0.3235571301837025 -0.6295686642969694 0.06552238030190811 0.03806182520817121 -0.1566076658924026 -0.3924830253635804 -0.09991834892866765 0.01362139441398934 0.4100556886610526 -0.1988399595708533 0.1236411378857525 -0.9012382217832311 -0.05031984494920761 -0.03297038501314151 0.2742115409829666 -0.2371132939246733 0.9709473546998344 -0.1327566285831042 1.604126236361201 -0.08439126359771232 0.176665027323111 -0.03690615650368819 0.499717673111543 0.535381157794902 0.4591480609401178 0.997257766876104 0.4274718948944558 -0.2358340797677775 1.200447992975882 0.217253459064567 
0.1900909128039965 -0.3752263123829288 0.6959142355349797 -0.2098675151130598 -0.6141535199968123 0.4324627698867318 -0.04184141683418903 0.5623425014274728 1.127643630541322 0.622877550679856 0.2732808289840878 0.9904285392203526 -0.1434320970509891 -0.3222463469999298 0.1114774534634254 -0.3812739279241139 -0.8687071022319079 0.4621582912520275 -0.6851255853001892 0.6699350617089311 -0.43997063285972 0.3715624876676549 0.1636017894298631 -0.3436925231682393 -0.03903906350912784 0.6080227851587887 0.3820523685629735 -0.4097143891214937 -0.2183202663405784 -0.1948008601037177 -0.8806535327087085 0.3043447617201203 -0.6963980442050024 -0.7481552811138592 0.5305669287222259 -0.1687310661171725 0.8734781492753684 0.2062638758685398 0.1230500649622888 -0.8058503688682815 0.6731853783413632 -0.2164980704135783 -1.277091694425029 -0.4293795988549846 0.1066680124890208 -0.6675960849295597 -1.474871200257828 0.1218589311926971 0.01788528725005535 0.5432825001489617 -0.1536624334349736 -0.4300994123602465 0.3031094460153662 0.1667042879201772 -0.1770781425686825 0.02283321336265041 0.2046256266697226 0.3500168941738049 -1.329114319327915 -1.079884905920129 -0.4168861652978884 -1.401529286801171 
0.3632566363023125 0.08479747916532068 0.8456756405806696 0.8765046004455656 -0.1306658316822303 -0.5133556468609159 1.217430989791989 1.576158517643317 0.8721561995374857 0.203826893502588 0.5266464806225525 0.2496814713945412 -0.1587068171157824 0.1499751349266132 -0.05401213151868434 1.76330869151861 -1.158964267381082 -0.008429153524303885 0.5487605083034288 1.818366575637712 0.9805707844757688 -1.127187823877258 0.9394303377184777 0.06177947002834667 0.1160420147333576 1.200927504598801 -0.09208190821956194 0.01751098211105988 -0.119358127407774 -0.4155815847458436 -0.5884513635746244 0.419657800084664 0.1821610062966734 -0.6003926951321252 1.156616677004701 -0.7100928407510519 0.3973377272436488 -0.4953055716271369 -1.58702467143148 1.441216125356183 -0.3343678791361298 0.2343306515183182 -0.5180866680561547 -0.4339229960982539 -0.1750732483307301 -0.3649906207016149 -0.1101888749758275 0.9285572212527237 -1.346295844365553 1.021950513646838 -0.4384541278056496 1.618713532720088 0.5592440382140144 0.8170659566737354 -0.1898634431552951 -0.239166596463695 -0.9736244140250053 -0.6095682630519824 -0.6391371733735791 0.5065038413290952 -0.9974072348987132 -0.08389545072749414 
-0.8846576283044595 -0.9241007590889692 0.2493947329845064 0.5317551723861352 0.6576226436510693 0.09879735378570757 -0.257737449936213 0.3397362006056112 0.3527350201762833 0.3243419533184889 0.5145229656368834 0.3825566574614255 0.00472343700777934 0.2879665750634399 0.1489514240845253 -0.782871022280048 -0.09561010070794911 -0.5744264857277477 -0.2417018419386301 0.371687564699373 -0.7687243668818232 -0.8425821378228084 1.186719122077701 -0.1416836723315248 -0.08367719509635002 -0.3949554883593248 0.1699723851296932 -0.3167350946633425 0.2710356986216431 0.9153608465205303 0.06717876150601652 -0.1121548960246977 -0.2864807617707303 0.4244396342474044 -0.1653811039148188 -0.893994844873968 0.07743932577885236 -0.1012818408098653 0.5667879947086071 -0.4248052040185682 0.05096406809031285 0.03683236639999589 -0.2207039891562534 -0.08658174092642944 -0.4094809901425897 -0.4621456714366117 -0.470797498539636 -1.574213878346863 -0.5123617966050351 -0.3635631773975787 -0.2638894470365339 -0.5070987108445317 1.198929611681802 0.55610646770767 0.4138957614208802 -0.3969242718563451 -0.4956804639596466 -0.6011128815441592 -1.062565262393269 -0.7403036117910906 0.0915051544588167 -0.1799139312867516 
0.756134236139527 -0.4329683899000652 0.2448148479817918 -1.684565072316375 0.2822623618426792 -0.2497826459064596 0.761606764273252 0.3974052762411628 -0.1678392468189621 0.6327113709257716 -0.3137101669520774 -0.2254898622620967 -0.246404063146937 0.5623194422140422 0.7522052564933163 -1.615055499213425 0.08929465959854548 -0.4540515189130639 0.6089588711635163 0.3307851820620663 -0.8145471482715227 -0.001884510885109299 0.2706661956325181 -0.8561466385523425 1.049008176164061 -0.2747539233286947 -0.1854951452748433 0.2437675547293458 0.6415553503987862 0.3243807717574995 0.2596720987757001 0.3056277687343204 -0.548752856204901 -0.08517235164732001 0.4637251350369666 0.3599587040839309 0.72591454418818 -0.1083347563317118 -0.2854245726020415 0.895289042393477 -0.3951959913170005 0.3862218414851059 -0.7119711720445533 0.8861929417423651 1.343866488054818 -0.4043249886503502 -0.4522458821122287 -1.01839436744235 0.8882019645623612 -0.6432584839973265 0.1437964915779357 -0.3485803207613135 -1.186094828205016 -0.2486468538161349 0.2997360987315206 -0.3344483859274409 -0.6083355160222014 -0.8805093450028829 0.2340310764647886 0.5241674694660701 -0.3565461258524206 0.3463150793653431 
-0.7111445568434989 -0.3296481053426714 -0.2128746605924346 -0.5602555763011298 -0.674373612456053 0.1408455284270652 -0.605110547147342 0.4880616375903311 -0.7436158248695135 0.3515264873690108 -0.3067521630072704 -0.169059369641707 0.08352230453449591 -1.328706498093553 -0.2877828088149211 -0.3161893926267984 0.3055376486497889 -0.607638910989174 -0.3500608120256672 -0.4184308018877838 0.02117638078808523 0.274493522256603 -0.9699009481535203 -0.5818653232480114 -0.08358945931568684 0.07702275355184143 0.2916054975684791 -0.1526680235838945 1.184082210746978 -0.4270162052747645 -0.1769581874704239 0.429445639622366 0.8322303256695931 0.8739679750803464 0.3349300718919689 0.2856265162266888 -0.4858625581647352 -0.3154663493726769 0.2221204358549715 -0.1182516032522647 0.6856540609203754 -0.07527648279892857 -0.9606004620837895 0.0936519623060911 0.5071113007185043 -0.2691439826841883 -0.4354757756899356 0.1033671355632726 0.1873702391495067 -0.3977658915223764 -0.02242215642117627 -0.001779722103751221 -0.02370538036073573 -0.9096940632923594 0.4071812440505231 0.2572420948115846 1.124282052380692 0.0500567244310704 -0.2907365405387003 -0.5842410882984314 -0.4561810992608086 -0.04513282836847598 
