solver_type L2R_LR_DUAL
nr_class 62
label 1 2 3 4 5 6 7 8 9 10 11 12 13 14 15 16 17 18 19 20 21 22 23 24 25 26 27 28 29 30 31 32 33 34 35 36 37 38 39 40 41 42 43 44 45 46 47 48 49 50 51 53 54 55 56 57 58 59 60 61 62 52
nr_feature 1062
bias -1
w
-1.52487373462342 -0.1747122315677239 1.261971235918509 -0.1956269097974849 1.190076213036252 3.239849085296309 2.088332708876235 1.011445314197251 -1.766610597919882 0.6715815923082527 -1.592817698684657 1.008882487906185 -0.03531844455693012 -0.4781908571771423 1.439322619445163 1.386601960533698 -0.2292781622655736 2.358395478449103 0.7234763050644367 0.8932564467434843 -0.6401945642943999 1.681990671572863 -1.219398200730169 -0.4449028590735578 -1.905391114838114 0.06739123557411364 -0.3503303212973016 2.33645549375475 2.134406573107657 -0.6397132037863349 2.692149805388923 -1.908762614333642 1.048232144899258 2.518194059851683 0.305307006833367 -0.8798453706140243 1.428476066605554 -0.1299303318153235 1.837524695807985 0.707243844554127 -0.2673528133195116 0.4955862773396075 1.783401369583049 0.1696945241040304 0.3271246605520932 0.6220823867036652 1.918748475797212 -1.898741482946187 1.636834395227775 -1.591283465160626 -1.125920077432458 0.7644947934184779 -0.6846716494245699 0.4177049165752582 0.4201788886701721 0.7529738812816072 -0.2938915434204916 0.5251271070130881 0.2889956342106759 -0.1660507962646751 -1.106307400026002 -1.314094825160314 
-0.8299408042691541 -0.1674314489381828 0.03985615335466892 0.2612670752679698 -1.173468918137111 -0.508350947361179 -0.1033606085707855 0.7014936580422769 -0.4839913944521941 -1.014497736802858 -0.243075408444507 -0.95742366733037 0.5771000075307251 0.1348481914509619 -0.927526443895614 -1.634710416190533 0.4956940691883694 -1.184590607305941 -0.7842448727800272 2.444514391818659 -0.8510026050097692 0.3986225127605063 1.612315127023279 0.3661314874350917 1.899076363238778 0.1945960267450504 -0.07211926913130647 1.524713095851648 -0.5420618125736106 0.5545878528444963 -0.2283986188045889 -1.114775339688943 1.332406101054705 0.7061892588294596 -1.299384568208067 -0.2000414058715855 -0.4304374202289306 -1.297254299252055 -0.1167998624467019 -1.337649677376822 0.2197624859624004 -0.3876135750813426 0.1331571138919208 0.0706178554793076 -0.4656762811366417 0.08475573733969738 0.9799834539769786 0.4918836678304603 1.020710163004287 -0.562866612155057 -1.458573541141679 1.408730106643189 0.04671712487119063 1.174283759974458 0.09249114594250679 0.5180678685808902 1.143531586010509 -1.299903251423284 -0.8931366340338897 1.055409614053813 0.2639596018471851 -0.5179199047276598 
-0.6865459210504665 0.9410136555233077 -0.3491882566847024 0.5574608205346135 -1.136739478649742 0.906351278354157 0.06514027376921133 0.7820979386666168 -0.5529964487644731 0.5035919813164184 0.02515196740228162 0.7833974364133369 -1.105200102228137 -0.2352010454550779 -0.7295907792385598 -0.3284862818022841 0.4467449681174603 -0.4008433361990362 -0.267868270285923 1.751944747665992 1.375697328778631 0.1872713481317728 0.6427250860192011 -0.1569169682588785 0.4765695336179448 0.4314650698398017 -1.541132013085414 0.8410686418273384 0.724846699796349 -0.4938598921910285 -0.05075316595262754 -1.420003782259269 -0.8892489140337053 0.5772334477539152 2.028677057652058 0.509347391259845 0.4081676553069729 1.465457652228797 0.8662251088980883 1.433316055572037 -0.1988979474892824 1.33400781115487 0.1178335872447821 -0.4679128480132325 1.030664787767114 0.5973705329947805 1.150630843420257 -0.1689326293483195 0.6567218525427426 0.5884743973429739 -0.1531285373644126 0.5391934385869827 0.05248982271698258 -0.01881722962556196 0.2163725460826154 0.2461462094131356 1.277394340896604 0.9061197663560837 0.8364641160975334 -1.145630005714192 -0.2042181094311044 -0.3491245095574963 
0.6433893972076177 -2.290458697853059 0.152477410544784 -1.267905202916918 0.5771995744105135 -0.244056470631419 0.4015770937816341 -0.237253958384763 -0.5239229626166595 0.7522963674926945 0.5308211725574384 -0.2555789886088221 -0.9558391499853663 -0.4108758018857087 0.3402760624893664 -0.9811716067384277 0.1590317229969152 0.08766882218228823 -0.1444134561855669 -0.3614888669125477 0.8280675903486356 -0.9568159471036551 -0.3601091126430473 0.4009419037389595 0.4650403784186511 -0.2207097012749582 2.066302501178458 0.880352695679149 -0.3450867964677699 -1.658776399232254 -0.9071369159468424 0.2522667637496349 0.1611911575659482 1.311807774209903 -0.651628254318713 0.6397881959254648 -0.6845539295557186 0.5691424642832944 -0.6753908104335771 -0.9308867793218087 0.4988157941967838 0.3893356474959829 -1.096398046119404 0.6446249591546375 0.2541930765289715 1.070468317580121 0.8481274380077759 0.1237102641442914 0.9332006693703369 0.05990502377141902 1.027301149120608 0.4037015611517283 -0.2009968955058246 1.072633845296018 -0.7772435956617386 -0.6922033528723399 0.8759784152868135 0.3366028034062309 -0.4103776111293168 -0.2979706224928399 0.2869607380764913 0.3720173388292468 
1.354350057266667 -1.15012818157685 0.8520977850898427 -1.769205863253829 -0.6216250883966219 -1.565614477023946 2.032092527642947 -0.306753780491489 0.9597385310304321 -1.774756851762 -0.3751444463826166 0.7007617433680829 -0.352016371009709 -0.5082147686282543 1.100830342100043 -0.222196148204331 0.1441376965888676 0.8706450022167208 -1.054439178132431 -0.1206107010103761 -2.265313131862426 -1.093554483936759 0.0369526868525077 -1.203367626086393 -3.104365381409233 -0.4905855249045682 0.1918331927742469 -0.7666465665628808 0.1192593228479034 1.461053550105754 2.070726930997495 -0.2729722239592993 1.242184097809531 0.3086161351172688 0.3217536779558673 -0.6066625453437433 1.270189247665988 -1.245727361970787 0.2956233699778839 -2.860961071040447 1.951100914806025 -1.690528824451187 0.8311308313930577 -1.562188835494105 0.08378552418369128 -0.009412731944194189 -1.033262904582985 -0.5085669703853968 -1.26666155437889 -1.644181266262375 -0.4779951554110914 0.8391496012353993 -0.5697788371312348 -0.1514271154318818 -2.173441761510199 0.6490490991251763 0.3389917233636247 0.4708409310008401 -1.459442805382279 -2.152261295945486 1.43730106332842 -1.155772294869015 
-0.5375569232802027 0.437530728492155 -0.04797813722209947 0.249387010342258 1.96763696880494 0.8296611815219848 -1.917884169004616 0.6625361788230986 0.1788780779275451 -0.105757467452185 -0.3062672843046265 0.03242229878368712 0.5150204125159447 -0.02871712441499633 0.1584083311369886 -0.1271847193564908 -0.4072249403846873 1.042762763702504 1.224509360828735 -0.6666182669711679 -0.2587567325215704 0.09632541485404764 -1.068168011665461 -0.0286678930475072 0.2016857421503213 -0.4212652861966228 -0.6865914069188105 -0.4236034410529649 -0.1719337797888292 -1.228929775543746 -0.1601696397930237 1.299931066478248 -1.307910083498608 1.276986735162876 -0.9359923023734564 1.133977119971375 -0.1927261986609072 -0.3143652315340311 -0.1619037133493031 0.8883009373538916 -0.1327017760287015 -0.1199981129080137 -0.9472081335585265 -0.4546523011365342 -0.6529187207544946 0.8568189757793064 -0.4436185574118008 -0.5057540889090092 0.7382387443451731 -1.705209828242014 -0.1923298338949263 -0.4528119942041967 -0.745276730738746 -0.3182222711770692 -0.8676657572863782 0.3168792016582767 1.616841671610388 0.0884410515640832 -0.266039461165553 0.3320451217959106 -0.03371714872535814 0.3477669121244088 
-2.435542069629764 0.8586585975114646 -0.6453899732527869 0.1810457867410585 0.1547867636084664 0.543790223314387 -1.341377762222739 -0.5578076433458771 -0.2259223501372536 -0.5344751449144399 0.7623761531940598 0.806120006483355 -1.158874491401737 -0.4583201090824929 -0.5075073041934792 -1.50102551741442 0.05347354839649247 0.197769354579599 0.349809760789368 0.4189531961583757 0.1601675294843712 0.2346103730660946 -0.2065923426075103 -0.006549926575364478 1.584923944876089 0.5535982328878122 -0.2803669914007608 0.02347040988076154 -1.493989253577717 0.2249291949589769 1.49502218027797 0.7441046846350002 -0.5326639532065542 -0.1385281397634083 1.511543404775815 0.6613739777054012 -0.5363828382163891 -2.049841892051266 -1.234484143710915 -0.8597537190116337 0.007825400278425288 -0.3922067106249522 -1.260768425942083 -0.4931687326420112 -0.1183162137820408 0.1131349367855807 1.496811611216567 0.06047022106477535 -0.111862776653971 -0.01860276007674648 1.241619141631259 -0.6947434727468206 1.613750166729089 -0.2495517788028901 0.829752469366951 -0.8467839080484891 -0.805804663844901 -0.3918955324533941 1.169135520296253 2.350902777880342 0.2924787521950628 -1.280794872074318 
-0.4865439248147719 0.616061297202018 1.194131885566871 -0.2265138974094247 -0.164438661339178 0.9169940638477078 -0.6226234580289167 -1.191651631993359 0.197196681759386 -0.4981536652058206 -0.1595069971245004 0.6819392649595125 -0.6898954464077827 -0.323039535032441 -0.9220961058271324 -0.6039663819059689 -0.4005818688106942 0.3206205362610874 -0.6285457237090761 -1.327526451142698 0.147424782916716 0.6936490229748777 -0.5556184081593563 0.3688037070111728 -0.483932169531525 -0.4909760529184753 1.857689873017939 0.1033939055354736 0.0201229784107764 0.5200444783739275 -1.628857607168378 -0.2370515130898979 -1.331263780721676 1.282920558054712 -0.1115520903848485 0.2919392961041042 -0.1962146181617834 -0.3673518946690435 0.4892490539525564 -0.1424460458801774 -0.8910559683945913 0.7003889235751355 0.4378654312023169 0.202722106391162 -1.382082950047522 -1.215090902327838 -0.9047355694127487 0.4884307567592928 -0.7662261529235318 -0.3898652466892109 0.3218143378394033 -0.1040593371315443 0.1185728294255229 0.140091532034006 0.0850729867183723 -0.6350756424199997 1.923505335647177 0.2061313263087544 0.5196747172978712 0.1147720038436327 -0.1901333458861284 0.5001861208913408 
-1.050239193622244 -0.6575600412830532 -0.6167192251704147 -1.261390436050138 -1.436074605818862 0.07278729815122932 1.575227665970789 -1.164753253959099 0.3043674649386562 -0.04531703925207685 -0.2296591935254106 -1.41494423423834 0.8480058416690908 0.1686428288425984 0.8795320971665372 1.33956981140322 0.6995255057641939 -0.4515300506552004 -0.2932023867964785 -1.345258561381506 -0.9860297367868528 0.2427062207340006 -0.6849015439629283 -0.5233886980853114 0.3653992340112998 0.3136188583090251 0.3728680326396476 -1.851547266806325 -1.106553095423297 0.483196350365538 2.461442850232242 -1.082260546632085 0.6908580588791851 -1.166412421826493 -0.3452514966517116 -0.06853381049856062 0.2798530326638147 -0.1370136408610342 1.111497917071344 -0.6356635565682611 1.112279799060708 -1.052066904400025 -0.2459053162991806 -1.64541633726358 0.1548070600464293 0.6409084009435296 0.8142752723507145 0.4845700440046291 0.8651805128640243 -0.09566933115572107 -0.1070861715085333 -0.7387420666478443 -0.4161566915103816 0.02738665100757198 0.819565752907042 0.6798730790811215 0.1112886336682582 -0.6101364652360366 -0.8593712435704089 -0.8314596301077214 -0.4635487591745655 0.3073493390884269 
2.311264423071759 -0.4866077990077639 -0.3126943971728696 -0.2397682930713948 -0.6032595861685683 -0.1119445675307434 -0.4543485860939357 -0.3186962812495862 0.6696855813596894 -0.2711988371974299 0.03592420421622566 1.291040847781426 -0.001964010542859308 -0.7756608553683231 0.1987043631214697 -0.442431403236145 -0.8173989406278983 0.5742961283641151 0.5188646342477123 1.246889859024205 -0.277874958709832 0.9818282038119958 0.5046941496784629 0.447073026692354 0.3432753279058127 0.4553092706689941 0.2405529721820143 0.5220051154609803 0.1652214714056327 -0.5185421042180726 1.718842542459586 0.9432211404179945 0.5204795517853973 1.584436423785616 -0.8512120632732337 0.2781416748951165 0.3485223283932468 -0.2323785077671709 0.1512055466727906 0.09682173236604776 -0.02423631207143447 0.2336097775523679 0.3849069105835663 -1.296227149202338 -0.000999768850871937 0.1102541182102928 -0.9832415128793506 -0.8562913079119009 -0.1351199592038004 0.1036654938185897 -0.6715665677376085 -0.3050454404684892 -1.374585600629568 -0.07055031448874491 0.8192083024229174 0.4882898967342929 0.6861195705967444 0.5654295505503883 1.278658408470449 0.3726601776746288 1.740202994335569 0.4188952450685381 
-0.2471903569159844 0.7837124913343518 0.07019458467917761 -1.115161019830045 -0.773968739677507 -0.0350412709389142 0.1276067550467847 -0.2810313965307475 -0.9703097692394899 0.8585125474774059 0.1921425790293501 -1.012223786889295 -0.4998875557331236 -0.847645014870156 0.5591483776405409 -0.5870141714686724 0.1056694862966656 -1.057856516781977 0.1256501384174173 0.2696572607280719 0.2561854446451593 -0.3919835100325598 -0.9408066900344343 0.3378482081719711 -1.019901945843616 0.5026645818747215 -0.5780541793176006 -0.9968438025849731 0.1880452659791566 0.3639680458629244 1.142199184631381 0.3123316402143709 -0.2692130699839663 -0.7038498297815109 1.572405175318897 0.1498018412018212 -0.9013525622617385 0.5137497752406364 0.6539770934604846 -0.6960594082689406 -0.7543558347666093 1.037416314129635 0.5754153676682053 -1.656788377796425 -0.5509015083558834 -1.792455242368934 0.02658152073761342 -0.3638977205202664 -0.6853586357132081 0.9493157036812563 0.3856822371244177 -0.3062090355079646 -0.2048721410362644 0.6632364728200808 0.330781827678143 -1.152826297093088 -0.6135151590342494 0.5791578020448497 1.256961160842456 0.4372801011541973 0.3454593725444657 -0.2865580791665621 
-2.827667704289785 0.09287596276924395 -1.162665844136456 -0.1464482846866412 -1.685991536855479 -0.9728761304115763 -1.357256365328153 0.3283697909999865 -4.003094067981682 -0.287961471956039 -0.7019885611707865 1.339124062136326 0.9682810093107713 -0.8157477569175952 0.848314326157573 -0.2683880946677945 -0.6064721396039218 0.3261647543522367 -0.5652494269632428 1.014697123548619 -1.137564194753502 0.3693124866893268 -0.8516932969053063 0.1787834504507466 -0.6569058514420526 -0.3140750749826816 -0.4788729698285073 1.012064924033234 -1.358702755513193 -0.4847290962103196 -1.360879029856117 -2.059491720080906 -0.6487007236201298 2.35000768377244 -0.3651008664722696 0.8366604840911248 1.015654237351513 0.4317764756156379 -2.673005950353389 -0.6097120359042645 -1.163212968071466 1.27708075937203 -0.2510913611464719 0.8943903710603757 -0.809857431466623 -1.220210416732794 -0.2942075121860337 -0.6837494307148222 -0.2331917662676095 -0.3074932939704647 -1.785268976090671 0.723918697565656 -1.349551893961686 0.3433253054091971 -0.8018489139504827 -0.7415494928959212 1.548866774641715 -0.1168404023725115 1.580149230841232 -0.8976279431717976 1.409633242356829 -0.3122951842303383 
0.5595565431674697 0.1682320236813813 0.8242946859180612 0.2337411628863789 -1.420587552203147 0.06273741194416022 0.04550482185436915 0.03534370391660538 -0.5772922760218488 0.1099134865056204 -0.6950602086502368 -0.807309738504261 0.173643280304521 0.8640916146860863 2.559044286564836 0.7209866688041959 -0.07844315445736395 0.7861390060880998 0.9343348124591191 2.357369559170996 -1.031676585410604 -0.3402242906929666 -0.9652217896374085 0.3194057091309334 0.493057399423289 -0.3494261769184216 0.2942750549798803 0.5351176995716568 -0.04810376806639529 0.3600626587107815 -0.6533224264407831 -0.3902774166326558 0.02677848185249157 -2.040689700752051 1.375841518894322 -0.05322561107338596 -0.8156438934258596 -0.01414726190481969 0.1814149198139129 0.2237891413092133 0.08105022966275426 -0.1491046375943056 -0.3247836447855907 -0.4212601795515218 -0.3636687274733894 1.087024875547312 0.1403974567018071 0.5308025382831586 0.5884737172461606 0.2263989251130462 -0.7243175581354888 -0.4722291869276648 0.3177983992856241 0.3113408431682632 -0.1439305129345043 -0.5393164289275219 -0.05330211307481308 0.2639823086418579 0.821013510507151 -0.02106979802963947 0.3866082073466645 0.3093019512393303 
0.9628317647166696 -0.63989625180123 0.4514002402829326 -0.2034491977722999 0.3179402580175401 -0.608218285793735 1.214324008973192 0.2442235109560708 0.572025465359473 0.629512638528145 -0.001418381424409782 -0.006945929605265746 0.02059305769514201 -1.250774761927528 -0.3213094520472472 0.6665353805051256 -0.3129930370050004 -0.1305040763930396 1.036221581960479 -0.8376300603783108 1.368099422366113 0.9696328280458142 0.6816807119786013 -0.2495897351017307 0.9110501443941785 0.09386214961981042 0.2579507397516587 0.6628854433702388 0.9892305779235565 -0.04029215003991182 -1.275685921928866 0.7547572530996849 1.137594081341454 1.093657288740086 0.5623412177341033 0.02175862332625764 0.9500985635291216 0.7044224310157341 -0.4418929623630342 -1.673330216649641 0.6520503432827061 1.94612146215637 0.4673288556512767 -0.4211473121611901 -0.2073808527938349 0.2803070133911618 -0.06618719159091047 -0.8655903304833189 0.7996860630107133 0.6876939523040017 1.71706851415314 -1.283218578908528 0.6579802484754402 -0.2056036950779861 0.1997827453380123 0.1534808451092863 0.04586154626442293 1.17087743304297 -0.08883686112969115 1.010671154035576 0.02590778843725821 0.1769815497823544 
0.3126158887692724 -1.599922635427302 1.348117017168062 -2.955292746247612 0.1184248355541094 1.090719074629622 1.053832644052357 0.5764582880481133 1.439057369902648 -0.8344063315370556 -1.014049809670339 -0.7186276235900004 0.2390609145479405 1.687754937790118 -0.008661442917576314 -0.6933593532498081 -0.6008488138286359 0.004392349662423527 0.4616018942625714 -0.7947639468532929 -0.5956888748257005 -1.60835941674003 -0.3201883479889911 -0.8894944447826545 0.5211783346828718 0.1036042570787601 0.7089594925766305 0.7919424397857941 0.6380067328030691 1.101140396008187 0.5778850935978868 -0.2356818642662423 0.4586635525894271 0.1038355302683036 0.7910716648201963 -0.6062608697487153 0.9202077354709384 -1.468417371596153 -0.4178028942111318 0.7601022699375816 0.2735100380380013 -0.4005439055249135 0.08382611388997328 0.07258981269404426 0.6774125506995515 -0.06357573893955719 0.4549545878924701 1.238807917806221 -1.254435146717175 -0.4070680359271608 0.1649673908058029 0.9148560482448451 -0.9213366696989579 0.4708552228328811 -0.1949268464014107 -0.8374786015993566 -1.32487981028656 1.343763893091856 -1.69155622970735 0.9325670115902905 0.9632011134658223 -0.08705535425079118 
1.798038355057465 0.3637177205253095 -0.02846394551962845 0.4443160411744029 -0.387052187509795 -0.4436933414898518 0.5694698647861347 -2.531979672441659 -3.715547503347323 -0.7434551289198057 0.4580446475690905 0.358071700704978 -0.4589071559522646 -0.760783377757691 2.39224918262185 0.8375627977410165 0.1041760689864428 0.9617942149138816 -0.1953330268752836 -1.251696098812991 0.179695656384693 1.709236234258098 0.495641175809945 0.8614703608669495 -2.168583478896623 0.5388759218903234 1.30568336819577 -2.132860580415048 0.2325765841479275 1.875970768678721 -0.6260458476468806 0.7696794622292834 0.4931175182289817 -2.396620181829257 -0.1652015378838763 -0.279915368739876 -0.383408604578856 1.018190917221391 1.635856357004814 -2.302054479055619 2.068244400298516 0.1103990600551382 1.131683676025185 0.3786683432494822 -0.4491878854618047 4.484453889759915 -0.2421404197123719 0.6336163893207505 -0.127525722229979 -0.3646187477851723 -0.864836139984514 2.471777843912606 0.2725590188440891 0.09181937923733507 -0.3371422063593864 -0.9377976728195998 0.4179211440833372 -1.124085876335155 2.39293925074502 0.7955263330075355 0.8058371190090851 -0.4835967202669278 
0.4843310737879012 -0.09297555533442223 -0.02317047266001857 -0.8512650914361785 -0.9543698387608149 -0.8012735836201166 0.5980826904679054 0.6314063814117362 -1.116886773618711 0.3011840841489852 0.1637171700945147 0.5707146308393342 -0.01194691433198642 1.805374571670414 1.019248158209593 -0.2419228277514567 -0.2850838124358387 -0.2137957692720567 0.5012803344014843 -0.02102549955390457 0.2632517507198195 -0.59144893025269 -0.7797378059675847 -0.4320382433273621 -1.002071537412757 0.1603278701704255 1.216585811799306 -0.7387688431317208 -1.703019851224331 -0.7557831291130186 -0.108543852486422 -0.3479510725857656 0.4366480609700427 0.3977451711669177 -1.347490086741454 -0.1147438005501893 -0.8107588074209755 -1.370683409173018 0.143990398869107 -0.9903171702210494 0.3460400994030182 0.3020539141635168 -0.2598103045521992 2.02986349520827 -0.002757576458751753 0.7066908791627743 0.8696534041243794 0.2686343233934859 0.01389334272050973 0.2654167831533059 -0.6886416161052078 -0.5961779995529237 -0.3104580195982638 -0.8801894054424894 0.2732035138350999 0.709302568972327 -1.193128414177118 0.1142099311674881 -0.2300996055703365 1.600782566903311 0.8021693530705151 -0.5713092079469306 
-0.3515479835221689 0.2469910197093777 -0.7410709073955594 0.06432850164228687 0.3162858772695498 0.1640750803504957 -0.2218456138617163 0.6184242990141424 0.14617773218902 0.5597149352525216 -1.079987784915514 -0.5021390389659086 -0.7190916629708216 -0.604878339391353 -1.589371925168219 -0.4921506636152832 -0.6529116297662055 0.8404043557286573 -0.3340306991136371 -1.372162217314655 1.794280870677615 0.5725654360872452 2.028847146868246 -0.1455198186191747 0.382766211974998 0.1222298095917927 0.5877836146199886 1.145375155310995 1.853600498094793 -0.9130342477604443 2.623216591678086 0.05669173944516801 1.471286056903199 0.8801000418522177 1.474019298570747 1.739332953872367 0.3056297111439423 0.4818122321337688 -0.5060391028192238 -2.04187379055181 -0.3895691035699744 -0.6798810499227409 0.1194534706888092 -0.318358599503337 0.9201978722191465 -2.488730306869924 -0.4283093201334183 -1.034847021886891 -0.657435459201534 -0.4100526020759982 0.814562956552096 -0.6186446281788001 -0.7680640480402722 -0.9035853297827702 -0.2718256748396855 -0.5632528802532218 -0.2069664909470601 -0.09536446977848297 0.3771516617964455 0.3870760561097493 0.2128726891600765 -0.3098829006716066 
-0.3000851488816095 -0.8000335337490653 -0.3325198916760046 0.9999725647911094 1.9264546784401 -0.6004977887277571 0.3403187318915717 0.4790347557411613 -1.822240175288835 -0.35244085410991 0.4414879698419112 -0.4282573246468642 -0.09326265477865495 1.507878595214042 0.009162120319267837 0.6972088298952172 0.07720320396610908 -1.508276559784956 -2.746810879165924 -0.7473682506413529 0.325748918310784 -1.539919232744396 0.8338846689680406 0.1200135693271361 -0.471292662764497 0.4216660613409919 -0.6744033534939403 0.4173687140642964 0.9539514562069931 -0.8143560512242347 0.5995593514399419 0.2137594334311863 -0.5951137494431963 -0.2481188728444392 0.5335605185670247 0.2216053015713569 -0.1063464568760092 -0.5994361341848931 -1.667386302861236 1.424499531606282 0.4170671424118819 1.669799541213109 -0.6780858485915794 -0.04597466296469258 2.613008584424723 -0.9240273510735634 -1.588688358154532 -0.2500500450975114 1.050814681312741 0.152444592290066 -0.5592883019810606 -2.0419608755736 -0.2591931847823131 -0.439694505745968 0.03809816061275541 1.236958268552489 -0.8201428458513638 0.08888305327410878 -1.427587117332219 -0.1122691040089791 0.3298525216349616 -0.08565286973257667 
0.4202055878610033 -1.017467293009065 0.2523841105533705 1.191728040529685 -0.08402315492298695 -1.435348552093639 0.8070379453368851 1.096415172522169 -0.1824574256713503 0.417307101764043 1.557652487156131 0.1604278236587254 -1.44258745908883 -0.1547378600946002 -0.7476284286518715 -1.26954931131278 0.3329552200685499 0.1376477301057415 -0.6997989557510035 -0.6914108812613298 0.2517462278564407 -0.02356994392482703 0.2605963799427208 -0.754826186376776 -0.1496982516976258 0.350368487072049 0.4702907373395332 0.6085369764613315 0.7801814183683802 -0.7200182176015191 -0.8125468018172042 0.3692675472959355 0.5047580678448407 -1.110569637797966 -0.1883594154592071 -0.4747393495248277 -0.7436209170064442 -0.3507077072978405 -1.263543740559552 0.5382075566302684 2.594943580132787 -0.1998563394936745 -0.2864355460271702 1.302832794248254 -0.3870998384035604 0.1541486907448894 -0.1710584226487228 0.2147955923738138 -2.043778201254915 0.4790682884397269 -0.01142612434650682 -0.5145904598150844 0.2584186435803793 0.5189399559360931 0.1130164773543895 -0.9320695513116486 -1.994519193662412 0.3625854786449448 0.6916437476621359 -0.235248109171256 -0.311717045159958 0.5752438039101224 
-0.110206090851287 -0.5438520045003684 1.143672330827331 -1.918990299009844 -0.7152039531155343 1.504165535497465 0.1891859241655798 -1.745987611364745 -2.220921767614793 -0.9117190952941506 -1.733784313792016 -2.007385633294959 0.7296397197335909 1.361252658818292 0.6119328944166629 0.2511205203694658 -0.2918786959143038 -1.074729789899439 1.227438555775409 1.772346078319773 -0.9941525673627051 -0.5221274235087252 -0.3114924086697176 -0.2348842135147979 0.1318118420101373 -0.1642876211892119 0.8146762226277983 -1.523434964578078 -0.7805991405090602 0.6171906415840983 0.137716248745796 1.40980222708743 1.520100355398095 -0.5233875429605258 -1.110449344777211 0.4153869775967819 0.1383274289407221 0.4817706793771636 1.366211820500375 0.1540328040001021 0.608155639032181 0.005695380818952829 -0.2860883240571328 -1.267552341338764 -0.06690755834273934 0.9241771336792315 -1.012618518048683 -0.4018358316143676 0.3320774968192838 -0.7426812146332598 0.3441791763052707 -0.4493407024735431 0.3131017781163122 -0.9388791271403879 0.2291950587505779 0.2702223691681196 -0.2687418559961015 -0.8763629600976917 -0.6759048887916715 -0.3186237193724891 -0.3258016973458089 0.2862875514019703 
-1.905407130429649 1.205548362654961 -1.52270093453294 -0.06351808123349098 0.9356114776055104 0.5317276131147008 -1.131106146957509 1.443839699174719 -1.314057900283459 -0.171967532523583 0.4588522002911837 0.04832375187007912 -0.08440788326130869 -0.8295167816824346 -2.122408846541333 0.6561555096418193 0.2990309584082407 0.4666689522578494 -0.2976424840614511 -0.5113085294714043 0.9151477627992944 0.1327634484093692 0.2193531421939606 0.0007466021791988725 -1.231847483460565 -0.03453925065787497 0.4268627880239336 0.5433257196206711 1.210626190770971 -0.183301348259568 0.4315321145674932 -0.248190419669502 0.1102415330349344 -2.522132701523855 0.3194431807087337 0.05915496096183918 -1.288572401524373 -1.490827357237303 0.03519539999051223 -0.06570526064042465 0.2154189014561488 -0.4440914015657848 -0.04044933579839161 -0.309478181114752 -0.5847384759139097 0.9950811439476457 0.3772665679499841 0.8877892586977607 -0.2851966504950694 -0.5792592125921282 -1.399579670497497 0.05288137175009799 -0.6054719541935588 0.2030078720402966 0.7388636340425461 0.1855776176458203 0.95224154040735 0.6102725093523678 0.8748164902641683 -0.9417877962607474 0.6412259980680244 0.1642867480465273 
0.1645754150115014 -2.336356805264937 1.499119867244848 -1.367455941383087 -0.6972136924654729 1.348106729716791 0.2910267151506812 -1.507406970539575 0.4036294603773554 -0.2353181461578563 -0.3002373036818579 -0.6046608740344497 -0.2606900143958716 0.3000444726432853 1.77419526566855 -0.2134419302406414 0.7486992131336468 -0.8693926373021524 0.7587624259709498 1.917845312862188 -1.474505462354886 -0.2515445705600604 -0.0344490203369179 -0.3633296379673013 -0.76824700476678 -0.2032708604448571 0.5973539689698789 -0.1837237688301256 -0.649373961984294 -0.8309259338950377 -0.09985208665293716 0.7151335058174721 0.4859213670561479 0.7069201524173043 0.4150726800961995 0.1066226593896852 -0.0597348317419364 1.429503033357165 -0.5679077498450826 0.5032325058625543 -0.154431102955851 -0.5433315783762314 0.4690005068100629 -2.681906087926984 0.178718342358148 0.4646909689049692 -0.4554998989908641 0.03573671980541933 0.4194007955311931 -0.512879933976903 -1.372342417408384 0.5126034582054476 2.235612848083773 0.3018060465932581 0.8755631541134168 0.2678499864367367 -0.6320947498554798 0.2813250569959977 -0.6936711556537587 1.349421372046366 0.01381832109388529 0.8712080561703828 
-2.427395715341085 -1.104732364239818 -0.8561605218695418 0.2681581870210121 0.7745675249358419 0.6498012333940332 -0.4423632332031409 0.2974098755560882 1.454049724192362 -0.2591688150263583 0.3146635148343545 -0.8210978766065167 1.517761466085273 -0.703639382235499 -0.03972472986615126 -1.031339107193398 -0.9520065122710036 0.3579517240598899 -2.052535041236841 -2.007959010100891 0.294689408511097 0.4554713572459951 0.1133359426037738 0.9493661773710588 -0.4553605469098758 0.9660457927314196 0.683360219801238 0.03387812296247276 -0.08662620626024334 0.4648116873519414 -0.2937049649146426 -0.9755948621512068 -0.5781729596913738 1.819117443627284 0.6120998043958741 0.6225037780296929 0.5047916809377584 0.8172927308787309 -0.6737188938179243 1.112213537303611 0.7006537447549473 -0.5486571274263558 -0.2907508242757784 0.9447127089001717 -0.01647356014069972 3.05713981686532 -0.2598168738788862 -0.4490227357990432 -0.20799217212248 -0.1348457868102693 -1.748762209322328 -1.250261359611435 0.4855852143786271 -0.07106036410846173 -0.3442404191027327 -1.006305494593188 -1.128413469739475 -2.519554077137575 0.3867118041834939 0.6115813556257077 -0.3363736196472451 -0.09664781554493052 
0.2619454650550882 -0.08734716003784955 0.3379741539822946 0.4626303842706773 0.8825784470466651 -1.32696847061391 -0.7081385169831725 0.9645751671155515 0.7289656781145479 0.7933026819483362 0.2877487046428631 1.505791329528409 0.9118331946178939 -1.444952880895735 -0.6596828760626561 -0.3343096110177751 0.3756951231568726 -0.4502167278374668 0.3383690388424412 -0.5035521107048323 1.321570748762652 1.537635201923578 -0.5936383358470715 0.1754324686017951 -0.400796417026399 2.273544776509789 0.150026643219965 0.1155232392136495 0.2041827378274318 -0.3931392872138683 0.8967261910250731 -0.6191535443691683 -0.7453113402461086 1.891569095350867 -0.1016529564818862 0.07158903639312131 1.792579659356444 0.7296984649446714 1.409053321633937 -1.091950939034421 0.1647450139159738 0.1726162055579558 0.4665443920500273 -1.450223612734702 0.4048997107633905 -1.628609826103199 -0.06653210782084708 0.9816449006812209 0.6251381208909286 0.6174623072178408 0.3476805837637609 -0.453135767204332 0.05234353081654627 -0.2178392623554088 -0.2742059681966516 -0.50209475567568 -0.4360143502879922 0.4356201036090616 -0.1034419460755344 -1.720732973816486 -0.8161472130795191 -0.113227660848844 
-0.6505189874960546 -0.7277156736465774 -0.9404135378001862 0.1852885467236799 1.204784768215573 0.5646297430087767 -0.3311333756455878 -1.369122076282582 0.361228086324032 0.9656386172431037 -0.3835600905669699 -0.07987542577481835 0.1651329858834864 -0.5670068112801054 -0.962024638010588 0.3399097841721596 -0.440158499522643 -0.1020363763716959 -0.3751614843094349 -0.6567404657890794 -0.04916751968445456 0.2586404387424958 -0.05490243952683282 -0.3112630968927453 -0.2456386205226351 0.493143704702564 -0.8991400318880426 0.334954030713747 0.08104145358063533 -0.07523596968357413 0.0756836094850078 -0.2974137224643515 0.5357527600078725 -0.4105419042206779 0.8192700912440973 0.2963523375938932 1.407091598581617 0.8927546754923723 -0.386382262003871 -1.201357837647546 0.4398169649978229 0.2928414433598728 0.8647220132468942 -0.3313458131893633 0.5270867139270979 -0.5910554996991904 -1.044713234622831 0.3570266225569819 -0.5723468253583621 -0.08087213005418968 0.5744637982354613 0.5314047760390435 1.332922821268392 -0.6378136304222659 -0.1404530844655304 0.1451951661006138 0.1880420670706211 -0.4951045652310614 -0.6539787044719325 0.01123551138476414 -1.534642113617238 -0.1532262749462296 
0.7017626335396622 1.366154687303581 -0.6899737889606833 -0.4026177251199131 -0.4138403252314247 -1.157232759616184 0.5469034100353679 -0.5454947194885108 -2.437250782235248 0.6452700282882949 0.427625063609631 -0.09249166756030336 0.05942727482621728 -0.8148204698114766 -0.5232818156817541 -0.4526886532856701 0.1609970319746919 0.1208238836567256 -0.5077818651463953 0.9464554743538977 -0.5760559870954352 1.024585512084244 0.3343050249999331 -0.007937948549489244 0.1537152526243245 -0.02603950083471032 -0.4481151822911682 1.463135983625829 -0.6188950491554581 -0.5263978173027248 -0.4112651879397164 -0.1703293818581735 0.06553780396127343 0.987526802640819 0.06269502385749316 -0.4320833893260233 0.6726407984587711 1.688381606147869 -0.4272238397011406 0.5643964594754232 0.4321695155131724 0.5789841171032787 -0.7079549762596545 -0.9287485071919178 -0.3226281903529296 -0.7159811682959683 1.87074949100681 0.05464429961901025 -1.040540001581392 0.4808147908082508 -0.2498248933860483 1.038370523675113 0.8202057133732698 -0.8454074333281056 -0.8771932846856509 -0.3406117607372174 -0.1165315672156728 0.1951933431913161 0.193029700096863 0.583755662040978 0.5967835834116043 0.231140343102883 
-0.8167554490208812 0.03779925352042825 -0.2500527790802976 0.190771861874138 1.787868296665253 -0.6106400598501088 -0.1150021735211195 2.10044248840961 0.9771829618975361 0.245612384253868 -0.1686353882026135 0.7664680940080623 -2.308519118110831 0.2704601124651655 0.7902195185899825 -0.6233771582307658 0.1064389701933107 0.8150541843986625 2.423356540942743 2.597126080295056 -0.1687294292366278 0.1292768801192464 0.9450887217067806 0.01958591608344402 -0.1138310269449984 -0.9982750152422211 -0.7163854788999163 0.6159629903347594 0.3486376647496407 0.03909593109696063 0.813166617259201 0.257800917244328 0.2173302802171402 1.64143561488458 -1.103311717393181 -1.077264281643177 0.1231755063256349 -0.3605722556369346 0.4097273207723633 0.8047417242414554 0.09333371901001369 1.131623142420303 0.8150128757935311 -1.514628726152266 0.987490706849062 -0.1541466130938037 1.244864101404864 -0.3898457751864862 1.589584729650553 -0.3386712341420235 -0.007446509534387351 -1.254961807108082 3.04013289418825 -0.2027297937391145 -1.088119058183777 -0.5224823575618679 -0.05673579060488375 -0.06586824464344478 0.1602659157900141 0.4433282323037612 1.177066715382548 1.042597520121709 
-0.5411514731053033 1.18199527448337 0.1166306034124251 1.461803195388633 0.03186431984387222 -0.267230006206194 0.2150230661798672 0.7195085143413817 -1.103588056784152 0.7383219674509715 0.2189818301411426 -0.05848170890347466 -1.588549031978917 -1.470156793352643 -1.203617219446561 0.2472211058915023 -0.2410323339125753 1.154520985136221 0.580085764196792 0.08773890431049285 0.1502040111203668 0.3333589684110987 -0.2785573979921364 0.2313682361995151 0.09248602443460999 0.02554246316236619 0.2775259625106566 0.4537386731991545 0.1142698357610219 -0.3589238772493251 -0.01392572220303029 1.610964812755368 -0.2948412137917546 0.707389718748912 -2.25078648256878 -0.7902428317329014 0.4538762034251547 0.2521219998243331 -0.2833792069871107 1.410434175606039 -0.4820159185247814 0.4625869674863726 0.7687027125978065 -0.3806319796721229 0.08399765833610354 2.152677079711678 0.004072530783244688 0.1189760164636567 0.6536976700616264 0.2630719101726742 -0.118952254595318 0.5613496661122517 -0.3883314229990678 -0.2298365012853133 0.6549621596513229 -0.07132287821370567 0.4400988609927184 0.490326329435625 0.6732132193612151 -1.209380764983457 -0.2654050919675107 0.209298437318487 
0.9638636318834504 -0.6317739139668578 0.5054222563282857 -0.5174287997257163 0.9777523177276181 0.971078903879148 -1.560112372378335 -1.541919165853211 0.1505832982084156 -0.7016635901622179 -0.7876371231460462 -0.9235889175425398 -0.6430021870308179 -0.4114667721888354 -0.183042788355836 0.9265088911819254 0.6368493781244904 0.8670425691974452 -1.098720933985003 -1.089508803503829 -0.7950934729233121 -0.2244605077505185 -1.2638142529811 0.7349881082904515 -1.149967809393363 -0.475690396242511 -0.7531482243673897 0.4819695521956361 0.4359567750947548 1.627220951234094 0.1497528100765214 0.5139090312917046 0.7443490694482793 -0.7075774904787878 1.151305628174575 0.3338648554545361 -0.6356523241722289 0.881378441937973 -0.965377730665185 -0.2425069454136722 0.7116780563975056 0.2787039337321419 -0.09163296484810797 -2.608859921710716 0.5485481795944279 -0.329630456090087 -1.341302623223196 -0.5695471343811285 0.4772418903105007 0.1285266296807073 1.012499131005884 -2.000038508353672 0.3889332289088784 -0.003709298894175459 -1.400188397048471 -1.520775554416922 -0.8801867623922017 -0.00509525003803723 -0.3134364672611267 -0.004074793944792631 -0.8438193320525961 -0.4495654861037656 
-0.3690090991275556 -0.6165933354840136 0.6756315711972384 1.002308776991549 -1.412455942297693 -0.6078051127788613 0.6779197606083299 -0.9331082128523369 -4.291519981264885 -0.3073036237784937 0.9434901821494311 -1.279665332244059 -1.09856881297721 -2.125769267420901 0.3065603169667138 1.068688512287001 0.9187560225924049 -0.04387623102335966 0.2526352768686286 3.539703069346203 -1.161499090047437 1.187477771211433 -0.7475683804572679 -0.1237276506218842 -0.9359357106837538 0.07334192787114738 0.4996125199278318 -1.621146392870646 -1.396059283573595 -0.6549656633410804 -0.208782118763017 0.2928410078005774 0.6868396525499757 0.4850965601383982 -2.305355934811551 -0.8553761666138865 0.07118244562949655 1.147906940648156 -0.6704281704855473 -1.751364455788088 -1.537771336196753 -1.675757312533452 -0.8722348084182746 -1.297048038384042 -0.5499433700188298 2.189620250940065 -0.4085808465216502 -0.8919345264590223 0.5710595383434388 0.08361571831354764 0.2049421044908023 0.5846846457930935 1.22051425052515 0.004982306576086704 1.338590071924014 -0.7348960919270123 0.1696377706191884 1.741969528152017 0.374582927032531 -0.6776738619152084 -0.7100852181758581 -0.6178502326299917 
-0.7339245578578745 -0.0338230901928648 -0.9270985747406193 1.229410152889495 1.406123339361651 -1.165685801632223 -0.6250421560169047 1.456100779609215 0.1730746426347244 1.047820406761586 -0.2362567107129976 0.4936858143355098 -0.4133775937402677 -1.433643204072416 -2.044867457749891 0.03775482724876726 -0.1532398284355544 1.406763346694587 0.4322774452545549 0.03983920910391824 1.830359014723031 0.5799294584800196 -0.124267951042091 -0.008913130462598163 0.08200621868934127 0.2124544926350601 -0.4040850532004233 -0.1924927610978713 0.8306664328316078 -0.422299279638675 -1.197368089313339 -0.4707913188976239 0.732082083146367 -0.366300931312889 0.2763307807641001 0.9901937935728322 -0.02229140002634928 0.9497674514569431 -0.0248432553911144 0.395837392305308 0.2210442131301311 0.57319344992626 -0.6705390802263844 0.2179886653334525 0.04966410619333813 0.06808248665114101 1.080171834288276 1.297624993565425 -1.696328773761788 -0.1470623201630233 0.05574367183499895 -0.03187744297215513 0.3027878995416262 -0.4070285705660949 0.4407526471829994 0.0782649785371148 -0.2517996219052668 -0.187905149964067 -0.202458208362103 -0.3495426889294931 0.9660606713474214 0.00638752691644411 
0.1742617617226196 1.018794842256967 -1.139841217790147 -0.8042378790980135 -0.5316929356526211 -0.1092453829998172 -0.9415330770751474 0.1092573837495242 -0.8745882691598617 -0.7816000510465515 0.1938762746073081 0.7153719828571411 1.092253619690613 0.7560339419367439 -0.6114734141408738 -1.146951824195987 -0.4999940935488463 0.2663336541497837 -1.409007006845204 -0.6714117276564071 -0.1912288352059741 0.1536797842185083 -0.04828101856702248 0.319353902463665 -0.1434283714093304 -0.3884122459151797 -0.03933626378908695 -0.7805344755697526 -0.3029478871933841 0.2449797951103657 -0.2251861959861818 -0.359649246239387 -0.4375577631424135 0.2010518905872563 -0.5743602361993126 0.4670031906475602 -0.4972476834241687 0.01805853413729396 0.2938172717072846 0.4422333324074694 0.278855489353007 0.2561164976033861 -0.3878647661259487 -0.4410586246125748 0.4382075984310193 0.2436637469732939 -0.8298036546578642 0.5150251017158685 -1.72293109238145 -0.03892790182077313 0.1956253753392476 -0.1603772119731233 -1.259678382896314 -0.1986693600455771 1.094358067449243 -0.07811341481802586 -0.6541322633844076 -0.6565448229996047 0.6700603418078841 0.7305198625617148 -0.7040169528694978 0.4172459945592174 
-0.344578662053679 -1.138120484044074 1.147181924483065 -2.275315184290918 -1.949711342442859 -0.9392890907267273 0.986473579764737 0.6182105777844609 -1.339872695483495 -1.211377361793045 -0.04656296353951196 -0.08428307731932352 1.113090673460646 -0.2357650081849468 1.229467644532607 -0.3881995964158624 0.528268411059588 -2.244961130066193 -0.1769087460635693 3.36170023047536 1.077864309583738 -1.939591997351293 -1.568098680490787 -1.806661691552697 -0.862228803988536 0.1659388470207721 0.03780220641296887 -1.530344041127387 -0.7524349320898388 1.812207337248726 2.971545993250412 -2.171548562056524 -0.80593476503401 -0.7101237240512359 0.5933039487578176 -1.097377281340713 -0.4793801517750236 0.07241023956540793 0.2867014304270758 -1.457155191926626 0.546902093558967 0.01472034406333688 -0.4708333667254628 0.01850811398606351 0.3945121402050949 -0.3380804064688612 -1.340015828872013 0.02635787088758614 -0.963867977819879 0.9495901127099217 -1.269864682654233 -0.7842827834732391 0.3758741475672023 0.9143779969445264 1.240523005602598 -0.07749461772451598 -0.833075347082651 -0.3900740842836372 1.165322823151872 -1.534132122298061 1.336062315397579 -0.4825820995711681 
0.1687814170289066 -0.1947354332801606 0.5100503164050044 -1.048610424576768 0.4264398468809039 -0.4480724585813996 -0.6755857221896072 0.8343491605486911 -0.6627765431735919 -0.06026879549487586 0.4519935988663127 -0.04590643338621168 0.3153313898222231 0.7308393343622422 -0.8860641535105723 -0.2466367635282896 0.2698133115697359 -1.372580462033158 0.01259990478559369 0.4468103814188846 0.4402679894573239 0.09494591947982559 -0.2602858050024968 0.258554085562517 -0.6441726988011391 0.5244554935836806 1.045004455751637 1.309633119374249 0.5942117017303075 -0.2128434225348451 -0.7134365339513128 0.5195213247177217 0.5564927078784481 1.38996158933892 0.9318160228924119 0.3917665925782684 0.4103629737068298 -0.3284851354736347 1.551991974308244 0.9457052704025369 -0.6327828935999774 1.0353468239565 -0.1582106067377419 1.196934564611546 -0.6785951440146059 -1.062147129318233 -0.1956066697018013 -0.1665389855361864 -0.3872954319448508 -0.718878534172725 -0.1820098408532633 0.7605368314088914 -0.3989074483583355 0.06986778067862873 -0.216391936955958 -0.2859578415927941 -0.3562841699002882 0.7251939739234137 0.6845593614670619 -0.1654221064784122 1.087130430158106 0.11636959352481 
1.103704954401652 -0.6044495641018424 -0.3708820312835238 0.7653890457508099 1.470512369141155 0.2782167765962503 1.460088628347169 0.3271021988763428 -0.478421705359047 0.6531859361888641 0.6193834196569559 1.335822798907054 -1.660290050536647 1.947623592607775 -0.4823127433562155 1.328989207437803 0.4691010686407749 0.06853152485676896 -1.281470312607931 -0.05150778203451161 1.310928429731529 -0.6945754876683857 1.185224459490759 -0.5172186068699289 -0.1210851596755475 0.5708022651416642 1.386011593533289 -1.486491310542081 -0.217527193294248 1.151764854675174 0.5888872467920775 0.208284855152626 0.1069962769153573 -0.4904728773206818 -0.7032430591298923 -0.09617441731952606 -0.6339852108880606 0.5878296349975762 0.1521313086269513 1.514037819210747 0.02537562126480041 1.087762793444711 -1.218298512288635 -0.204836239993983 0.8468036246413022 1.003007697159523 -0.9399046733559842 -0.03028857029619336 -0.2329832014704132 -0.4914600538187924 -0.2082164675570886 -0.001521720404720611 -0.5338342896861421 0.5077451278969424 0.5354138762516317 1.246632860412762 0.9382973533674172 -0.1429257086463813 -0.4850077653917577 -0.7048251354264913 0.1212134903042743 -0.7718446629269895 
-1.542804379389195 0.2373753501186677 -0.6563877913584075 0.6408603334500539 -1.235845117168489 -0.01984762549424435 -0.05033878613765774 -0.5559351683126152 -0.1824975399960411 -0.1698850891524769 0.04501562289554815 1.464210881223768 0.3028680082813927 -0.5934636269364097 -0.9083459632065584 -0.2183506196221155 0.3516452481354591 -0.02642401945070686 -1.35488607331122 -0.6548793241889556 0.5607376011186592 -0.2566653187284162 1.245196731419186 -0.5571804569068991 -0.433087675611329 -0.7923933062098497 0.08233873166492052 0.3421317755853386 -1.289761056471534 0.1479342678569636 0.6682961719053814 0.3193735884443263 0.2456368381580534 -0.03192596767222085 0.2040362427284035 -0.2638237423702363 -0.7087988276813906 -0.9198249973678168 1.46455268105997 -1.066323783537595 0.9177426810477757 -0.6647952220247714 -0.5120195715657571 1.072021703668433 -1.410144259804834 -1.737646740771667 -0.4572580937443729 0.394338770065994 0.1217170590783298 -0.7110119511648845 0.1120492271708128 0.1926323020533628 0.5203927091770012 0.1712917728619354 -0.6991820876526367 -0.1281936353960292 0.5454746504459087 -1.006275305377276 0.358779077553753 -1.439658084700019 -0.2845033934724843 0.5296042445056105 
0.1192319137705102 -0.5482950386315539 0.1586075387065727 -0.3637016239534379 -0.05941950704133498 -0.9449470249299392 -0.4779046635046287 0.6583978065353633 -0.5233986139002201 -0.01492754163823446 0.5163646764933397 0.1157844902290823 0.1226870331040841 0.6064722397758008 -0.4096460436027632 0.5022994344092855 0.2499816008647522 0.4602659313988027 -0.3371124671103801 0.02849989987685693 1.252447960224236 0.2407124144379978 -0.1947667043668082 0.01172623284760127 0.02269944555594015 0.6843700203705014 0.3972712459027479 -0.4025033332554937 0.2321786416579093 -0.06397388971740074 0.6505010627055394 -0.03737660626066392 0.6191576580983557 1.927101454658208 0.6362776082185525 0.4127924864609363 -0.4144752087040552 -1.381328773726979 0.4293293066254043 1.184642107409644 0.07469456104889538 0.8337733853635921 -0.4634149257820206 0.1811042655261652 -0.6336703743206682 -1.321425102568083 -0.7947258392098404 -0.05655768545725183 0.5518941146892674 -0.5067350717542959 0.4362642975269171 0.4376992010115985 0.9011705300517686 0.3717063011737919 0.3113603275402054 -0.3570456271266285 -0.6340337231491858 -0.4526524656833354 0.4614095067463239 -0.1567028675841035 0.6943109610101562 -0.2579656265625424 
1.713102590162211 -0.2724098376913504 1.011625573953695 -1.036892619789157 -0.3863633202385045 -0.05164160418970522 0.7606359198723672 -0.8710591784291113 -0.2605893932372989 -0.5196806757226057 -0.5077003188502498 0.3439865071165668 -1.106543867053572 1.303262303620232 0.3391976639139764 -0.5125233775349631 0.182103943476184 -0.2158409338464106 2.389828171506638 0.01731053261729517 -0.5831826989164209 -0.9457328395755521 0.5052786492154123 -0.09006869148280053 0.1525866162080416 -0.1032572005628486 -2.06230620249184 -0.8596580703289948 0.7567345731485652 -0.3910687205312575 0.6912745560077548 -0.0979934523011822 0.2914531627339031 -1.123042560990755 -2.855277983368452 0.3260960737562629 -0.4913107814463096 0.802215734451082 -0.9173906326910288 0.6582755116519705 -0.2864313793397105 0.7657824183776553 -0.1059784583962686 0.6940235436460194 -0.6993485307950033 0.7458313001251137 1.037974772867027 1.148455362581887 -1.261875588992495 0.5526617190692953 0.563745386386218 0.2677784676669962 -0.02494704456760857 -1.34491690383389 -1.443010453803273 -0.4086076745515129 -1.380921901925056 0.3564890956702572 0.02172525939429934 2.160646732995646 1.434821432681411 0.195302859051286 
-0.4936686791437825 -0.8372466093766602 0.81482694049356 0.3741650687843935 -0.8017909328832346 -0.04041858548871213 1.421953736064665 -1.451276020824866 1.980341343077739 -0.3877142733318932 -0.1202235264307008 0.4019858364107866 0.5975088375498763 -0.6810888820126924 2.905363722106962 0.6227281330764469 0.6384832795832176 -0.2362458254189585 -0.395586698166061 -1.079680056865299 -0.2927755284488755 -0.130661785426717 1.404935522353828 -0.08989157885682519 -0.5477996908806484 -0.08246426262759486 0.1957601700035094 -1.193018995361868 1.466813073722372 1.118146365152661 -0.5361461963336597 0.5268082980260195 0.3796750123630444 0.4710266219326179 0.6019670774268402 -0.2991209949409294 -0.2395183380243727 -0.5282679899927798 0.9444822418575353 -0.6339210615779581 -2.39684362410292 1.142338430902786 0.6980639398288652 1.328123480896929 1.283838304085065 -0.07759403826775813 -0.0138301296628123 0.2967117357342887 -1.134837274409787 0.1698549194881205 -0.4651084219444447 -0.665206961312902 0.7522433587285472 -0.2451557757940951 -0.5545521113885656 0.2188749486075617 -1.251036226628473 -0.8465738054067303 -0.5381732235596596 -0.7916586139234965 -0.6750414034813398 0.3236617421303887 
0.6875073139014259 -0.3286045714336031 -1.578796925741677 0.1418017182650109 -0.5077250708075711 -0.3129572695358031 0.6562317372768792 -2.454160335745371 -0.2894839284092999 -0.9006836422853621 -0.9670649977594999 -1.547376473879781 0.2081782226838925 0.3151221988817042 1.022402330113678 -0.7215529978287668 -0.9374090313304614 -1.304221097847389 -0.4137919369666164 0.1519574100154565 -0.8332366507922064 0.08018027303073624 0.354733371828039 -0.1954853436183402 -0.2041331974159064 -0.2064251412842849 1.39252990563157 -1.62444776454429 -2.003198871188598 -0.1438551539763094 0.3975952177728339 1.794563283591977 -0.09078741505148449 -1.725966697661043 -2.261751695014889 -0.7126422835763297 -1.080034839357713 -0.4919320717685116 0.4379676484196209 -0.1595360472646923 -0.09445493052772974 -1.339104771834545 -0.4098651462176018 -0.3367325323984764 0.1297401745728024 1.434469744472416 -0.5371144097525353 -1.146030716124798 -1.151461299366091 -0.07806109333808457 0.3228787313090684 0.06141004699467252 0.3265947801778564 0.3520791089828434 -0.606869722937051 1.295978574989184 -3.345374799894437 -1.138895438260699 -1.19870812668048 -0.0503092837891121 0.7650359230213319 0.9742756155446931 
1.033131654195071 0.7184005589475702 -0.9411018839139146 0.1912198472697818 0.9003822915591639 -1.366734049338497 -0.809753745292478 0.6849670049057525 1.114347529285425 -0.5203885027234062 0.3391412255487522 0.182305714379727 -0.9125045581872051 -1.392916634706456 -0.788563469529253 0.8655537151692795 -1.63375064611206 1.220956339091686 0.4880417929100526 -1.752944553502712 -0.7718284278194582 -1.703064148218418 -1.15204907957416 0.112435242019369 -1.436143127075632 -1.043018074459345 -0.2826179577811085 0.005471246307678431 1.153559484157085 -1.152365732718381 1.823025950987797 -2.195905690814467 -0.6921208355086039 1.158932842916807 5.00413107339166 0.7545272652415472 -0.5577874026660923 -0.4589767415801767 -0.64976810043855 -0.3141508723857804 -0.5275137430357018 -2.211526517641686 0.8784020199840537 -1.903598617699748 -0.2247398416231002 -2.487844056664843 -0.9853367713856915 0.1982390421617755 -0.3514640442946717 -1.020311908127712 -1.612523474583557 -0.06954703715348277 0.2730639928843204 1.004320667708797 -0.375383354747249 -1.312934401739514 -2.093365485729775 1.179073298174569 -0.2503893868117331 3.672896287673711 1.003901451015042 0.1598094739645984 
0.7616614597470008 -0.0112941179503268 0.5325185449337274 1.085753111109788 0.5259729774512373 0.4359330226576829 -0.7220588967202173 -0.5431681081367096 0.4736180365619798 0.1286296837669096 0.3135611679277124 0.5372952028457462 -2.357919476189227 -0.07845701696217067 -0.06148426864905671 -0.6963047206032522 0.1557823213590749 0.685973737398511 -0.2132388075029846 -0.9223615714398395 -0.1877577831255867 -0.0290321682067296 0.9364267827160568 0.682845898389438 1.214864286271503 0.04313375066266932 0.5492163644288953 0.0336023023621787 -0.5125573955154377 1.049851378687497 -0.8271864516183594 0.6403408241769781 0.1641388152811687 -1.441001287718385 -2.137354076324022 0.554401394215144 -0.6875843559514393 0.9710425394491058 -0.07006479855757002 -0.6906092357199553 -1.129886320968275 -0.4645786200630879 -0.9456707106730685 -0.245831964068692 0.4134568851115406 -0.2738254057479427 -0.1453730328068562 -0.2242803512378241 -0.4455585188736856 0.3522042893863557 0.969617610538407 1.821597180473332 2.465417323296701 -0.4123807779067143 0.6777148001338535 -1.180625498452937 -0.212242318396714 0.1522016487121638 0.0934233035628776 -0.3369684430595181 -1.034869776508607 0.6906865805715531 
0.5642489513104142 1.612442954037211 1.171104500333294 0.6953638764798512 1.266644375368243 0.1850808746098404 1.793767326598551 0.3187498948022666 1.13980088058134 0.9172381853228758 0.3100803621767163 1.050525543416091 1.034652508008955 -0.5746708590410549 0.2993886853873629 -0.4650567357441018 -0.5659454161056465 0.4493812961664 2.114898900131185 -3.51412637001177 -0.5361512348161004 -0.9894275605032933 0.4380101324968766 -0.0606744376510545 -0.5853346440979005 -0.4444446646999353 -0.2564322348515239 0.2884205757971504 0.1874800283209083 -0.7479531751063655 0.4751199304809168 -1.262312658953068 -1.4394687028369 0.7846056969283121 0.1238099598406609 -1.669345235200407 -0.7845322991914755 0.8472450904155411 -0.1231681878054524 -0.4716347162737913 0.243966522409375 -1.187467317469511 0.6380202341639939 0.4488153536218294 -2.379352757308901 -0.6256436835178552 0.402669229291511 -0.489107592186143 -0.3091203747646651 0.1669886557620827 0.6346529821325383 0.3906184336349518 1.32773347013213 -0.5776612361716424 -0.8061411452850878 -0.3232639451552119 -0.7246939881454006 -0.6740519954267425 0.05746933002928478 -1.116045828529226 -0.1123609482367681 0.798270755088588 
-0.5500040204662242 0.5128208498640043 -0.7738546837534905 0.4169506541804491 -1.469775069627574 -0.2634410013453918 -2.329833350449966 0.126084428257891 2.874823672289183 0.3467129763207811 2.039324306332119 -0.2590749013591981 -0.7535672647718441 0.1800925965693939 -1.951054849210142 0.5933340229600909 0.9130026954005761 0.9511235114886344 -0.4061256986838998 -1.708274723050582 1.987477909203625 1.168760914146566 -0.1518700569703454 0.7107687534509193 1.05288138962651 -1.089954565568097 -1.684771364726847 -0.6009866380236526 1.198461941032815 -1.715883263952087 -1.313690770136872 0.1078050133569046 -0.9361168374020641 -0.01984194566545665 -0.7672404148680527 1.353486475425473 -0.8779970734405466 0.3800884637724162 -0.1243308516219152 1.063002796953059 -1.582699900924433 0.7254077790069102 -0.163805197527095 -0.7251348991546122 -0.303653327948842 0.9246523956560988 -0.5867207624054027 0.5776211541217319 1.80498381418583 0.7325829390232634 1.153209198133078 -0.2564759745634274 0.3799260624868754 -0.2062212063837299 1.057864412420285 0.3677807513914924 1.157916606404222 -0.4867719191648249 0.6216592837965815 1.077690317320954 -2.698056598299339 1.017960672072712 
-0.5619666413016153 -0.1686824549788689 -1.600039730110721 0.4698224746252967 -0.9821376986334897 -0.3067534578346589 -1.624741275898194 -0.9731805726827206 -1.941527615157108 0.2485656861350548 0.4386364227765868 -0.8397826444848695 1.456858619670601 -0.1997516241886133 -2.395100054286373 -0.7998163096191183 0.05337934360009147 0.09955379839072394 -1.264759487200364 0.9410016533780089 -0.08984881082521176 0.3731614908525823 -1.373222722079933 -0.2309365138097244 0.1632251044359804 -0.8599597809192702 -0.5749731522397264 0.1758056758328783 0.4170437487775746 0.1602207729530597 -0.2717692323514533 -0.02722936911027258 -0.03216225654838406 -0.9173026738773832 2.481174974432367 -0.3886500945013416 1.128604062875878 0.6919598046881895 0.06570554380833632 -2.417493627005903 0.2669010683940479 -0.3437018627682836 -0.1175141725983435 -0.9226445937018056 1.566509658106944 -1.637226371106 -1.040314734601488 -0.1385510494973606 -0.05049964855902853 0.3660810173482358 -0.3451745955429657 0.1399443910679939 0.6283246315905192 0.4756592435718198 0.1678784217582443 -0.1310340474286229 -0.562747851141859 0.1996746548997467 0.7316689575330092 0.003163616628129313 0.02804707894532616 -0.6190382005722876 
1.417063526338698 1.117934501780364 2.703176771904423 0.2037493742169766 0.5603257456152553 2.224084297803994 0.2277794260204389 -1.256666023928352 1.4782640122993 0.2263518491507934 0.1437414132051121 -0.3535168821122156 1.147853090290168 1.075375875109593 3.081842941648288 0.4633682753854232 0.3443036405033312 0.5727877605806377 0.3108080074996325 -1.425400761500341 0.1533184459418167 -0.7438813529659319 0.5147448163740435 -0.6402292413209454 0.1679817291305394 0.1229680531348128 0.4860221447349869 -0.461582274070012 0.9394039961816053 -0.1460368893757527 0.5649821969041936 -0.1885767420043612 0.3803877561925206 -0.8671920497695342 0.6575045357345481 0.08389590704021016 -0.8418614997120897 -1.456915346077825 1.064415375580576 1.34283322253333 1.589077314624039 0.4412954746417905 -0.2155646872497444 2.352821909469795 1.515108613898368 -0.7369220951056608 -0.5208685198996318 0.7576173681781043 0.4010688480826001 0.4930301199165285 -0.2568454922068199 1.904957059764922 -0.2281277939182716 -0.5633904398165366 -0.2502988493688381 -0.2639995475253808 -1.090931524232321 0.7275583685207658 -0.1459443243314865 2.025824917899989 0.3992762164960006 -0.3762543842364245 
1.045265631696051 -0.2758344447192932 -0.6169718590051256 -1.446254472279544 1.026527768621549 -0.1268592245008019 0.2299411616357926 -0.8884834534885691 -0.8221440494629036 -0.393002702471626 -0.2439048437678369 0.3981598428111857 0.7587173312605179 -0.003645853949705588 0.2614375687319933 -0.1104894564718277 0.109497962424216 0.2513301802608913 0.9601230848446107 0.06710081149382711 0.06486134999800412 -0.2375072980759094 -2.409731900577157 -0.5915990879989088 0.09353746675815805 0.8273561219304245 0.9232172730373513 0.9978032794937912 -0.6419520667857751 -2.992899125565282 -1.632472954113749 0.03442140248769963 0.3516912472246111 1.534551909784633 -1.243544306737146 0.08563895812602139 0.6229918253005895 0.06755469531526266 -0.5478917925205229 -2.116233520751825 -0.3981392179366641 -0.9310699683408703 0.1722824608209624 -2.589568895646653 -0.9063689271092271 -1.000264918833921 -0.319181119897115 -0.6997612981592388 -0.594068478607151 -1.082119137307604 -0.7855360231328922 -1.427949953133985 0.3241234571246252 -1.39907635799559 -0.7312488153603532 -0.4840989088494174 0.8244169359438376 0.8417131479582347 -0.2999287149669805 -0.2830759766171483 -1.386085789914046 -0.452309317027364 
0.6454065340253194 0.1099376231285983 0.8637823975477852 0.8333684333225615 0.1029129126532454 -0.5078287348181685 -0.5159001090244056 0.1530062416889304 -1.182982354596195 -0.2697882944171474 -0.2249076338500807 0.2460935649839948 0.0437537391345151 0.1918945916058868 -1.04058344570093 1.700446948270773 -0.1643550410121597 -1.394480101814952 -0.8666024896629506 -1.29200513651752 0.3824178648625154 0.403887542760182 0.286292748554725 0.4302523181828325 -0.7148747446041173 -0.1999384237100255 0.0061570593610908 -1.120847597487772 1.005741435188635 -0.6605275121681797 0.5716183788292746 0.2777554901130228 -0.0852775494198194 -0.07089509319989346 -0.3736128471859541 0.6674026988862662 -0.8286245726912232 1.071240380817531 -0.6755217486145599 0.002243824335635425 0.1063766356140156 0.426188477509846 -0.1455377951275315 0.2593375057280148 -0.6162244583514503 -0.8492033656853075 -0.7129343273995926 0.2338887688971727 1.443243027321944 0.5035132124422417 -0.8938558104186365 0.6345075401680539 0.3922383321979817 0.004915475058677988 0.2853078401211359 -0.1025923422450593 1.035825066574695 1.79990003111692 0.7463391255293204 -0.2628908347363627 0.4208584323421889 -0.3168135849413671 
-1.64910494395204 -1.029918927005666 -0.5793534827985631 0.9972821145037539 -1.650129704091653 -0.9193873288365889 -0.07367832895527672 -1.854839917391502 -1.625037756528586 -0.3968914317591779 0.744402845081243 -0.9764731626563793 -0.8910297914573133 -0.5156598139190226 -1.287175362019469 0.3268914772809831 0.5984150597108853 0.6382413452744404 -0.5650654838846711 0.6829323681220378 0.2618824738446801 -0.03653344994168912 -0.3119231970802127 0.5396233071156309 -0.1878884486524501 0.2719412559783667 -1.640455872763317 -0.3081506529994184 -0.130558259477569 -0.656750864092259 -1.510580089965396 0.0019007186818868 -1.132831236124319 -1.226021928469975 1.192160885090424 -0.1836040427817305 -1.105697255845876 -0.7666627949460714 0.2211979703615642 0.5292441562901276 -1.371049477574589 -0.1631426511329203 -0.5454432442506723 -3.153990871155408 -0.9681273495723771 2.186463168358366 -2.769541931780063 -1.357649000022472 -0.1962855348540412 0.5314691049228627 -1.251320529012543 -0.3307399524864601 -0.4946740602872503 -0.2699270513369705 -0.5276241289898255 -0.5938926097589952 -0.1584900567492147 0.3011869971022029 0.4115103158022249 0.4130038230104886 -0.3667211599498984 -0.806229306164982 
0.0136320288791463 -1.17835449727507 0.6111208807839815 0.7099518966927221 0.0980180206440612 0.04766106521648291 0.9992049980932081 0.8770127890688195 0.6408748645634812 0.2743317289136897 -0.1121145699648114 0.6090407406975167 1.579292498606915 1.23706841090784 1.539472589897772 1.669653343890848 -0.7589659177275374 0.1890563128109994 -0.3570820103733451 -1.027099289216481 -0.3336947547170003 -0.8767132183761641 1.097927818977368 -1.083865115584018 -0.2046121153101472 0.3785392978945574 -0.943404772345602 0.05213258434112802 -0.3807942054636005 -0.06346871630566472 0.2969981519293133 0.8922396745478649 -0.3348491893903697 -1.894927422035194 1.188303355242564 -0.7529188855438881 0.07244790815088736 0.4931954176430605 0.228473375824306 1.767732236865159 -0.02872347881245557 1.660910225676068 0.4033886913563743 2.190453036447533 -0.7364196950265413 1.086382721483801 -1.307373804795772 -0.194914855234167 0.3154508789987742 -0.2623908184921891 0.255700653313448 -0.9514507401477628 -1.084444194676689 -0.8931539164115634 0.6757980408928118 0.0139498792959012 -0.1085735080170441 -0.214195171111931 -0.1734573083534895 -0.781624714280381 -0.3174531205136016 -0.1427068065800573 
0.6939318789095561 -0.4805669833090468 0.41312758932542 0.7079770326926317 0.02465719072852018 -1.590897335677028 0.5215413366957844 -0.7856930760938765 0.2348943319707206 0.2666198245327819 -0.01657995135790039 1.775798621019691 -0.2003191990965926 0.6693374843453804 1.17252157764921 0.8918993628796675 0.6776189607472565 0.8670296655609647 -0.1104385924149126 1.705402187383005 -0.2412660288589315 -0.5635121982581731 0.2441236174853473 -0.1743960488013961 -0.2197870089539969 0.3394936996559599 1.268124757842697 -0.2925998851013029 0.5320243693201524 0.8110777583916468 -0.4594679152146766 1.232763419912247 0.885434032285781 0.5442728838219592 2.202845602947571 0.7137244947807021 -0.3773752393342433 0.494065068459044 -1.379187585135047 -0.05478549968096799 2.028229819385992 0.6990230843787628 0.4687186056489401 -0.1365208072641884 0.7139620479057542 0.3090405307352344 -0.3516370887790843 -0.3591411228459507 1.397203354300066 0.5831598501811143 -0.08901529195429164 -0.3333328139631744 0.6095865077205234 -0.02017801981312789 -0.2664408365655792 0.3228200963038806 -0.9131248893155833 2.068022525832897 0.0527125231089704 0.5103963874410183 0.6750679106366432 0.1004742565930182 
-0.07238563153950978 0.855787020171871 0.2489175339818396 0.5086017774270671 -1.470839809291546 -0.8893120211576931 -0.5800957463583801 0.2214035815684731 2.246638273246323 0.5891235627955091 0.9736039730328013 0.4466768301635257 -0.6156708914135012 -0.302025160520248 0.6030254989254334 1.669432810115229 -0.5419892766178028 0.07123111568048045 -0.488113474832073 1.964213308368953 -0.2881831548156714 0.2776703031595207 0.1646390449718533 0.7989689791529196 -1.500236689170522 -0.1766405351471921 -0.3682240862326446 0.5362943043532837 -0.5477536217095208 -2.277756164079914 -0.06015702556853518 -0.8423381340914842 -0.3674924781675941 1.331059788392274 2.205548292332667 0.1893271449581545 0.1862646656634019 0.5822408230749753 0.5467477225692449 0.4214654875230072 0.3884989519870853 -0.0174704796218073 0.4529348278076432 -0.6041289692051564 -0.7401675301363557 0.303243118438386 -0.2467771036270527 1.047455039201665 -0.3718861571209705 -0.07573998880539418 0.4059886925424023 1.005963903001669 -0.2528438537181507 0.6392614640098472 -0.1274665453297859 -0.6055747958842917 1.847678907607507 -0.3475493605381583 -0.06209111425832751 0.5069046914899812 2.031063615217663 -0.1754503996800361 
-0.5254864731109453 0.0521452080046745 -0.396428507504765 0.5769086077526907 -0.8352782876723863 -0.1880841457380755 0.7993719956753396 -2.54864299602422 -1.659826479830522 0.2672467799980864 0.8724189436812493 -0.1280933381457903 1.919391752563925 0.6332586415242976 -0.3065671219237283 0.3256614290044442 0.2587307661238195 0.07484873063186147 -0.8863476109641648 -0.08232288679907422 -2.080876829735943 -0.1892713633411088 -0.4293735174912325 -0.609789667422465 0.7790136014870401 -0.08878444072410811 -0.3212719588260872 0.1898512017342833 0.7620304885246084 1.650454565214714 -0.8536212345107131 -0.6020132147029775 -0.1950189302743278 -0.6536500097186567 -2.448457186342254 -0.80982236494129 1.218731397803775 1.059818689168291 1.193698857189063 -1.010397118924445 0.807866279012812 -0.2044345295703311 0.8919139074833641 -0.3387681427009707 2.980900524126188 1.179732611453187 0.4485601448889668 -0.6300739165252187 0.003155532794115294 0.4161329765962947 0.4326893912974586 1.512260724005319 -0.03774928275591374 0.3022993061696868 0.8228792885132172 -0.1111704555135046 1.140150174434329 -0.248392411915051 2.23715471166293 -2.975692032534813 -0.6634616247181665 0.549643057880304 
-0.3628233407801946 1.586332419469101 -0.2797033315312057 0.1810107093140866 -1.779853100149324 0.6592086844548825 0.5804768388237892 0.5637393425337235 0.5138366174206846 0.2764050099638888 -0.2309373734249202 -0.05532882774564712 1.44297760208053 0.7896846619189705 1.306627914441606 -0.6745782845728656 -0.5125778522863116 1.138371175233537 -0.2556185777866196 -0.1767413539448573 0.8193919755364282 0.4582256556679563 0.6730852162986628 -0.7380329118055672 0.4109545238061811 -0.07034430777009863 -0.5869620742285039 -1.712873914937714 -0.7487877996081126 0.4607922288618102 0.5249972476303002 0.5352687991203303 -0.05991198228649244 -0.1069318978407956 -3.169726618031369 -0.2224478202381701 1.072414384209414 -1.035334423908207 0.2267931111382553 0.4157678540069967 -0.4549712201835346 -0.2324712368111115 0.287774562570474 -0.6087101627774442 0.6274908433039816 1.893504143318804 -0.6215124315182082 0.2052203863231342 -1.224707050767784 0.002214576975802221 1.010241594068039 0.06204199495228169 0.1173858461520892 -0.3689631149934636 0.7438153946340653 1.678852854234592 -0.2829250169571807 -0.5947289669818446 0.6109808262817088 -1.371746446528329 -0.5348921216245641 -0.3549511863196821 
-0.5647371031689886 -0.675877609874576 -0.1507581599847551 0.382121798669065 -1.015036415250328 0.01251897354506726 -0.63621968553663 -0.3488257784196765 -0.863438463073104 0.06052241721052417 -0.1279631295068389 0.5403465443612734 0.4974369834924196 0.2846993196017591 0.3795094770133061 0.3442456422565633 -0.1713067460939046 -0.7166086598285549 -0.1353220892874901 -0.648879321879248 -0.5669049563161617 -0.4412387226925633 -0.4315884834376769 0.01186192587189101 -0.4458742248658953 0.3508241908529334 0.06732977852101128 0.2694176870769341 0.507431325060878 -0.170673368923131 -0.3747003239447259 0.08481932313642279 0.5320966064435663 -0.4776766099616606 0.976456817148227 0.4129500983465387 1.424829454956483 0.02574143944432518 -1.080370411907543 1.171925198263697 0.8635666151679279 -0.2229812536304784 0.02557473799201186 0.3944197324829049 -0.09707088072105563 -1.039354793883546 -0.4955024740201837 -0.132810917990157 -0.02241645638570254 0.2084212358217671 -0.2635240040541921 -0.7039557678100945 1.351740581439583 -0.8490120051733988 -0.8199797419115922 0.2113715853814422 0.1525533922699809 -0.9911423709220674 -0.5914405477403156 0.1753871800780875 -0.9261104553157236 0.3218009768037843 
1.192438244378014 0.4429508740625165 -0.6716236257449097 -1.063482759039274 -0.08963259467523646 -0.2047980034122993 1.663747705188222 -0.5916859192391686 3.279177236317122 -0.332531998759952 -0.03677174394534695 0.4147803025866753 1.893823910430507 0.02846675466671931 0.5253812733555446 -0.09993808364624657 0.3290421655491415 -1.541099268450427 0.09330345792681162 1.193386308093249 -0.001172471810347898 -1.124948876180087 0.2818958834041831 0.1602689845163091 1.494441099141233 0.2817320412840278 0.7727279763822213 -0.09226571833754471 0.3075905576539169 -0.7136444345380278 1.516274873482609 0.1548684576844438 -1.900420838482328 -0.9364293469711701 -0.6032746044354589 0.6878472206864125 -0.0598335442371068 0.557826151631977 -0.562674178948488 -0.4155402257394608 -1.252377831278584 0.4458107514858487 -0.6360244952537908 -0.2372671295806675 0.6256087783882829 0.707727180638984 1.730418165857358 0.1321937087410057 -0.1466663906813592 -0.518356302229346 -0.1325274041298661 0.2506987764839008 -0.1287161190855046 -0.113694426692258 -1.099712465344979 1.346040101570872 -0.873566073837549 -0.6785097743242544 -1.155254710019044 2.121122650648803 0.05457607941641321 -0.4721573804714629 
1.372125261547862 0.5871272349492788 1.113397964663783 -1.215052986061681 0.8000113891781668 1.50441005784822 0.7085730835400581 -0.4678625194234231 0.3365548608818478 0.7362369671532188 -1.230335037414945 1.056773409214194 0.4963117693235987 1.171745361919723 0.6930653277608912 -0.7957305130530448 -0.0886734824063839 -0.5586774929552115 1.007660176228493 0.07546882390308446 -0.2711469475313688 -0.3512244813805265 0.5447637004974174 -0.6614873163349865 0.7552590836232056 -0.2814281849167412 -0.657678125679779 0.07952000267990389 -0.1436576617122295 0.4081786500814991 0.1142890318857162 0.3309195574151224 -0.1944437054919547 0.03312798953285588 -1.323142717319608 0.1519599127560908 -0.2741188434916369 0.4738738011169805 -0.5384356282781736 -1.177001324576618 -0.4032654771408316 -0.9862727118357251 0.1805735837168124 0.5026146745624237 -0.08746001326578995 0.8737612995590615 0.04258553105605804 -0.5127174990064614 -0.511442902552257 0.4175517804222172 0.7239518050419788 1.577857710016549 -0.1655237069219276 -0.723107679514802 -0.7845634327778971 0.09821781247127094 0.2321205210600546 0.5144097669286092 -0.04835793254492762 0.6421780895597233 1.09834612798276 -0.1109804776332228 
-0.7337076845344256 0.987146590418266 -0.7838032121487062 1.098382264983066 0.177194777498416 -0.06539459422450913 1.009865649453941 -1.233946460758802 -0.01459506296815065 1.958815935671309 0.413084328629978 0.7684903151536033 0.7609073119234309 -1.022558357284375 0.6712766555539144 0.8219548831133402 -0.5499783779015264 -0.006453757179695058 0.3820074544672965 -1.571679556360414 0.09769500146947484 0.06274616777249464 0.3069600580003448 0.07392125701409402 0.6186579118575378 -0.2397109566806642 -0.2794333506894738 0.2092287676555631 0.8744710824001344 0.7140800629182591 -1.197851233846621 0.283458660513112 0.393587755480421 1.136154527428384 1.434988903655552 0.7401977855899847 -0.4386986892367665 -0.8520355153107146 0.0537899066559068 2.364330816681147 -0.9937355978855809 -0.002825974561457554 -0.2602134291609686 0.3749765431992109 2.181724888000922 0.4112074262209927 0.9353401306319231 -0.1227280629940033 1.524346335719388 0.4694625096406918 1.074638910873697 0.4835071911665526 -1.350668802851229 0.5936111021479807 -0.4903221881977962 0.2886254412806893 -0.7440575692266598 0.3990363151017493 0.7907664267045926 -0.2983384320565838 1.674555033582508 -0.2218693681427162 
0.8334021793317993 -0.5707579636161879 0.1531975673404497 -0.3191170225599569 -1.989274933759036 -0.8309954125036167 -1.051045591396199 -0.2261506356247691 -0.2181963665731373 -1.364913724896027 -1.075839846446106 -0.0257526103047162 -0.5416124568627468 1.01119393239817 0.5821195163794582 0.7510093080883937 2.223170318726301 -1.018589553116809 1.725001319839697 3.091194074578482 -0.4197004666194419 1.468236766161743 -0.6833959572345616 -0.3959720480814085 -0.1429959393391902 -1.31600995807064 -0.8297661611126702 -0.6041236959945122 -0.416547681161479 -0.1442485241947688 0.8283011619599455 0.1249014617786608 0.8822231648780094 0.9018665684484811 1.231430129442012 -0.3470043614340607 -0.2981808223277786 -1.639749561356171 -1.427043310193242 -1.406904376807836 -1.405683419323792 0.9108648678043495 0.07680024910791249 -3.008125691101299 -1.057070882842345 -0.3000601906299935 -1.143039506134341 -0.5235434017952384 0.009540163159365664 -0.4456799316013499 -1.326792837367191 0.2034734261250463 0.2342604187329779 0.4069234823885597 -2.68009512230512 0.2727447194922485 0.4790842719233907 -0.208132880562205 0.254006794185284 -0.9254578074280527 0.2878983796384064 -0.3435454452805198 
-0.2730006509023504 0.9128622944205276 -0.5676763822105557 0.6484792387980979 1.311119623306677 0.07642357876465679 0.5317144967595907 0.5641484482351004 2.480318984623301 -0.374522154451997 -0.9825045438753235 -0.887235489435557 1.10713721697013 -0.7891099828515759 -0.07485772017963625 0.2154782899372574 0.5558088386400436 -0.3978690340167956 -1.220165161912486 -0.8171515562931257 0.3714524454616598 -0.5819544204078859 -0.1127844468600171 0.07910361885122008 0.6909587637429853 -0.6796238925346373 0.1151351390829828 1.113914026093766 -0.2547789069424639 -0.5594499033791651 -0.3777612690680151 -1.379277810034143 -2.215880983410616 -0.1997321217550501 -1.589937581816989 0.02461176128450239 1.131249816803931 0.4698077856097332 0.9324697189606401 -1.236463993477477 -1.255321125169421 0.01323275931154834 -0.2108391594911193 -0.117200102659416 -0.7179703283153375 0.6406448116658289 -0.2843750915495155 0.5732270859299523 -0.3393431202970287 0.07046317457082804 0.1820485734798753 -1.253545391739757 -1.591728124875061 -0.1663480618462598 -0.3905508919854914 0.4092370214927694 1.068599257338294 -0.6401872042841953 -0.841458270421843 -1.931212767936487 -0.1853633125156174 0.6787427478250672 
1.17770699558108 0.4342773741147231 1.726135368513181 -1.383237458581782 -0.5460048768406083 -1.304233165220537 -0.06144579775891672 -1.079454401775214 1.680477113628309 -0.1576146523590879 -0.9221547562268928 -1.052084915565273 -0.9745875954705782 -0.6200178851285173 0.7296749830724834 -1.428244235728439 -0.5793538656312155 -1.111940482403382 -0.04450669165717137 -1.450709062072538 -2.288368492043263 -1.481377309475871 -0.1370582894498025 -0.4185154796349383 0.3029286626925918 -0.3019711721718715 1.826846832343281 -0.9242449039812113 -0.8363391852178491 -0.9587613070469031 -0.8919924305359118 -0.4672872860819841 -0.7865664073529077 -2.728028967217367 -1.382736152678564 0.4081703445248728 -0.679204789410268 -0.4919540161619183 -0.03008256060317888 -1.272745125357625 0.6917573739092781 -0.005536507483215862 -1.267994823707266 0.03303458587157739 0.3684503444443861 1.156906076240769 -0.6400117902341499 -0.3508755010301872 -0.9735453631303643 -0.1594578802439967 -0.6311379240074946 1.505227265845195 -0.7631083414724011 -0.1232905103280744 0.5297744063718585 0.3160732684332257 1.330470197450578 0.6262051764040214 -1.109868604154347 -1.230718972417813 0.4838359268491906 -0.2786845681107793 
0.0820505071276009 -0.5750220447034549 -0.4336687829131818 0.6011709101310362 -0.03941608125904175 0.2684104106696545 -0.5098046153365439 -0.186256674326747 -0.5124864735717932 -0.06342252743038673 0.6705379927714803 0.4822901866898032 -0.8330701827811331 -0.6693583739145093 -0.3920781281225452 -0.5275490291912071 -1.020246865750188 0.262925486383427 0.09671335693003416 1.460198513135055 0.6975814728528726 0.1017601640439429 0.2536923785769373 0.6763563418818612 -0.2827581169854106 0.7019258818848233 0.07860692408358301 0.6773036854927699 -0.3854335208179182 -0.4162933808603772 1.679125799468336 0.2934055812901686 -1.451107546846345 0.7229323801397908 -1.444253356235445 0.06518429754020966 0.613405918440759 0.511986835685337 0.7296707292303933 0.6658059398915355 -1.617740548355105 -0.1910899418569555 -0.5370547568526312 -0.6051046843236459 -0.2858797134133801 0.77926347662847 0.8223762405383176 0.203239115388186 -0.6778808710794868 0.1326698244278695 -0.09854512192554055 -0.09735253897906988 -1.264548988240753 -0.4059097478079446 0.4868675664576344 -0.03343575798526209 1.924224974277797 0.1358007765939017 0.9933143999101466 0.4538619138186843 1.080189096197224 0.4935050222624019 
0.9020483713422028 -0.3080010184285747 -0.6350937202267296 0.8641277224543669 -0.9100664958422306 -0.5982685485188424 0.09699038618754886 0.2784254489782572 0.01245133131546657 0.7999756567060158 1.21250939341357 -0.2337379958818732 -0.28508895888935 -1.207686020627887 0.2711118777097595 -0.7218320893174058 0.1585546850000044 1.021146619130616 1.068519876856503 1.395711661950306 0.1156886742754131 1.006087297023826 0.5680660079775026 0.6755934789167017 -0.7602602283938875 0.4993402874913515 1.544710161161841 0.545298590095595 -0.3686516964135515 -1.240502051316796 -1.709219361192135 0.3540366948889683 -0.9682611618608797 -1.469764750765631 -0.87957921752107 -0.024227697638305 0.1806226775915827 -1.942602252166296 -0.6553671742635911 -0.07363463690844445 -0.2587598719587832 0.6057630503876447 -1.578253615821178 -0.314754274589359 -1.37340113031858 0.3914986358222172 0.9839215888900613 -0.01678203088729367 1.313081463569705 -0.2469427193256692 0.7522319738338739 0.0007827946046224616 0.5713566232135573 0.4707455436745238 0.6666552105892091 -0.294975066300692 -1.080401474217437 0.156353251864989 -0.5477234613648615 -0.1189513065941003 -1.068947368316364 -0.690077834023575 
0.07508286634958122 -0.1345307880175703 0.04806361147438977 -0.8837572139994241 -0.1683786873777197 0.4901334291550146 -0.03352056920145632 0.5500650545766534 0.980257193565698 -0.5079224849984495 -1.373064261922519 0.2181239423732846 1.239603288345944 -0.3897152791457469 0.2519765418574758 0.1511050218607638 0.7905450473274213 1.387860079872885 -0.6667528679867253 -0.2291475856850896 -0.06453341597780264 0.7010192860055884 -1.441134042497711 -0.2894329025082595 2.408725897269701 -0.210242059395481 -0.3977611597786451 -0.9810478278422807 1.229744448754605 -0.2479804828794428 -0.859076303869556 0.6251914627860333 0.04277945037292852 0.952966329655112 -0.1406985782198806 1.303324505337729 0.2589332820951528 0.0495749506865756 0.4315703084373131 -0.913858050858145 -0.6494920448817021 0.8123304907485607 -0.2154897562174037 0.1222707708845355 0.8081149823612562 -0.4518833760299779 -0.3408971420837544 -1.49710708295416 0.6411042573969361 0.3179533135406814 0.3655260626288689 0.5096767831680682 0.4134999822515648 -0.6621761531505899 -0.3748111320268862 0.787405015708415 -0.06554852891994634 0.9126862184718777 -0.9288330751531856 1.440141262513603 1.112898469333174 -1.272668314893205 
0.0211967211209974 0.5208285113030638 -1.312423264223731 0.1620320755295286 -1.664128178624949 -0.3524027206692412 1.138027473081796 -1.612897765214091 0.5735980918846165 0.6252913488451416 -0.2233141417676751 -2.042207151855011 1.394466238269267 0.5812194887324899 1.100956283073943 0.51262961961139 -0.8368765341314188 0.5800366047601474 0.1636137248824676 0.5242551268798692 -1.577935148333236 0.1371511136493634 -0.2503055985274465 0.2234158554339801 0.9085725954042356 -0.5985890338733646 -0.5946853859793699 -1.330996412989864 -0.1294273666171337 0.7444568165941746 1.494470461961072 -0.5881123609312654 0.4219848195555284 -1.152967957675507 1.335689556317801 0.1905646942356115 -0.6199523612710267 1.28803867486001 -0.6234922213759526 0.4093329063199534 0.1299593137069526 0.1565677281280545 0.1547806037640601 -1.044787287673403 0.05932604570452048 -0.8725655413075692 -1.413399777903235 -0.01529437697560642 0.2198532868746251 0.07446888298908078 0.01083861361722449 -0.6968501777386003 0.523801622360234 -0.2458866560785935 0.1525328820186383 0.1195631954573457 0.2617518111738833 -0.5323385142888106 0.1856117174515655 -0.2306748300680548 0.395745112947973 -0.1877371596276908 
-1.444748485885627 -0.2217500348555296 -1.887242859356316 1.478031219918191 1.072926798329019 0.453089617662811 -1.508677560534543 2.157308342864379 1.951214685691723 -0.1254990566832966 0.7819288064107061 -0.5816719250240855 2.253716549378478 0.2458527615202458 -2.001776474665548 -0.2427308944216978 -0.09087949296955297 -0.8762899593377191 -1.104234238399501 0.5394642692627734 2.402500807701356 0.6084713628691273 -0.1513316179216016 -0.1568663619289367 -0.00897259109639348 -0.1031396980319819 0.6035359335947893 2.172646613545139 -0.237360711657575 -0.4352064975150665 -1.800294483372898 -0.4286256073472133 -0.2754187477666946 0.9666489964188848 0.6592429380775098 -1.080319052487425 0.7023961115162711 0.3570423734803251 -0.7847223532773523 -0.1141913046906519 -0.9080848794071094 0.5885792908322697 0.9488605817112683 0.2906117415725524 -1.334232838400435 -0.9285034086994371 0.04996786936619941 -1.172643571615841 0.586409063134909 0.7921191822636127 -0.08166171445362148 -1.26819100877889 -0.3465733773343126 0.07433191569162 -0.3364555115347818 0.03622294961532229 1.124850005677321 -1.148943831301809 -0.8790004203358857 -0.77750396921613 -0.2843725006213214 0.05965700988591702 
-1.98556920118027 0.6859933573561197 -1.12513587045571 0.9570809906365697 -0.3623031191887467 1.533435644463728 0.07467412342133421 -0.201138317634763 -0.5422353889729618 0.1072608590238068 0.1311006160061959 -0.01272379586697222 0.7406057147477889 1.038864647704899 -1.923680664564716 -0.04560320844921612 -0.3337113203386876 0.1691615218708002 -1.075509856798226 -0.3182745206710119 -0.5791787245394194 0.1615245074472039 -0.1809678205444931 0.3854168030679145 0.2891638016720465 -0.3587292989303945 -0.8301958361753234 -0.4964058969150283 -0.5888848086355108 -0.3833831319252344 1.434008036844483 -1.1420394092946 -0.008885254447600027 0.2876916812535067 -0.2689886586724957 0.3874508026432104 -0.9725701675160717 1.792588750810139 -0.9437473944753255 -0.2021673511889895 -0.3258070257318326 -0.3609924501221334 0.00427734049903395 0.06241207569773249 -0.783135913219828 -0.5118550467824742 -0.8128928551178108 -1.433025477327877 0.5973568583314062 -0.03356002216225504 -0.05009124144988925 -1.848988043366169 -0.5112412825581715 0.4441957412483702 -0.6063522999737962 -1.15816906532869 0.305116395849554 -2.145032261346491 -0.259754300695995 0.5472212947015278 -1.158987810946283 -0.2157131228813722 
-0.6111335010009893 -0.7122521197611564 0.08043629826571042 1.481195542691268 -1.229655270749386 -1.482682912019757 1.769196086349271 -0.7642234683783314 0.2578955660021308 1.209192652784745 0.6288485799032898 0.6649728343244736 -0.1314589455152013 -0.4297001127373121 1.110780946798321 0.0554257478658564 -0.2919911549909397 0.1893418587037348 -0.9307865343736451 -1.345267112311596 -0.03117770472152102 -0.5223413107753165 0.6977835620047256 -0.3053942394770873 -0.05982734226591097 0.2613595097979725 0.9912524592008539 0.8071090306384581 0.04580825438021228 0.03411774629338552 1.657996074443215 0.4716867052938574 0.8835397996237098 0.2877708143222554 -0.7243053807359072 -0.1120004938920089 -0.7700643059124375 0.9803820739119095 0.08719814237962957 -0.6109826232266469 0.7332257689826331 -1.243477050737492 -0.3042346245759413 0.3903884857452885 1.212029806321941 -1.114983035115797 -0.05648536806586419 -0.02532402953442159 -1.239441459119588 0.3992779835403691 0.07133141087656467 -0.2115377314372712 -0.4906364122904447 1.068623144658556 0.3849175763525231 -0.9723692618674582 -1.675865033220192 -0.3702921306982548 0.4204671649523799 -0.407821302561519 0.9336568968302225 0.02358262613163099 
-0.06620107860598158 -0.2822491044505104 -1.89151986674609 2.559915163957384 0.2023203976088633 -0.8855976880869579 0.2737330271543701 0.1356937364027359 -0.6877831929315243 -0.1357557161845239 -0.3835304437732847 -0.00994611120110016 -0.0416126097775561 2.091525354310287 1.306183277907023 0.1243690980899005 0.421278366062155 1.415713494919 -1.255919251404677 1.040526102140554 1.211356739901404 0.9328131309859899 0.591099537218975 0.8961564397400138 0.4156948837402751 0.9819686979978109 0.7483843856289694 -1.562396550853404 1.263039759384868 -0.5909318175478695 -0.1979748267321743 0.7204804962251109 -2.048762022744553 -1.926472685550328 0.3015914084497772 -2.827300144876334 -0.1086184981644576 0.183466845804537 2.340191903460511 -0.7572658474484252 0.7004280207311697 -0.7181216864775783 -0.4509614211233208 -1.34689564559099 -0.4235961428298407 2.124830839192025 -1.28710565488722 0.5103050250780085 -0.6352667366071936 0.7815140819855649 0.7830966260585629 -2.096215818627954 1.62583701427188 0.6069986134167699 1.323142770534081 -1.156005958013532 -1.498398320767856 -0.9210989356643012 0.003272407637258769 -0.9491818194223981 -1.341611583378569 0.7578515847298847 
0.2817769738034503 -0.01110639486732355 -0.3353312458098869 0.1714169596142847 0.4904554205768155 0.03003757978122896 -0.008271494206618447 0.4206414447622345 1.378118667194571 -0.1778206343513436 0.1375757035453924 0.6199626823880924 1.06798382205557 0.1073056226174922 1.180261954550054 0.2282781736614652 0.1713388398525325 -0.8370210440303768 -0.342118628440781 0.2673294138488942 0.7488044835752288 0.2025280359889407 -0.5589483093841672 -0.04489097861988506 0.1184752429502556 0.01439017584353997 1.153399740934155 0.6659301520541959 0.2372625884965386 0.1118147164552133 -0.4739356692159647 0.3490934871091959 0.9241988156276492 -0.2440036613976004 0.348594800515594 0.261459654890967 1.336487632278083 -1.264572504827395 0.2388810445215605 -0.4860570642635257 0.9839006493449299 -0.5317066317093767 0.2084214850994252 0.3284121822658152 0.342090764073996 0.5381500977951227 0.3020277703511343 0.4093008491592915 0.3878366843533894 0.4045741414176277 0.2717612156669268 -0.3925043898186494 0.8935235925821727 -0.8661609067276448 -0.2106501382044325 0.6884433877696733 0.9626581870349024 0.00916331424493208 0.3140580751908899 -1.044716794963219 -1.218109442697975 0.4746027238346365 
0.7048019613753678 -1.031402931031292 -1.974169617684626 -2.667294569507301 -0.4313006660526052 -0.1950258331395401 1.009042396888185 0.7093344924294777 0.6685185300223859 0.6185548144223055 1.26371219934596 -1.40903098901384 1.719877560387299 1.456845448093447 -1.025737711176218 0.2502077489503081 0.5418502173800182 -1.886136794928608 -1.85090817358891 0.6136699103689736 0.260519067305528 0.7312740208033928 -1.119726930632331 0.429229367315349 0.7801874240913252 0.1001775214016476 0.6297511235597492 0.7409370162513822 1.166020854551863 2.329044443950147 1.689285572373184 0.8250644325365309 0.02240536008565757 -0.1255218263012663 -0.5631741700002872 -0.5908105534212641 1.3442399658447 0.3192288216718853 1.463629758221002 -1.299721937118873 0.385183093045693 0.3401077209269858 0.2507735737232756 -0.5434342799646905 2.233864500253683 0.8503798280371324 0.5060568110714044 0.1083845364811575 -0.02559470000688981 -0.7389078848101814 0.09262544647409886 -0.6909294424766268 0.09895565808375176 -0.9607442659981312 -0.608640617995407 1.272245590117468 -1.825292506996201 -1.783194019188419 -1.663406979050044 -1.168769320810726 -1.285494865099968 -0.1511895590252262 
0.3090493686427654 1.0919468298435 -0.5830861544644278 -0.3848717575193604 1.358926220675317 -0.4707569279143842 0.07271929692789708 0.2889649576764645 1.142762120575053 -0.1098718244035018 0.2836298158226408 0.04861384722064627 0.140269889501047 -0.3627548437681327 -0.0396805551944675 0.3652254407072948 -0.1461767970219885 0.309416221760101 0.6841094091078448 -1.139606617041857 0.7825563075291311 0.2201010924290492 -0.6497311291515842 0.5361020569300942 0.4562824949140041 -0.1012121197211623 0.711235661467068 0.9799966209371037 0.2878765174064774 0.1600389665564095 0.06138554498733124 0.2438593690135269 0.07719150390147497 0.04835424161221285 1.174862783973789 -0.2695006123747168 0.8628565723977963 -0.3973654369176053 0.3025056436439238 0.4047129851851691 -0.3451631014890105 -0.3958342678659006 0.2248509072390676 1.74163853834151 -0.6889446225882629 1.314691651448991 -0.199750459207336 1.374758153834772 -0.4333680097936166 0.392834716432646 0.7933824706417602 -0.1138913031948228 0.06148839000329705 -1.050195222307476 -0.5111456696831811 0.3861896567528862 1.142867602604376 0.7040605110178003 0.3057679848005244 -0.1620364638988338 -1.085535987104554 0.5176364644632959 
0.8660027037806899 -0.005965962401923385 -0.9383246050668488 -0.06753646925214339 -0.4594881287573792 0.7695194605738512 -0.2318623924346477 1.032116621391951 -1.465892452888777 0.1258597868284256 -0.1854214894075129 0.2648615285083006 -0.539775032195413 -0.2269835316072052 -0.8442782556183368 0.1244551244434848 -0.1272923447630214 -0.117514975176702 0.7373242192135774 0.3353017861465696 -0.06102683524416541 0.6392551952113076 -0.2419743056371887 0.1803877956622466 -0.3372803202869093 0.3231438375727577 0.4815585324406871 0.2764362807118088 -0.07798111363976876 -0.703321541501471 0.7882027466255794 -0.6870088223043898 0.07587531693355692 1.18572082643286 1.144668788076645 0.4233487223574071 -0.4988480471194388 -0.4291801628035621 0.2936920665028255 -1.436497766515982 0.8816380615981474 0.4107396890082575 0.5086413324101322 -0.9174313041824387 0.08499047661256662 -1.141306198425332 -0.411148836920451 -0.1920123653569673 0.5965811094092563 -0.2603836385971885 0.02190274766558062 -0.004944249961333819 -0.3021497979985157 0.47134058001978 0.7707284069087698 0.4853758030009708 0.8089937024964976 0.7301510911937449 1.676090652641905 0.4460394837617226 1.190540207490491 0.5926412183403706 
-2.410380857853351 0.7145828577673824 0.4290339282498201 1.691878110729196 1.763112294365207 0.2122677366486201 -0.1963150388459834 0.4316920872791109 -0.2493435610268041 -0.6265732223009326 1.601953009031928 0.1694708349461986 -0.381232393270553 1.653780645752565 0.7200887260834985 -0.2376577583928298 0.05063797716969807 0.8438199450234174 0.172614947105216 2.032269740216979 0.7449865383164138 0.1560439661898972 -0.5733622285477478 0.5933141953509228 0.8772022208192191 0.1396024125881326 0.4453291219408648 1.272909678955496 -1.25366026426522 -0.4249563701697747 -1.188515436066459 -0.7004349121969982 0.190239452181918 0.6992052775180181 0.4732851951494645 -0.2178583302419413 0.04398109395797704 -0.3367542941624081 0.6978395421461937 1.012218654474762 0.7763670370380956 0.5144870545366881 -0.2459214298680888 0.07657005812285929 -0.176305514109657 0.7428429996420436 0.6685236405698001 1.465852416002642 0.2630064951297122 1.570530013188388 0.4674293803379295 -0.2610144247700663 -0.5354307623737911 1.140993995929091 1.245345532253511 0.8062155832507876 0.9333874429014138 -1.093316052131083 0.733877648527311 -0.4274386008487333 1.449191423500167 0.4518803070049851 
0.3608707213086559 -0.005465845588912412 -1.047071309160005 0.02804832172379407 0.4123148645421823 -1.087689860026916 1.208865654039714 2.577764774868604 -2.500617678455229 0.09657709476784916 1.382925353197314 -1.0971662595892 0.2187643294202147 -0.391346624089003 -0.8012302089133957 -1.138143161103418 0.1845592873544924 -1.378092233003501 -0.3225761351742144 -0.6802737335992898 -0.04367704299208652 -0.4431438290529511 -0.6526342705643129 0.00230497606852502 1.119871873480188 0.3512141164369332 -1.275018966691078 0.6393800328514563 -0.102423579825532 -2.242717521584177 0.09250282115049674 -0.6316806808251394 -0.6275545985303312 1.370882646287981 0.113935380039458 1.068882552718076 -0.4603998749344232 0.7418232043125218 -0.4855555839161848 0.1735111630198409 -1.190943566564661 -2.857459437023402 -0.4453114680998028 -0.9390514107461819 -1.373884237172259 -1.714920541046372 -0.8381620967265337 0.3486047727479128 1.177309761791818 -0.3349056274654792 -2.299823498870248 -0.6113297514313448 -0.4834434024855829 0.8039083676829994 -0.03422761416683527 -0.6449432607121336 -0.4268631894633008 0.490865759276869 -0.640602697472073 -0.9867542283982889 -0.5561716836812238 -2.034485366710928 
0.8676854474616269 -0.367945962859798 -0.6699800393997016 0.3185140250443367 -1.641768036842655 -0.1095770753118433 0.9509553322768626 2.419996114353924 1.341966608779617 0.4913482952010362 0.281708828748446 -0.05727733035952867 -0.749799239270237 0.788206011970081 1.528317123969097 -0.3114004703685168 -0.08213592142034218 0.2100748040513427 0.6171359240625939 1.528887915253839 -0.4101784155727495 0.9232768986577682 -1.20877832371865 0.4269406420814425 -0.4317400481224053 -0.31440926191158 0.6303086986957083 -0.2397508774343259 -0.27283965125614 0.6029486575437768 0.07191346416193939 -1.413252323576426 0.5462227881653823 -0.07520760630162031 0.4733426958068188 1.112196349383493 -0.2618134335139677 0.452355347219372 1.351227279231761 0.5599390195626045 1.689554672678873 -0.7200182128260909 -0.4245559662885233 1.923977764968638 -0.8861377399792805 0.317894363074172 0.2066032907920206 0.9002895611494123 0.5277934009717968 -0.2044072095774345 0.5676916478549973 0.3600049774577332 0.293633054155237 0.8882878943793999 0.7384779340645784 0.008993365836498665 0.8346965860139678 0.5540269159353042 -0.09569265092518014 -0.46930943572099 0.3264594157675689 0.1574364000577273 
-0.9198096344723479 0.1468485069903505 1.237141695347283 0.7967603020170622 -0.1947975597490881 -1.155023121040106 -0.1658206412813567 0.2014231986882643 1.220076588408249 0.3245087996818375 0.2227494461259338 0.1143007435955854 0.7256803430475119 0.254058127098269 -0.4391981686288624 -0.386336556437725 -0.3621996781434078 -1.168425617747856 0.1892564124316974 -0.7649495673518034 -1.288179259026416 0.4423973730821466 -0.2944316516178855 -0.4984339427021465 0.4297203273487603 0.316311604710918 -1.47554264115597 0.06187649843317098 0.5800732800621544 0.04227739202844542 -0.339448417115519 -0.4781785797657674 0.3737253876239717 -0.886055406121384 -3.29075397799655 0.1650277373784237 -1.036869317158673 0.9809393143012043 -0.8693611403398953 -0.5086660324391821 -0.3828803262350469 -0.002426849522066035 0.2317560877980271 0.1735478513091939 -1.089860018958873 -1.394049140313463 -2.533048403162612 -0.831430547041729 -0.2414169266239106 0.1499430057876899 -0.4620872305202215 2.277064481958882 0.6552411745831126 -0.3450037470585202 -0.1555688814520987 -0.7551238643687467 -1.33149208603781 -0.6678277003916847 -0.7976468767235148 -0.2588824366087796 0.01062340316441535 0.1377451823497832 
-0.417456986478801 0.6354686597868279 -2.262050272969952 0.2932440579303424 -0.7237470563341984 -0.1959727568281183 1.028156587309242 -0.5884194159273299 1.434358810564915 -0.3119049401129298 0.1355752606829949 -0.7205428080226786 -0.6715345734258747 1.253381159433125 -2.338889059166425 -0.2683550888689474 -0.2932289707259383 0.9499930289626219 0.2328346975553212 -1.703004823389763 0.676812844061246 1.006764956786494 0.3232812554788982 1.090763287556669 0.1550268909067884 -0.4356587907141681 1.158399080609372 0.3581349984735704 0.6357992694178681 0.4950840739678862 1.719615060083398 -0.3863274850298109 0.2827911044398515 0.7518385557368475 -0.0829241712137173 0.7431331307728192 -0.2273157176147361 0.09013707367486057 0.3147611422969553 -0.9341622218269887 0.7059788506413379 0.03812438668807968 -0.07918872642637219 1.74930420492532 -0.8563344949239619 -1.507017649698418 -0.5254961200218931 1.176992323181679 -1.119110326101478 0.1925318129306269 0.03063026018294362 -0.6297052683245287 -0.996920490128788 -0.0235803108965748 -0.6423949507995165 -0.6926940197816308 -1.365957654701909 0.3514227570758646 -0.2626484327954067 1.102017083373126 -0.1681417903329299 1.216756089402526 
-0.7285068060710955 0.4510619074720162 0.6119898860738116 1.635387879786411 0.3858438817726207 0.1976773041082008 1.352655049995836 0.2147967844382771 -0.5308826242109812 -0.06728837863587853 1.258475245420198 -0.9127404159745955 0.8703931199194987 0.1998702748043037 -1.973620651922149 -0.1579105349134234 -1.353829514760061 0.3689110340009251 -1.936009926805642 0.5565034880408591 2.411345783096726 1.20733818875702 0.9697270085317387 0.2279067559535329 -0.3049878798223456 -0.8443457519813347 -0.6899024488324339 0.1890950900993641 0.7590383871267741 0.745284650612133 -0.2338668625825812 0.5250045591701156 -1.621599512759154 -2.090985989867228 0.9853443705802397 -0.3860257849573037 -0.2476405877442203 -0.5614704722465516 0.3103594639841741 0.7834843809172346 1.020499063257637 -1.335120831833459 -0.7817287982282727 0.1458451340949073 0.6695716163809168 -1.654794410280944 0.4967569415548815 -0.1997101987101 -2.361788143432398 0.1399161909406366 0.1089073701339258 -1.493030951303317 -0.2890900684277518 0.04623489919608988 2.623099421228522 -1.40886580621402 -0.2613795521249261 -0.2159363580275999 1.552553586672641 0.8141518555954768 -2.507392449295539 0.7410942004680595 
-0.02065778260561732 0.4121937781379717 0.9647218255581599 -0.5801799180449364 -1.83587221912573 0.325549316269279 0.5163947755190053 0.8122599582322974 1.538054795589482 0.4410967367703735 -1.505722453085361 0.2088935518643252 0.579584443014256 0.006299825662576381 0.1995016657066788 0.1067833650096524 0.9865323522130303 0.6001912197735099 0.6868561244638456 -1.563071916654605 1.194272039655384 -0.06150027081471375 0.2190396691548554 -0.5229767172273229 0.2686059350902933 -0.6644476864633972 0.7378538054283345 0.6631813727082778 -0.5208722386602527 0.1728960300740628 -2.460203197024555 -0.3083894588857785 -0.8309308986140518 -0.4866748415156384 -2.010038263111122 -0.2135438067437192 0.165969374327513 0.1298323361437251 0.04613991358552446 2.604880916181654 0.8803360809279894 0.3198438389030068 -0.6881790761691455 0.5644320923201634 -0.1818590654694039 -0.2853715816978958 -0.7120055129027135 0.1871928375963648 -1.026756004803413 -0.03810729280369937 -0.1576197139123453 -1.006224200852069 -0.1181135372766568 -0.8580097853581481 -0.4002505330181607 1.112964479881957 1.152275235663271 0.7353022044254123 0.1665868897941532 -1.407408161247689 0.6983044509392359 -0.4464850165455152 
0.6799881306531279 -0.642896638929052 -0.5002271258498077 -0.9239689042068935 0.5977246957229503 -0.04982589107324015 -0.6417042172946114 0.8079686292851924 -0.4193871151983668 0.1786668851759328 0.07228381091107691 -1.137387582905318 0.6983647237808903 0.1403456955635987 -0.30088170974777 -0.7481947014548476 0.3012617491528787 -0.3117464006862822 0.6122246169468814 0.5513571416969107 -0.9493597113337405 0.06341256780753286 0.2193302632733889 -0.02141918348236735 -0.004058221919665229 -0.2430534679303352 -0.7311283509771025 0.01633821818032903 -0.8855459537104903 0.1273076656567491 0.5477888556759622 0.3488695078672821 -0.3040936346289037 -0.4665928809919334 0.2479147041668646 -0.9854244478625214 0.4560021962332043 0.3355879286147813 0.2707077086507325 -0.4451878783790014 0.5827753674491882 -0.199446548994143 -1.013206052875445 -0.5473332674095426 0.4087618430787996 -0.3217183076642501 0.8505940027688805 -0.7436757373597145 0.5200412263845591 -0.5307992017938519 -0.157389416630057 -0.3724502908878305 0.4339154004929284 -0.3046925169522406 -0.2338328254977057 -0.2078622034059621 -0.3153965048552926 -0.4574222224606598 -0.2982651708253687 0.07217180173962962 0.0021950048971975 -0.8889382241302688 
-0.2987857572830541 0.2200666464224723 0.6295407008682407 -1.666361351232376 -0.8926885613619863 0.2164829041575839 -0.112954582492171 -0.2220144771461131 -0.5951187930708819 -0.1347045385258691 -0.2008126664311565 -1.231542974665245 -1.778596717695661 0.6065415833223656 0.2399563685432018 0.18475075731352 0.1129989869743405 0.03587454526723846 -0.1202209314444227 0.2187581915392536 -1.12457800490361 -0.6381731770089786 -0.2249809494846362 -0.2606579125179372 -0.5973941059190178 -0.03501367134250993 -1.003103902275215 -0.09257173607746737 -0.1495291512075166 -1.299836394391648 1.137332425936513 0.02579424320525436 -0.6819861626488327 0.1195200841258506 -0.2469434090899687 -0.7044217928752915 0.02434080403808952 -0.07271854609671742 -1.135670992625686 0.6540845663410672 -0.7888281692604733 -0.05637441699203166 -0.5671206053768411 -0.6224825053434144 -0.7765911585044751 -1.658993373740577 0.4111735767815814 -0.5380276813573336 1.085927308865409 -0.9449609208433274 0.5323175354655821 0.7732590619060462 -0.4498616848871788 -0.8145181322191757 -0.6721215611626987 -0.3167650015481163 0.7205680230138412 -0.3976747459667969 -0.4842608219989195 -0.0633726326734157 -0.3352437474318373 -0.8212342052261548 
