solver_type L2R_LR_DUAL
nr_class 2
label 1 -1
nr_feature 1062
bias -1
w
-8.387536131890492 
1.530295047040539 
1.03137834938701 
-1.925327667225674 
0.5100710865737367 
-2.410366968995489 
0.2232145957131134 
0.7029363059947743 
1.315197955040973 
1.139803802378151 
-0.1655062063065608 
1.420328369795984 
-1.7717555863523 
-2.104117686186975 
-1.6496874018912 
0.8508060274856024 
-0.3362917679653471 
0.7353511506890478 
1.205342412974775 
2.035911202608348 
0.4465352166120419 
0.7844701700889357 
-0.8519803089762288 
1.456261890471522 
0.02127191614730589 
3.354217897161417 
1.477481572123535 
-1.145743025807601 
0.833009238698147 
1.590008865334409 
2.735405297339453 
-1.781134017503694 
1.114507268628274 
1.975979378639974 
-0.3805966753089817 
-1.808241348095577 
0.6627914433524966 
0.3026467490008375 
-0.4572860555874335 
-2.668431513233062 
0.3765186360279635 
1.526129099988769 
0.5031226260832128 
1.181279882828706 
-1.202436749624951 
1.456510650653162 
-3.133108855807533 
-0.9198367880378874 
0.4975540372230568 
0.314635807728292 
-0.2936001465775688 
-0.3809404669851444 
-0.4606727861108995 
-4.219298616891388 
-3.8058063671514 
0.3084092123146175 
-1.307514127439315 
-2.629268004314468 
-2.430477530564731 
0.199530748247003 
-6.270964130347455 
0.6290194983247288 
-0.1158847318371161 
1.964656543528894 
-0.5918265698180816 
-0.6988509311145521 
1.185078539055143 
1.477225183868671 
-0.02949249608085841 
0.2505028569377481 
-3.0429061093697 
-0.2518662749061686 
0.9475823448868346 
1.624983939511098 
0.5073162487732775 
0.2587282996859405 
-0.3977850685243764 
1.63133512900789 
0.4528547764107937 
0.05744078784023737 
-1.505801002908083 
-1.967042232223698 
3.121961048943697 
-1.071883646561363 
-0.255183803826013 
2.492220034653856 
0.893945822498038 
0.7030399138586708 
-3.156099573828026 
0.9445299476977848 
0.9284466913024508 
-1.214196692533267 
2.604529880689504 
1.682012465217679 
-0.6359834998469367 
-1.626841461036967 
2.743362559167532 
-3.20436665548408 
0.08125934567699634 
1.091876607180101 
0.5993988127950398 
1.833368519854385 
-2.403127411733815 
1.409428803169317 
-2.101919752385811 
-0.4803424030961706 
-2.110293354148614 
3.520461868743166 
-1.620209648210183 
1.013007688746033 
-1.034287730426595 
2.910956981760261 
-0.6993994689438342 
-1.017961674934285 
1.356330179591044 
2.318800615523673 
4.032910396716244 
2.321642155694612 
2.807374624335069 
1.949464012401057 
-1.509327672206617 
0.697990809308806 
0.320490705088298 
-0.6289131355237538 
1.078972461729505 
-0.9989370312901891 
2.135998133915964 
1.467037826512018 
-0.8863986180712693 
2.859104925833829 
-1.185186095183795 
1.193126216245156 
-0.7211170256708727 
-0.5240733348705073 
-1.976657825790925 
-0.009711008505346062 
-1.060803483429413 
-1.101510131679598 
1.667225773941089 
-3.964404024662839 
0.583889138900558 
-3.082755093339812 
-1.190235029342521 
0.1110820582586871 
-0.6237508311433118 
-0.4693829645182604 
2.428887865408945 
-0.4553903006282104 
-1.750213729423142 
-2.168803564510544 
1.067875772439719 
3.457199600032016 
-0.7679151612506054 
-0.005298149747258668 
1.575442575446897 
-1.100305259250472 
2.13631842997229 
1.302380941960748 
-0.8622637195510251 
-2.248298713048785 
-0.2283352061757751 
-1.512500550204734 
-0.2483616900752455 
-0.966590700935792 
0.1974231143524323 
-0.04025589018005862 
-0.1083910349325521 
-4.203415759807926 
0.4992386926935462 
2.598328191847345 
0.03835787279527442 
-0.9046700698624149 
-2.02992393238378 
-1.354708978121005 
-1.100876623230698 
0.815112850084926 
0.4286761018615072 
1.963051881853605 
0.3313068594577411 
-1.245651801402577 
-2.121673682876482 
-0.7745962500629852 
3.325239666179172 
-1.642801416566937 
1.396533202538731 
1.001153469116042 
-0.7895579485989498 
-0.5740462844699539 
-1.14889231985745 
1.195891371452836 
-0.5552073857072743 
3.556579001018238 
-1.377282826014337 
1.10875778181972 
0.6478305776556895 
0.996012277285763 
-0.3174746005190013 
-1.341847629559542 
0.3651198632579591 
-0.2046431670109777 
1.711303280670966 
0.2400573596497714 
-3.111532167772249 
1.130778236615034 
-1.254144518905399 
1.739458252526301 
-1.772297208756702 
0.9968532450775591 
-1.735311943040531 
3.363730647378022 
-1.755819237172733 
0.1986243473436215 
0.5291211569745771 
2.059588309758963 
-0.1018149739784025 
-0.1234125094236031 
-0.07997187976314186 
-0.7430624818240359 
-1.414379206125234 
2.554661183250814 
3.161146650631686 
-1.536950149416764 
-0.3011579352019588 
0.2304359558509659 
1.740002923767126 
2.309566033014029 
2.359878331866005 
-2.662365590213088 
-2.569269584863517 
-0.2943263779459135 
3.178541367726687 
0.1430287336868288 
0.1247001503612686 
-0.3339236190421578 
-0.06122538156013068 
-0.3071224535892424 
-2.82909656876815 
-0.7469132869876149 
-0.4926376976838757 
-0.3584209503634699 
-0.5705810259254379 
-0.2894131218556706 
0.4488622645308052 
1.231637346774691 
0.04943676460390246 
2.360895985535273 
-0.7431349147045734 
-2.82335784444016 
0.1706309723543555 
-2.637809801655725 
-1.536476295283912 
-1.429953303107752 
0.0249651435813884 
2.75736675322335 
-2.44008926527462 
-1.073367358699637 
-1.060929763411551 
0.9200551441031167 
0.9946347348551112 
1.408354503725548 
1.286422847342519 
-2.296058330132483 
1.03188335419477 
-0.2088364328603918 
0.1743667647105096 
-0.7724843905494512 
0.05943740847657977 
2.040881662360721 
0.7513615768999409 
1.023540951597869 
-4.339777757465498 
-4.193960213080764 
1.824360908128213 
3.533478524098123 
1.388147212167851 
-3.892791376312297 
1.043617117942017 
3.087879322572904 
0.7856424852786671 
-0.4215706914675058 
3.032555508038471 
1.337526272412908 
-2.609657579138072 
-1.49756590745789 
-2.573460137736519 
1.03456956959873 
3.861437113980204 
1.488178863687048 
-1.411851363678047 
0.2150895425619691 
-4.278186471524911 
2.895194625639141 
0.1534442779300189 
1.679105464674512 
3.111207213098692 
-0.2973198632389539 
-1.989768816807842 
-1.333586492748308 
-0.7855152769162956 
2.287176242813946 
-2.241943649477989 
2.83868492101901 
3.057367791587414 
0.3744192654909053 
-0.2915664991049463 
0.9641595722562913 
-3.430515235369044 
-3.710000956323144 
-1.031451835303966 
-0.5016730630433036 
0.9296197509402667 
-1.472786690914603 
2.977881093351727 
0.3075419167804492 
0.3062893796074721 
-0.02973072665382025 
-1.093792469772662 
-1.275094520201848 
0.3716713288811914 
-1.405465669646435 
0.3470242063401515 
1.259362175220703 
-3.110948568642651 
-1.039288082005694 
-0.7516971410962373 
2.486676528989829 
2.144654168007108 
-0.4493323741369691 
1.944301301749049 
0.2707703447131904 
2.07328546141983 
-0.3806746959960398 
1.284118105094401 
-0.6663918671490716 
1.27016594371309 
-0.006286077491976248 
0.07421322525765309 
-0.0857767604940088 
-1.117577152736858 
-0.2519778818082299 
-0.5967639268152235 
-2.668535915700589 
0.06559359910771069 
-0.09754827341184173 
-1.563508730532244 
0.2814268689932999 
0.4992277157302344 
-2.297844635499937 
-1.390313567754367 
-0.8867342735819873 
0.5088571965753813 
2.623045754052622 
3.535984948035304 
-0.9639336735102501 
-6.458851024906384 
2.375732709578503 
-1.223190347645911 
-1.46467157910598 
-0.4645945182711101 
0.07353693466461841 
2.776690579917009 
0.4870837090123085 
2.209676528293806 
0.5132256465428783 
1.45325529818241 
4.757484211280723 
-0.46085540175061 
-1.315999052465875 
-0.3594145681667626 
-0.2259164629033635 
-0.8380781532638871 
0.5925076304879141 
-0.4830856142865546 
0.1835481458349326 
-2.649897972575912 
0.7135988595517651 
1.398139687393277 
0.5436668357715629 
0.8302530117130286 
5.119283648151772 
1.340587936588923 
-2.494254526360311 
0.7614606574621471 
-1.249724221017494 
1.577319717946182 
-1.172055831159163 
-0.4795300786394408 
-0.831002613313471 
-0.7454864817087639 
-1.011899060141861 
0.1687394717305684 
0.3553577958577222 
-1.338683541821811 
-0.8390111557013487 
0.8805791815055513 
0.5237668573950219 
-2.764787077907821 
1.626587370153855 
-1.338497131825661 
-1.149362582086794 
-1.947849813488525 
-0.7627278742954974 
-1.269833172108555 
3.773292664290244 
-0.09865168586540264 
3.117820467955113 
-1.275201451257579 
0.6054642537986975 
-1.203846566195515 
0.7506489518242055 
-3.27498193934133 
-3.568495148517512 
-0.2962337812260336 
-2.31458588534945 
-5.5989530236204 
0.2808756041093356 
-1.085614359461386 
-0.683617094934305 
0.5398760624147907 
1.574246521771691 
-0.3193127653683202 
0.1336392079671324 
-0.1773022765370579 
1.578257287265566 
-4.796265397113515 
-3.864321135164442 
-0.4117768265579059 
-0.02295827597979344 
-0.02900441958773057 
-2.020610925684113 
-0.8941978661951252 
0.4198242397370007 
0.00873095645097241 
1.479243771558281 
-1.838535708841321 
-1.467256770863939 
3.556853705434259 
-0.1408934910409503 
2.088876058315144 
3.113111332929433 
1.138069130533194 
-1.921097468333059 
-3.368740087054307 
4.378518453096116 
2.764892668014697 
-0.8217206771144393 
2.936835917126888 
0.2058809884641397 
0.5878602126299718 
0.02115815171692007 
1.231921512170414 
1.528560274387629 
0.7463424879733597 
1.378141350127135 
1.535663736513169 
1.520816512376275 
-0.3343813317658862 
2.53378307577485 
-3.009084388958474 
-2.821053595206948 
0.8667682631460888 
0.6412436367543608 
0.8699396397949027 
2.048887207929353 
0.3555244148534494 
0.5543416547223377 
0.6158677482193871 
-1.522429127442666 
2.571914375591573 
-0.3075925381660297 
1.193097504117958 
3.01857699468041 
2.895609049940081 
2.155793869351736 
-1.190403724986645 
-0.5724329533334115 
0.8773483364186354 
-1.829287939615665 
-1.110257303287617 
-1.81304550480604 
1.186725194056035 
0.2482798975113378 
-0.6267300873611081 
-2.402202994607149 
0.9285677560658325 
1.355918491551878 
0.7254176801506322 
-2.568255088493834 
-1.09041778544978 
1.828096272547141 
1.052854041945046 
-0.2871283761922526 
1.66708058017072 
-3.829313436272661 
0.1261594745918049 
-2.339094582522594 
1.84530645970411 
2.184121036509808 
-0.9614379007187726 
-4.085023036858384 
-1.219703885272847 
-2.214340424642166 
-1.192577199253874 
-2.486071076137999 
0.1345228735049791 
3.805239122037352 
-2.157618888263932 
0.5048139515338119 
-0.4111707840634959 
-0.4278188336122838 
-2.598453532262386 
0.3926597798468516 
-0.157173442313355 
-1.687915599603784 
1.685630507728663 
-0.368309286606927 
-3.770916297565363 
2.029077765329022 
2.501785588429842 
0.9733313931569796 
-0.09607559191138806 
-1.509550089778304 
-0.4161060785320881 
3.976409157862205 
0.4826955181615045 
-2.492743177750901 
-0.7141791462061196 
0.2767871027268042 
-0.3082782929895507 
-0.935944788532055 
-0.2467384269300373 
1.416749426609499 
3.029802084848296 
-0.3129624252564632 
-0.4283691812743395 
0.1363415148000332 
3.158956528049945 
-1.617287695953152 
1.808079193296889 
1.415256977984564 
-2.180225082097815 
2.06310576813092 
0.8086300530720396 
1.138582108484246 
-0.618021338818624 
1.60932819591397 
0.8641640016245108 
1.239168457505575 
-1.352750024383607 
1.182490025565077 
0.8532089905314908 
1.387232912303886 
2.067339854653309 
0.3849668723414566 
3.750894173937899 
1.574751171251292 
-2.972108898414615 
-0.06721047708913551 
-2.399973969843964 
-4.817614917475086 
-2.713246832436274 
1.42962314203507 
-0.5248256684075577 
0.4824471824050519 
1.679165634260995 
1.012953805239013 
-0.03159057139678691 
2.655992734278238 
1.246936944066577 
0.7475391152167782 
-0.1447565430163819 
-1.105284719086418 
-1.866437752892658 
-0.05073907912702263 
0.9234635373780534 
1.80161866572887 
-0.296372121177834 
1.378054702983846 
2.103705409640689 
0.457263975738484 
2.44429999600123 
-0.4642917311426266 
-5.403024835231481 
-2.069530889085546 
-1.477179416629733 
-0.2133866242774501 
-1.907330939020081 
-0.9654206840598607 
-1.546650874181605 
0.01549328594603795 
-1.927274498398272 
-2.081442889531023 
0.3430400225877468 
3.807678103803346 
-1.11347594351048 
1.112220592827441 
0.6215828319874116 
2.428964306663882 
-2.823765470385023 
1.460796590507391 
1.446474945154405 
0.727525066083331 
-0.8888937382448037 
-0.2614097002625655 
-2.142381563438768 
-0.9408715189423609 
-1.076642839415509 
0.1745403708507307 
-2.848046107192943 
1.223455775277305 
-0.6433536084328483 
2.849642394954341 
1.549990904292186 
2.824219934268975 
0.9141775843517922 
-4.4677233082204 
2.797686272609062 
1.076585917437359 
1.173631309941368 
3.604970926591347 
-0.9288802375919588 
2.383914875638947 
-1.711503123880063 
-0.4836065566498642 
-4.327040110012266 
-4.818980494054965 
-1.252178067939889 
3.911354539104023 
1.443085578095163 
-8.971255506325161 
0.5145585731557322 
3.272829878288896 
-2.215882174238468 
2.143169017262873 
1.114625535521143 
2.143535076432567 
-3.560702062120915 
0.2652363430855746 
-2.58320489795522 
5.759100045162473 
0.215113218776509 
-0.1048512155506497 
2.462264157505873 
-0.9860314238172605 
-1.377920491811383 
-0.61419680731085 
-2.170088488609997 
1.819161797133422 
0.4162914082421228 
-0.3690981462337919 
1.462305611413892 
-1.509307975206558 
-3.579458952839479 
1.692693330259686 
-2.566562049864794 
0.7023173171019179 
2.103972775517463 
2.353675011917032 
-1.6643867481566 
1.343640124415405 
-1.191521589127259 
-4.668336525031945 
-0.7181609979060791 
-0.02398982405577588 
-1.285423411993122 
-1.127363536549756 
-0.66606381155714 
1.002139522307828 
0.4442795049410267 
-1.766885036299739 
-2.114539566514493 
-2.834480877205119 
-2.087036204682174 
0.1895888263094552 
-1.337240080997188 
1.48411153304936 
-3.613145552896468 
-1.014269627478976 
0.9392988577545709 
0.3078317184793846 
5.334573349602574 
3.064848649728311 
1.389439659902026 
2.068995629439728 
0.2393102564959907 
1.085888788168025 
1.176034773675392 
2.173350289719314 
-1.260785845090131 
0.01303476587077684 
-1.816841149976243 
0.5364103379864343 
-2.145100797525207 
1.578017929672788 
1.081447390166177 
-1.845910711063639 
2.184147372825822 
-1.019873299830579 
-0.9879449460681694 
3.52435636702214 
4.318874081848917 
-2.927936656975946 
0.6275297528500448 
-0.1337589883930658 
0.1422106312380468 
2.492607288227004 
4.752497472997646 
-1.0511988208082 
-8.116164092453584 
1.536920236892231 
-0.2307089401130055 
0.04018552553634601 
-0.7098271621568503 
-0.9221224066358923 
0.646328145388236 
-0.2330819518761812 
0.03496787861873518 
0.8207727190376922 
-0.1261403462740337 
-0.7956207764650236 
-0.5014166991660486 
-0.2720036020249609 
0.7836843247222254 
1.720984805167445 
-1.387433296812532 
0.2019867418214744 
2.94044911067881 
3.117563476767994 
-1.338801151058258 
2.384418230969942 
2.30175880614236 
1.563438026736805 
-0.6369658670935915 
2.658116249510083 
1.83795269136664 
-1.337027206216878 
-0.5095396821181682 
0.8653535756102616 
0.04880509649067635 
0.02419050355100336 
0.5198108902585912 
-0.3898166812856148 
-0.104006982237883 
-1.030884960152681 
1.606719632816832 
1.949120639695851 
-2.145146776953199 
-2.475987464121528 
1.336546484824407 
-2.640131556364576 
0.5118326363186563 
-0.5738652798701801 
-0.08161327033396217 
-0.03822355148174678 
-4.199999095954321 
-1.294135061453017 
-0.7203227973010486 
0.5826588216707832 
0.3118188094048589 
1.86359166725408 
0.01043786375233448 
-1.815507940675686 
0.7233955869820825 
0.883960141130756 
-3.340613409124173 
-4.523080841332506 
-0.8289092294745563 
-0.3874060958265111 
-4.66091484272942 
-0.213006181344835 
-1.644335106195281 
-1.893470136334488 
-0.4238409173552908 
0.9852504442260412 
3.609177515341045 
-1.12723950141999 
0.4469781853250862 
2.51286647484845 
-0.8870365487457419 
-1.527241654173914 
1.10967694305565 
-1.515489990202415 
0.7433349366752516 
-0.05418526687395932 
-0.138852532078399 
0.7282570623387362 
1.753478789089099 
0.2021866472290837 
-3.22191720433168 
-0.7620733765809211 
2.370220474814228 
-0.4785253342868956 
0.9929380386651829 
2.902699330256056 
3.758414925718613 
-0.5414529189420075 
-1.825976655401166 
0.1382346648300943 
0.4164338900313735 
-1.415649636398238 
2.135820958609247 
0.6221272046340542 
1.603604548673929 
-0.9464160565846295 
1.742129898519036 
0.4023491733497454 
-1.021123618688585 
1.886057024295354 
-0.105148428602426 
1.601976709832097 
0.2276867729091589 
1.801977425292202 
-2.62317410862796 
0.2137009431768716 
-2.495123227426971 
0.0004311336995121868 
-2.605256333438287 
0.8920130508161119 
-0.5060134565413267 
-0.05229519450494522 
0.06952059409075298 
2.070809906146953 
-0.09023610052432264 
1.949469346258494 
2.397722372473302 
2.470726335301902 
2.841709289582528 
0.5116799129843336 
-2.090684399551176 
1.186992310078461 
1.229057828502494 
-2.786456816400068 
0.7161001730155335 
-1.756168612384703 
3.240505627659207 
0.153848094819785 
-1.365231271636025 
-2.278828231817077 
-0.2965777498486197 
-0.05744153224469276 
1.184392287153522 
0.5671646667615627 
-0.0979790686900027 
0.8819470124805212 
-0.4241464149111914 
-1.737581689584392 
0.6630572614518332 
-0.8501121633001919 
1.889451515124096 
-2.656374021217802 
-0.4482280194030777 
-0.09798643997005968 
1.119797922474452 
0.8244083441829496 
2.18433768798537 
-0.8348452740607371 
2.237232413051321 
-2.412432919561267 
0.5609424018794609 
3.427352833030312 
-0.4383266696016791 
1.219474938832581 
0.3884703957850346 
-1.32377888396372 
-1.186817956982799 
1.172608082721432 
0.1214772083664158 
-1.069328511369027 
0.9527175720703799 
-1.528382118306696 
-0.4013078138493197 
-0.2744482845644653 
0.7173607630325818 
3.136686146130073 
-0.9793247026700725 
-3.751662283985072 
-1.194454731988342 
2.101862207793487 
-1.132747519184341 
-2.310208049857642 
-0.6446454755698986 
-1.175649522642679 
-0.6290856674403172 
-1.396529343141742 
-0.1872631655615482 
0.5568002097699728 
1.235415389576462 
-0.5307348062262444 
-0.5019532622082876 
-0.6171727135388588 
1.828896533714909 
-1.992985298319372 
0.2485308605399016 
0.5460653875227577 
-2.029101606555505 
-1.088777736932429 
0.1333375390765692 
-0.9158623075811365 
0.3145384725000735 
2.708564040254316 
0.4889854889464672 
4.039182936107848 
1.013935826890954 
1.691201798052402 
1.48763122146631 
-0.5873401479823441 
0.6022452531917473 
0.7350681473675703 
2.891983216984065 
-0.005993964076086268 
-4.049036356511349 
0.5644558764688604 
0.7477768969898521 
0.781164092327687 
-1.148337297054863 
2.289339551611774 
-2.088891287151853 
-0.7379165888566931 
-1.253332507837834 
-0.3275110407088445 
0.3328814097646409 
0.7478676443265203 
-0.7107138849258041 
-1.341712538459493 
1.6463825099378 
0.4147703622466354 
-0.2662604263578552 
0.897820589318949 
1.26919649099533 
2.889500181518472 
-0.7805119453219423 
0.145167805580018 
0.4639300594482553 
-0.3114756461758825 
-0.1811726523404495 
-0.4120289839670795 
-4.704651839236909 
0.1787416917894964 
-2.735020777420398 
-0.1314425526816036 
-1.283587108214878 
0.08086189678587666 
-0.3130603927636839 
-1.096404020334253 
-5.514677314647973 
-2.000979029546334 
0.6263495040015954 
-0.08583874373405408 
1.337542593175643 
2.611620459553968 
1.899370629770452 
2.526282954768246 
-0.7292723657590615 
-0.1981914996059481 
0.2306841325845059 
-0.1142229304821995 
0.6367764062388751 
-1.30139592509401 
-2.842464271698029 
-3.286772606714261 
0.5459147707873279 
1.797273657393065 
-0.9565979062139963 
0.9839898522491443 
-1.328622412458122 
2.166915623009381 
0.7125653693118437 
0.4247557972264479 
1.243552996270292 
2.207963792811003 
0.9829566119399209 
1.19726929498628 
-0.3396815114145156 
0.2534261265576247 
2.033601174844474 
2.662050389836821 
0.2587861163401118 
0.1282057233086689 
-3.622647741100157 
-3.569915329359315 
1.407746295034875 
3.763829325528381 
1.594798224145378 
-5.397843364784553 
-0.1488361699286619 
0.8298452073599917 
0.4442654017455502 
-0.7390312628065964 
3.608702558433078 
1.335532536289977 
-0.6893208632653375 
-2.137819270770856 
-1.042314334236047 
1.422761740731056 
1.045944241162695 
-1.402655974834236 
-1.878930114451862 
-2.241308933777344 
-2.292351164335888 
0.2051964363171175 
0.3129283933330336 
-0.2180913576291241 
1.375070906138745 
-1.898775190875164 
1.424469041383313 
-0.6997225003438203 
-2.283262180456799 
0.2778778346685691 
-0.6984205077037248 
1.551872166116092 
2.520634140610852 
0.9064945389326974 
-0.5015490055960593 
0.4174339176777067 
-0.1958640266531598 
-0.777043108128606 
-1.002995481860706 
-0.8358337519309869 
0.2168046276053671 
-3.478970819760756 
0.6375765050140793 
-0.6445709779609088 
0.04178940028846116 
-1.711892583821419 
-0.7119012980317918 
-1.511543795417398 
-1.363363802974715 
-1.995417401900441 
-2.362250181207832 
-0.07768852198594146 
-0.4265596946431404 
0.09519292333498471 
0.630479986245103 
-0.4872294568872898 
3.714427736770819 
1.118559811486713 
1.526271919632502 
-0.9885230388180613 
1.470152677606833 
-0.3376342259587134 
0.8046223587517778 
-0.2363355539904848 
-1.018832655831255 
0.9870352335245036 
-1.077851189856938 
0.8666808638986179 
-0.9420716997243141 
-2.992334813168763 
1.038817404684863 
-2.263560671960435 
-1.381232159527112 
-2.519676382057773 
2.895520883754814 
3.495530018297923 
3.459314165285793 
-1.815072410189159 
0.4204340133559958 
1.708001579620409 
1.320837341630861 
1.812250507568723 
5.435637630130377 
-2.939650133852407 
